35 14 25 7 21 -23 -11 -34 -32 3 -9 20 -36 38 -32 -38 0 -43 28 -17 -7 7 24 -44 -1 -31 -18 -14 -29 -35 -44 0 24 -39 -24 21 -6 -18 14 29 27 -15 26 -39 -41 7 11 27 30 20 -42 -19 23 -42 -14 38 -37 18 -43 22 -35 32 23 7 3 45 10 -20 -21 -5 -39 23 -16 22 9 17 -27 -13 19 28 -11 32 -22 -9 -44 5 -38 1 -9 -4 -27 24 -29 -6 2 32 6 28 17 -7 -21 41 0 5 -11 -11 3 -26 4 -39 32 -39 -8 42 16 -37 9 42 9 4 11 8 -36 14 33 29 -35 14 22 14 42 13 -17 25 -27 -30 -24 -20 -42 18 18 32 -40 7 -5 13 7 23 -12 -14 -1 31 42 10 27 24 -38 34 -34 -30 -4 7 -3 37 -27 13 4 8 -22 6 -11 9 27 33 -9 41 42 9 -12 33 -16 36 -30 -26 6 -1 15 -40 -5 29 -18 -18 21 17 -14 17 -1 7 4 14
38 -35 -7 -14 10 32 4 -2 36 -34 -44 -10 8 22 4 -42 -7 -15 -23 34 -1 40 11 4 16 -1 -14 -17 12 36 -32 41 26 40 4 -31 6 -28 0 18 -39 -20 0 -12 -44 -6 34 -21 -27 -20 -22 4 2 8 -36 39 -17 -21 44 26 -9 2 26 -42 -40 -25 -21 40 -45 11 -24 -11 -35 24 10 -20 -10 -35 6 -27 8 25 -3 37 7 -16 -39 -23 36 -19 -29 31 23 13 40 44 2 17 -42 -9 -27 32 39 -32 -39 -37 32 6 -23 -9 9 -10 -23 30 -35 -20 26 -6 -31 9 -35 19 27 28 33 -29 32 19 37 43 -32 -9 32 31 -30 1 42 -28 0 -16 27 -36 8 27 37 -9 18 8 -32 8 31 30 38 28 -1 -18 -33 41 -8 41 37 12 14 28 -45 19 8 -16 1 3 2 35 20 10 -4 22 -16 -11 -31 -35 0 -44 -3 0 -43 11 -34 -29 33 -35 37 10 -7 19 44 35 34 29 31 -44
-11 -29 19 -23 -9 30 -12 -33 38 12 -44 -36 -9 29 -43 -13 35 -24 -6 20 19 6 -28 -1 -42 37 -39 -33 35 -33 13 30 -39 -33 -33 45 -30 44 -30 37 26 -39 22 -10 -36 7 15 -24 39 30 33 -17 37 20 30 42 29 -22 -23 45 10 34 39 44 11 -24 17 -3 20 4 35 8 45 -10 -21 -21 -23 33 -35 3 -1 -8 3 29 -32 -13 -31 41 21 -43 28 24 -28 17 -40 -33 9 25 5 -41 38 42 7 -24 -39 -32 37 45 -5 -29 1 -9 -3 36 17 17 29 -23 -7 -22 30 36 2 -14 -21 -42 -39 12 40 45 -5 15 14 -44 31 0 -13 -10 -19 -42 -22 12 -9 12 12 41 -32 44 10 17 -37 0 -12 37 39 -35 18 -38 26 -37 12 11 -33 39 -10 -36 6 40 40 38 -17 18 -20 37 -15 27 39 40 -11 -29 -42 42 13 42 -20 -26 41 13 23 -16 4 -37 -14 4 -30 41 31 14 -1 -17
42 -38 -27 -15 21 7 -44 -23 36 -39 -6 33 34 -40 29 36 3 25 4 -33 -18 2 0 -28 -11 32 26 -45 15 41 -10 4 -39 -19 39 -8 -25 31 -33 -16 4 -8 39 7 -22 32 44 -1 -18 11 -29 -45 -19 -13 8 7 11 -16 -27 18 -2 -18 5 19 14 27 3 45 -21 21 -37 -11 -39 -37 43 1 20 -16 24 -29 -3 11 14 -18 3 -41 -40 -36 38 -4 34 44 33 -18 34 42 9 -43 42 -34 -34 31 36 11 -29 44 -33 23 -25 7 14 -11 -28 -28 -39 -9 -35 37 -26 -41 -7 40 6 -37 2 5 27 16 12 -40 28 -3 -28 13 -22 -39 -32 12 -32 -16 -38 12 -32 28 -41 -42 -36 44 -29 18 3 -35 8 -15 15 -26 14 7 14 8 10 -40 32 -12 -31 18 0 9 30 23 2 -30 -13 -30 -23 -41 -7 -2 -33 -22 -31 28 -8 -45 -39 -27 -15 45 30 12 20 32 -10 -35 -41 43 5 -33 17 5
-10 39 7 -16 17 -21 -5 15 -16 -18 32 -17 -45 31 -25 23 -27 2 31 -34 -10 -13 -30 44 -33 -36 5 20 14 23 -8 44 20 -7 -2 -15 20 -40 -7 -32 21 -18 -5 -23 9 -13 12 -2 -7 -43 -23 -33 -43 -29 5 34 -13 -37 36 37 38 44 8 -39 -6 -9 -4 -15 -7 7 5 -45 -10 39 5 3 -16 32 -8 -10 12 16 5 42 -1 19 25 -1 10 -22 -10 29 5 38 45 -43 39 -6 45 3 -8 -34 -35 -16 -22 -3 12 27 2 -22 -12 4 -13 -39 15 -26 16 -20 -28 30 34 -8 4 -40 -40 -5 45 27 -32 -32 -1 12 41 12 -2 -39 -5 -35 26 -13 28 45 -13 11 -10 9 -33 -33 -40 -23 -38 27 -7 -33 42 5 33 40 40 42 -6 -16 40 -13 22 -8 -35 11 -33 -30 40 -14 -34 36 39 38 -4 26 -3 29 -29 1 44 -39 -16 20 17 16 -24 6 -4 -21 2 25 0 39 -42 44 -27 28
9 -43 -27 43 -41 10 22 21 28 31 -30 28 2 8 3 29 5 -32 20 1 -45 10 18 -36 -42 -21 21 -29 -12 42 -26 4 26 0 -39 6 -26 -42 16 16 -34 41 12 10 37 30 -15 0 -2 -6 2 29 -16 36 0 -12 -44 -9 38 25 -7 14 -36 35 25 43 31 30 -25 29 -12 20 16 -12 26 35 -19 38 1 2 40 -23 8 2 -1 -26 -17 20 39 -42 14 31 -7 31 16 -16 42 -39 3 -2 -21 34 25 -15 -6 -37 35 -37 -29 39 19 -21 8 -35 1 -4 12 18 39 5 -26 26 17 3 -36 15 -24 25 2 13 0 -17 -3 43 42 -31 -31 -3 4 38 37 41 16 26 44 -41 9 -5 4 -4 21 -20 -42 27 4 -20 35 18 -33 -28 -25 4 15 24 -10 30 -43 -41 10 45 35 -19 24 15 24 9 -38 17 -14 -22 44 5 44 -29 38 -44 -41 33 9 44 -34 -24 41 -28 23 -10 28 -38 -44 -32
-22 34 23 17 -27 0 -5 19 -38 42 15 -9 20 -44 -28 -11 -33 36 44 -44 -16 -45 8 -38 24 7 29 -25 -43 -21 0 17 -39 -5 29 44 13 17 3 -36 -4 43 1 44 -14 26 8 -32 -41 -41 2 8 -5 11 43 43 -31 24 31 -19 -37 -6 -13 -32 -36 -20 29 1 -12 -3 13 -3 -1 32 24 -34 -5 -39 16 39 29 5 13 4 -44 40 7 -4 -18 -13 3 -14 -31 -37 37 -25 20 18 32 -4 10 38 21 -8 -4 3 -6 -36 -9 -20 24 0 -26 -7 -34 -44 29 -2 19 11 -31 -34 -4 19 -43 11 -3 28 18 -18 39 34 2 -44 40 -40 -28 -3 5 10 24 45 -4 -32 -40 -2 -29 -37 -14 33 13 -30 29 -32 17 -26 -42 38 -26 7 -32 0 13 -30 -9 -2 -29 0 -14 39 41 16 17 -1 2 6 -28 -6 36 -25 16 -10 41 5 42 -7 41 8 -34 31 -1 -7 43 35 21 -9 43 -19 -37 12
27 -2 -20 45 2 41 -22 -43 21 -4 26 1 6 43 4 40 7 -21 -24 -32 -44 -45 12 -32 -16 29 -19 -19 13 -35 -14 -12 43 34 5 -23 -5 -23 5 37 36 -30 30 5 41 -8 -33 34 39 -16 32 42 41 22 41 25 -45 6 -45 1 15 -42 -20 -10 6 22 4 -17 45 30 1 36 -44 -45 42 -42 27 -25 13 38 15 35 17 0 22 -8 -27 38 40 -45 26 22 5 -27 -23 44 41 10 -22 40 -33 27 -34 -20 4 6 -21 20 41 -29 17 3 40 13 18 33 -29 -22 28 -28 -14 6 1 -21 -29 15 13 -22 -37 27 -2 5 28 -13 39 -38 -11 42 -39 26 36 -28 7 -34 2 -28 -23 -29 39 8 -2 -12 4 -16 6 -37 -37 -26 39 -33 11 30 32 -44 45 -27 28 -20 -30 -12 26 -5 6 38 -35 17 -15 -18 32 42 39 -26 8 31 37 17 -7 -26 -17 -40 40 15 -40 9 22 30 -11 19 11 -34
40 -5 -11 12 17 7 1 -11 -6 -32 -33 -36 -12 -1 -22 -21 12 -5 -4 18 16 -5 -2 -41 -43 -18 0 -35 32 38 43 -40 -10 34 -13 4 29 8 -24 5 -20 3 23 29 24 -44 27 45 -43 8 -30 38 9 44 36 32 -37 10 28 -23 30 8 43 -15 -13 7 -36 34 11 18 -34 5 11 -19 22 28 -36 -25 27 -37 -17 -40 30 5 4 10 10 -28 39 5 -27 39 24 21 -14 -30 -42 -11 -42 15 -31 -2 41 25 -1 0 -22 27 16 -8 -2 -5 -24 -30 -30 18 -15 9 22 -7 -40 34 37 27 -28 10 38 20 -31 26 25 -39 38 -34 -31 26 -23 21 21 9 -16 -13 -18 -4 41 19 -18 -1 42 30 35 5 -23 15 44 13 31 -28 -20 -23 -20 44 -16 -21 -40 -4 12 13 3 44 -4 14 -23 36 2 1 -1 -21 15 34 11 -26 -41 1 43 -26 -40 21 -42 -32 24 -36 -40 26 29 16 -10 -11 -5 5
-33 28 -39 10 22 3 8 19 -38 -37 19 -17 42 9 -23 -3 -43 15 -4 -15 -35 -31 2 -9 -13 -41 37 -35 25 -19 28 -28 -37 -40 40 -5 -11 -3 -20 32 4 -37 3 -29 16 -29 -32 -19 13 -43 8 -5 -19 -35 -24 -40 23 35 34 35 -7 -42 19 -15 -2 11 -43 -39 -20 -38 -45 -12 18 9 -41 -22 -36 -39 21 -34 25 31 -9 -23 33 -42 29 23 -19 -12 -25 17 37 36 41 7 25 40 -34 -34 30 -27 0 -28 26 32 17 -42 29 36 2 -5 -13 -21 -33 -36 -31 30 -4 -3 3 1 -2 15 -37 39 11 38 42 -2 -35 -18 -45 -32 4 -24 -41 20 -37 -40 -25 -30 16 -22 18 -7 26 -32 6 15 3 -36 -34 -3 41 -23 -14 -26 8 -27 20 40 10 17 0 25 39 -40 -15 36 -39 45 6 -16 -26 26 -31 0 -34 -26 18 16 -32 4 -20 -16 -30 13 -26 22 37 -34 -31 -23 44 32 -8 -19 -13 42
39 -4 0 19 -27 3 -13 -4 -36 -11 9 4 -35 37 -20 -42 -31 -30 37 -2 -22 -31 -34 -24 -25 -2 -35 -30 39 -5 12 -36 -33 -42 -24 -14 32 -14 -6 32 4 22 -33 40 19 14 25 34 -21 -5 -28 26 26 31 45 -3 29 -24 -26 14 20 18 -2 7 0 -45 -27 -3 36 26 -28 4 -16 43 -33 -34 34 -39 -3 2 -8 -17 -18 20 2 -8 -21 -22 -13 -25 25 9 -30 -31 21 22 -20 -30 -19 -32 -41 -41 30 35 -6 -15 33 -9 -2 39 31 -40 -18 -36 43 -21 3 -33 27 -41 11 43 38 -3 -25 -19 -3 43 4 -43 -30 -15 -1 -30 -2 43 -18 -38 -6 -34 16 -38 12 17 -40 33 16 -22 -13 23 -26 -14 -4 -38 8 -10 -20 6 -41 2 28 41 -19 18 9 43 17 13 -43 -30 21 -40 -3 -43 -27 -44 13 -34 3 -38 5 11 -28 43 18 26 35 -3 31 -29 14 -45 -17 -28 -31 -36 -2 35 -9 -32
8 28 43 8 -45 24 -35 -14 -42 -23 -41 -44 42 29 28 2 -23 -4 43 -18 -33 -8 42 37 24 28 40 44 -24 42 19 31 -10 -44 -22 21 -1 39 19 -10 -25 34 14 -11 -7 -28 16 11 20 26 23 -7 41 -17 36 -10 4 -14 2 -31 24 -22 -3 8 43 -7 -44 10 -27 -22 -6 -26 43 -17 -40 12 10 37 -30 40 21 42 4 30 -40 22 44 31 25 42 -39 25 9 -29 -41 -15 -37 -16 -42 11 1 39 -6 -12 -20 29 -35 17 -25 -41 -15 -12 -2 34 -14 3 -35 -41 7 4 -12 -40 27 29 12 -33 -18 -45 9 15 -41 -34 -6 -25 1 -36 5 -26 26 38 43 -44 -45 44 32 -24 41 -27 22 0 -14 9 -2 -37 -25 -20 17 21 -14 32 -36 -15 -6 2 40 -44 20 31 -3 -23 39 -39 40 -1 43 -40 -14 -43 15 8 -20 -14 -4 -1 23 -9 -1 -14 2 2 11 41 -14 -24 -34 7 43 -17 -38 -41
33 33 22 -36 -2 -1 -24 -23 8 36 -1 -9 12 40 6 10 -16 -15 11 29 34 25 -2 24 -7 -23 24 3 26 -21 -19 20 24 38 -16 3 -25 15 -42 -18 43 -26 28 45 -12 -17 -45 13 13 2 17 22 -25 17 -40 -7 14 1 35 41 8 -26 24 15 -13 -3 42 -6 9 27 13 20 37 33 3 -44 -12 5 -9 40 22 0 -23 -11 -27 -13 -8 -19 0 22 1 -26 -32 -7 15 33 -2 4 28 28 13 13 -37 -40 5 -25 -8 -16 34 -36 35 -40 34 -32 -30 12 34 -29 37 10 -1 -2 22 -31 6 -29 -13 7 6 24 10 -40 -25 7 44 -10 32 -32 23 25 2 33 -8 9 6 28 45 6 -12 -9 -35 -31 -29 -32 -15 -43 24 13 -13 -34 30 -22 27 -14 -25 42 -13 -25 -43 27 -27 10 -14 35 12 -32 -35 15 25 18 42 -15 -11 -23 -25 6 -33 -28 -36 45 -6 -37 26 -16 33 -19 19 34 -18 26
6 -39 -24 -27 -5 39 -7 43 -16 -32 -42 26 22 -42 -12 -43 -8 -11 -37 37 -13 22 1 22 -27 -42 -14 -17 31 -16 -12 13 -31 -5 5 -37 9 14 19 -13 -44 -32 3 -16 -15 11 -16 -3 -13 39 -7 -35 -7 29 -36 -27 24 24 5 26 27 0 40 6 -44 -26 3 -25 -33 44 31 30 26 -10 -20 26 -44 26 37 39 -24 1 -27 -39 -30 -42 -32 -21 -31 18 35 -38 -33 40 14 -4 1 19 2 -42 -45 -37 30 -24 33 -38 -4 32 -31 -12 -35 -41 -3 15 -31 -16 -39 -39 -28 -28 26 -42 8 -31 -13 12 -14 32 13 -8 26 23 -45 25 26 -6 37 41 -3 -3 -32 17 28 9 -43 12 20 -21 36 24 6 28 -10 26 35 12 38 37 -37 -26 36 -6 -40 -20 -21 21 -32 25 37 -1 22 1 19 -8 33 1 2 30 -21 -28 24 42 -26 -25 -36 41 5 24 43 -25 40 37 -41 12 23 -40 -39 26 21 -25
22 17 1 -11 13 24 16 -36 -21 27 40 32 32 45 39 38 19 -16 -33 33 39 -16 4 39 -18 3 -37 -4 34 26 27 42 33 -22 -35 -1 -28 -34 25 -24 5 -8 21 6 -42 10 -10 41 -31 -7 32 -16 45 33 -42 -37 40 16 12 2 2 -31 -29 -37 -28 26 -37 -11 0 -39 2 -12 -30 31 -28 -20 -9 -30 -13 27 -8 40 24 13 0 -16 -5 5 3 -15 -33 -45 3 -18 24 -15 7 4 -21 17 22 30 -4 24 16 -34 7 -3 -16 -10 -1 28 9 -42 13 -23 3 -42 -42 40 -16 44 19 11 19 23 -40 -28 -5 0 19 4 -2 -34 -39 38 7 -4 13 18 25 16 42 11 10 -18 32 34 39 -32 22 35 -22 15 -5 -5 33 -7 5 -33 14 5 -27 -15 26 -2 -43 -45 -39 28 4 -35 0 -17 37 29 32 20 -23 11 16 -36 33 -14 3 1 -31 -9 -26 7 -21 -41 45 9 24 23 -24 28 21 -15
-6 9 -5 1 -12 -34 40 -36 43 9 21 33 5 11 9 9 -36 29 8 -40 -22 -3 -43 -37 -10 38 24 38 -23 41 39 -32 45 -30 10 29 11 -16 -45 14 -9 37 11 8 -14 8 -16 -11 18 -1 32 1 41 15 -15 41 20 -25 -17 -32 33 5 12 6 -17 42 -8 30 -33 1 15 -44 -30 -35 -29 36 25 -19 12 -9 18 23 -37 18 14 -24 -9 37 30 -19 -40 -12 -29 -38 -10 -16 25 10 -28 -20 -26 41 -24 30 -24 12 15 17 -38 -28 -28 -28 22 2 -17 33 7 13 5 45 3 10 -19 -8 -10 -24 -11 13 -26 20 21 -33 -36 33 45 21 -28 -12 -30 15 -36 41 -41 -12 -38 7 34 -22 23 -37 32 27 -21 30 32 5 -41 24 45 3 -3 6 35 -26 -37 -38 36 -12 16 -16 -23 -10 34 -36 -1 -14 27 -9 11 14 -21 -35 39 -7 -7 -8 -24 17 19 -17 30 7 -20 -12 12 6 -4 -19 13 -35
35 10 -36 17 35 0 1 33 -14 -14 17 -14 5 1 -15 43 23 -22 -40 -13 34 42 12 -27 35 -37 22 -26 34 2 -9 13 43 6 -44 -21 -22 21 19 9 40 32 -22 11 -25 -26 12 11 19 -37 -26 7 -2 5 -43 -37 11 38 -42 -22 -42 8 2 -2 37 44 14 -4 26 -11 -22 -24 38 13 -11 -43 -24 -40 -31 24 42 34 24 -34 23 0 30 -16 -18 45 6 -31 24 24 -22 11 29 37 8 17 3 9 32 -31 -13 21 28 -9 34 -8 -11 -45 29 -38 43 -8 -2 29 -22 32 40 -15 25 29 43 41 39 29 -10 17 7 -24 5 35 42 7 15 25 -33 11 8 -34 -31 -6 37 26 -30 -26 18 -27 28 -27 6 39 17 -7 -12 22 19 8 -24 -43 -24 -3 -28 -44 -33 -14 16 -11 8 -11 -13 -21 14 -13 -5 -2 -7 41 -42 -6 -2 37 10 27 -8 -9 -37 -11 40 31 44 13 11 -36 -23 43 -44 -13
7 7 35 17 3 -38 16 -27 15 37 35 4 -9 -36 -2 -19 -31 -31 -16 22 -9 10 39 38 4 10 -20 18 -39 0 -40 2 21 13 -24 40 5 25 7 -29 27 -24 -23 3 -39 22 -24 0 -45 -13 -39 16 27 1 -29 11 -13 -9 14 -41 -20 16 -34 -11 13 33 -12 -18 -7 42 -19 -9 28 1 23 -43 -13 15 19 21 12 20 17 -28 -12 -22 42 30 41 34 30 -19 28 -25 36 -12 -9 22 -23 -24 -44 27 18 33 -32 -7 19 9 -35 28 14 -9 45 -10 17 8 -32 -42 -6 -31 38 -10 27 7 39 5 -36 16 5 5 23 42 -32 -19 -35 -20 -40 3 -7 -14 -19 -30 -20 42 11 -10 15 -4 -19 15 24 2 -27 -3 -16 34 13 28 -39 7 15 -13 19 -29 33 38 -42 18 42 -37 34 -38 -1 4 20 -38 26 -13 -45 -37 -19 -37 -44 -23 -3 -20 35 -21 -25 19 42 20 39 19 1 -41 -40 4 6 12
-21 12 1 36 33 -35 26 27 -8 25 35 -36 -41 -24 -18 2 40 20 -34 27 -34 31 26 33 -36 29 22 -8 -24 32 -1 -40 -18 26 -26 -37 -9 5 18 9 -37 2 -8 -9 -34 12 39 7 -10 7 22 41 26 -12 -29 5 0 37 42 -30 29 39 21 -39 -29 -12 -8 -17 6 5 4 37 -10 18 41 -18 -26 -31 -15 33 26 4 -30 -27 -18 7 26 -4 -16 -32 -42 -40 1 33 43 17 21 44 -18 38 27 -45 25 -36 39 21 -2 28 37 6 29 -8 -19 -8 -30 29 19 34 20 28 -4 -4 -40 -11 -7 19 -40 10 8 18 4 34 -22 -24 -38 23 11 41 -12 -40 3 13 30 9 -24 27 -5 -2 -21 31 15 33 -27 7 40 24 -26 30 4 -15 13 41 32 3 -12 10 5 18 -44 29 15 -30 31 38 -17 -22 -17 -13 -8 18 -33 24 -8 16 -11 21 35 43 -22 4 41 -43 -8 -33 -11 -1 13 24 -38 4
12 -22 10 9 -32 9 -20 -25 27 -2 45 23 19 44 -18 -15 -26 15 23 -10 38 -19 6 7 -12 1 13 -38 24 -18 27 -44 -17 37 -33 15 -12 -44 -25 42 -5 -35 -39 -13 39 -26 -7 -21 -17 34 -37 39 -2 24 43 7 -20 -19 31 43 25 35 17 -42 6 -24 -25 -33 -28 2 -21 -2 41 -45 -41 38 -7 -21 41 -24 -14 -5 30 -10 21 -27 -2 19 0 23 18 -29 -5 -15 -21 -21 -6 -24 -6 42 43 -26 26 -7 17 -19 8 3 -2 22 30 -17 -41 -21 23 -9 37 35 11 12 0 34 26 -39 -16 -22 -18 39 19 -36 -19 7 29 -34 36 -34 -12 10 -30 -25 36 7 0 42 45 -8 13 -22 43 -4 11 -40 -35 -12 40 36 1 -1 9 -17 -19 6 -6 -17 -28 37 -40 29 -7 -13 22 18 -21 -34 2 -11 -40 -25 19 16 4 -9 -21 2 32 38 -11 -1 -36 25 -22 12 32 -38 26 18 37 37 -13 -37
-21 -6 -18 -15 18 10 -15 -6 14 -31 19 8 34 34 -14 38 -35 0 -6 25 -31 -40 13 25 42 -24 45 30 36 36 2 44 32 40 10 28 -39 -24 29 36 41 42 -1 32 2 16 22 -30 -1 42 6 -31 -20 43 -19 35 -1 26 1 -3 29 30 -8 31 22 27 39 28 42 44 -22 29 42 -9 -18 -39 7 -13 -41 -36 -40 28 43 31 17 -16 -28 -8 5 13 -6 40 -16 -9 -15 18 -9 10 -40 -32 45 -42 17 17 -33 2 -39 40 -18 11 36 15 -10 44 -34 29 1 -4 -33 -32 -5 -5 20 -36 15 13 20 3 9 -3 -6 44 41 45 -14 10 1 -22 -42 -33 -15 10 23 8 23 28 -44 19 0 16 2 32 44 -41 25 -34 30 25 -23 16 -15 -23 -31 33 37 -36 -37 -14 -32 37 -11 -8 28 -20 -39 -43 -20 31 18 -11 -20 9 9 -8 11 -44 18 -39 -45 -22 -1 -31 2 21 -27 42 9 42 40 -28
-5 43 -21 -34 5 -4 30 -22 29 -13 -33 38 19 35 11 -25 32 4 -35 -1 -27 -21 8 12 -39 -16 23 21 30 27 -44 38 -9 -30 20 16 -15 45 -26 24 4 20 -11 41 36 -10 -21 30 -17 -6 4 -7 -1 1 -5 -30 -1 -10 25 39 -24 -23 19 -23 -5 36 10 -42 43 5 32 -7 -2 38 38 -28 20 -34 24 17 10 -17 -26 8 -37 10 28 33 5 39 -13 30 15 12 33 7 -40 41 -8 -40 -24 -42 41 -17 -18 -27 -33 -14 26 -19 21 18 -16 -29 27 -42 29 -18 -20 -33 -34 -9 -11 18 0 31 -29 19 -15 -3 -11 42 -33 23 -36 28 22 -15 -29 38 29 -13 34 38 18 40 -19 26 -10 15 -36 17 27 -5 0 -40 14 36 21 -35 -32 -22 3 14 7 -28 -27 -13 14 -10 -5 23 -1 12 43 -13 -33 -6 -33 -18 7 -26 -9 39 -5 -37 16 15 19 -36 -28 -29 44 16 32 -29 -5 8 1 -13
-18 30 7 -33 -23 43 32 37 12 15 42 -7 -7 -4 -40 26 37 44 30 5 25 4 0 -3 -17 -30 7 33 -12 6 6 8 7 -2 -11 18 38 37 -20 5 22 -18 -38 43 28 -7 -26 -41 -43 40 16 -2 3 -39 35 -30 -7 6 13 24 31 -17 -27 25 1 -17 39 -19 31 0 -10 -6 42 -19 30 41 -27 25 -30 15 12 17 29 17 -4 -17 -12 2 26 25 25 -25 42 -26 -32 -32 0 -36 44 13 -7 3 7 40 20 33 41 -35 29 3 -5 -36 17 -7 12 -27 -40 34 40 8 -27 3 -9 28 -15 3 19 31 27 -8 -41 -4 35 -21 19 13 6 39 11 -10 -19 -17 17 44 23 9 3 22 -7 16 -12 30 -35 42 45 44 -33 33 -23 44 -14 -15 40 18 -33 -25 -27 34 30 18 45 1 -16 29 -31 -32 -18 -43 31 11 -17 37 -41 17 -19 -2 22 -29 16 29 -11 -30 37 1 -35 -4 45 -11 7 8
30 -2 17 -27 22 -24 11 31 -10 39 13 43 -41 -25 -35 -32 -15 -15 -40 30 -4 -11 20 -15 39 3 -45 21 -34 -24 -24 -29 45 -29 -14 7 26 24 15 22 -37 21 6 -25 17 6 36 -29 15 5 23 17 42 -10 9 -24 -45 38 1 41 -9 41 -37 31 -29 29 0 8 -44 -43 -5 24 -11 34 -7 35 -37 -27 6 -42 3 29 29 -31 39 14 44 -35 4 9 14 26 -41 11 23 28 9 45 35 36 37 -6 -5 5 -19 20 5 20 -8 15 -41 36 -37 -3 34 -24 -6 27 43 42 6 -16 -42 28 0 4 -20 -12 -7 29 26 30 -37 18 3 25 17 -16 -11 32 -43 27 -12 -5 -26 33 -21 -4 43 25 42 -10 9 12 -20 -10 21 -42 -18 21 26 34 -23 -36 35 45 -42 -35 2 31 14 33 21 -24 -14 -18 14 9 -30 42 -23 17 23 20 45 19 -31 20 -7 45 -35 -1 -27 -17 1 18 -18 -35 -37 -16
-36 -43 10 14 -45 -19 -35 2 40 -15 -18 22 -1 11 30 34 40 -40 -4 31 -1 -25 15 16 -18 -20 37 7 28 40 19 6 -45 -16 1 -10 -19 -26 -10 24 -12 3 8 37 -36 19 -41 42 20 31 -24 -31 21 -13 2 5 18 8 31 15 38 -23 -43 16 6 -22 26 41 -45 19 -3 -40 21 -36 36 4 12 34 30 -23 3 -23 -41 29 32 -28 -38 29 23 16 36 33 19 35 36 8 1 -12 4 20 -1 -13 -22 -3 16 -26 -24 14 5 22 -45 16 0 30 9 -32 -7 -34 -44 41 30 44 14 -24 19 7 28 -41 29 -27 -10 37 7 -33 27 -10 -24 29 -42 5 4 12 -30 -41 33 22 -14 -40 30 -13 -39 24 -35 23 34 7 -25 33 -15 -43 -8 31 27 12 -39 -43 -4 19 3 35 -33 -27 4 11 24 29 -24 22 6 17 11 -35 43 -38 -44 -14 15 -12 33 -1 -12 -26 45 -40 39 -25 -28 3 34 -40
-21 2 -22 24 37 -7 26 1 -3 -19 -17 39 12 -22 -11 -42 5 -45 44 -32 45 44 15 -37 34 2 39 14 -23 -12 37 32 -10 1 -37 32 5 -24 32 -19 -44 -27 17 39 -16 -2 -2 -21 26 27 3 19 -22 23 -16 -37 -10 5 44 -26 19 8 -24 -16 -39 -13 -37 -37 -29 34 -40 -9 39 -21 -8 -38 -34 -27 14 36 11 15 -42 35 1 -8 -39 -15 -38 39 28 -25 42 16 -4 -30 -28 -3 -34 -22 24 2 36 -11 -3 15 -14 37 -39 41 -27 -31 -17 -37 -41 16 39 -29 26 39 13 -33 -40 -33 12 1 -26 2 -31 -44 12 44 -7 -30 -32 37 35 -38 1 44 4 12 7 39 -43 1 36 -10 -12 43 -24 12 16 -20 -31 25 -6 -35 -17 -15 -6 -22 37 25 26 -42 37 37 10 16 39 -33 41 -43 -29 -33 5 28 -19 -38 30 8 41 20 -4 -7 -8 -43 17 -22 -6 -19 -34 -7 -2 16 -6 4 20 28
-13 -31 44 40 4 0 -37 -17 -27 -44 42 -3 -35 -29 -2 -22 16 12 23 -27 -36 -42 -27 45 -30 -10 -13 -34 31 -23 28 -10 -18 25 -43 -10 11 16 -5 -13 -33 -44 -2 23 17 -20 -23 -4 37 -30 -27 14 40 -36 34 -42 -31 -14 -16 42 28 25 -15 -22 -15 36 19 7 22 33 -22 42 13 30 -5 34 24 -18 17 8 -5 2 -28 -7 45 39 35 -38 42 -16 -18 13 44 -28 -22 -41 20 -9 11 38 34 24 41 18 -4 -24 -8 -40 -7 -17 -9 -9 0 -32 -18 -8 11 38 11 -8 -2 -13 26 -29 31 30 19 31 -29 -2 -26 20 -28 25 41 2 -2 10 -15 12 -7 -41 4 32 6 40 2 -6 -6 44 18 -27 32 -8 -14 -7 34 -19 -31 -20 1 -12 21 -13 10 6 -16 -4 -30 -10 33 4 -18 42 44 28 11 -20 10 -32 18 -4 15 -36 -29 -24 -44 -13 -6 42 36 -4 32 26 -41 45 -31 33 -23 29
-27 37 -7 -14 4 -4 23 -24 14 28 10 -36 38 15 16 -20 -3 18 -39 16 -16 1 -6 -40 34 -31 -4 44 0 -10 -37 1 -7 -20 -29 38 28 -38 -35 -2 -32 28 -16 -4 11 11 -18 -41 27 44 32 27 -19 -13 -35 -14 -21 19 -7 -39 -18 44 -14 38 9 43 -29 -32 24 45 0 11 0 20 15 23 -25 36 45 23 -21 -45 31 33 21 -21 31 -28 0 0 34 -43 -31 -19 17 22 -4 42 -26 -45 -36 36 -28 22 30 -28 -28 -2 -23 -10 2 -13 17 -2 11 -12 -37 4 -22 -22 -34 13 -36 -39 -7 41 32 -35 -39 -4 -29 -25 -13 -9 -15 22 25 -26 -39 34 -13 -38 -5 -15 -44 -35 7 -15 27 16 41 -20 14 34 -23 -44 23 15 -17 19 -3 -43 -7 36 27 5 8 26 7 1 -44 -13 -30 -37 -31 -31 35 9 -15 -8 -8 44 -28 -19 -39 40 -27 9 -36 34 14 -22 35 -40 -13 25 -1 22 44 -1
4 -27 -28 -4 21 41 5 -17 -5 44 33 -35 -1 35 -20 -8 -12 1 5 27 18 18 28 -34 30 44 -2 -29 18 7 10 -22 2 -26 -33 43 31 -5 -38 23 -8 -34 -8 -31 -37 9 -3 -11 -28 11 13 -13 -19 -19 15 29 -41 -9 4 12 -11 14 -43 35 13 -39 37 33 15 -10 -26 -26 -25 40 4 34 -35 -11 2 -31 -43 -26 -4 8 5 -36 -31 -43 20 35 34 -25 -3 -24 16 12 29 10 -40 38 -33 -22 -2 -10 37 -41 -1 -42 44 41 -31 -31 36 12 -21 14 9 -12 7 28 31 -38 -23 16 5 35 15 26 0 -34 25 -3 -13 44 -27 3 -38 -34 32 -35 -34 -9 40 31 -13 14 41 -6 20 29 5 -42 25 -4 6 -10 36 -24 -24 -41 -18 37 -38 -2 -5 -37 22 8 7 -31 -40 11 4 37 21 9 -42 -24 36 -29 -11 -39 8 44 25 34 5 41 25 -29 -31 6 45 34 27 38 -45 -8 -4 -17
-45 -3 -21 -13 4 -19 15 15 -34 31 4 -43 12 -35 32 -1 -16 -38 -7 -11 -9 -12 30 33 -8 11 -3 32 8 -45 -3 34 -10 -12 6 -39 -25 17 2 -40 6 30 -36 -14 43 -6 13 -17 44 -25 40 7 32 -34 8 38 -5 -1 17 12 36 16 13 27 -35 25 -32 34 -35 -14 38 33 -10 -28 16 9 -8 -31 14 -8 2 -29 35 45 -13 -25 28 33 -25 4 -20 -27 -7 -25 31 -9 -45 -44 -23 -16 38 27 -34 -32 44 -41 17 32 -21 24 -40 21 -8 -4 12 43 5 -13 29 7 44 -9 10 12 -20 -26 5 8 -40 -45 15 -24 -25 -5 17 6 40 1 -36 30 -7 10 23 37 -25 -12 15 35 -32 -31 8 -26 44 -8 29 -15 33 -25 17 36 -30 -20 -34 5 -27 11 9 36 -33 -15 -7 45 44 -17 -29 -32 -36 45 44 -12 -19 -22 45 -11 15 13 -43 35 5 -32 36 35 2 -9 40 -24 -42 -38 26 43
41 -10 45 0 19 -24 -44 -8 6 -25 42 8 40 -40 -10 15 -39 -35 20 40 1 20 -25 -26 -42 22 25 -29 -6 11 9 -28 44 19 37 37 -11 18 -35 8 -44 -14 1 -43 37 42 -5 19 -30 -43 36 24 25 -20 27 -35 33 5 18 29 42 42 -8 39 -5 39 -33 28 27 34 -3 16 -31 18 31 -30 20 8 23 7 44 -14 -33 -2 39 -23 -2 34 -27 43 23 5 37 -18 43 -45 -43 45 -33 -3 -17 -16 25 35 -12 38 34 -17 29 -38 -5 25 -12 9 35 -42 5 43 36 30 43 24 39 35 -18 38 -40 4 36 35 2 25 -9 -42 -37 -34 26 -12 31 -10 -34 37 -20 -40 -13 -32 20 -25 -42 27 -39 -27 3 1 2 31 45 -2 12 27 40 6 3 -45 44 -27 -33 10 3 -10 -26 -39 -26 -7 36 -26 -44 -32 34 -4 35 -9 31 41 22 -33 13 7 -17 -38 2 -37 -24 13 -34 -39 -3 -30 -36 -32
-38 8 0 15 29 4 -16 31 -11 32 -33 -35 20 6 3 41 33 -31 42 -5 -15 0 15 -22 -15 27 6 -33 -19 -7 -22 -25 18 1 32 11 37 22 40 32 -16 26 24 26 18 -16 6 24 40 2 20 41 28 26 -28 -3 34 31 -30 -33 24 32 -41 -36 27 9 -32 -20 -39 41 28 -37 -36 -31 34 -41 -34 33 -41 -40 10 42 -17 -9 30 -14 37 -44 -21 0 3 35 -27 -33 32 -25 -20 -13 22 0 -29 23 -7 30 39 22 -21 -7 -29 -38 10 -9 -16 14 -16 15 25 -6 8 4 -12 -8 -37 16 5 24 42 35 21 -2 8 17 -1 4 -36 29 10 -19 -5 -28 -13 -2 -22 40 -4 -28 -9 44 38 -22 39 4 23 12 11 11 -11 -8 -1 -24 45 15 9 31 -38 -14 -19 -44 42 -41 -16 -36 0 -41 -40 34 27 -33 8 -28 41 0 -12 43 -38 12 -4 -41 3 -35 -28 22 -4 -13 -43 31 28 21 -20 -3
35 43 -6 -1 -35 34 19 7 -18 -14 11 -15 -25 -16 -31 27 24 29 39 -23 -7 -27 -30 -11 11 18 -39 19 -10 14 -37 -12 -28 34 -28 -31 5 3 39 14 0 19 1 31 -28 -45 41 42 -39 -16 29 -13 0 11 27 -41 5 7 -11 16 6 -21 -43 4 43 18 -39 -35 -43 26 -40 18 -26 4 43 -34 -4 2 39 -44 15 27 -43 39 -38 35 -8 32 38 3 29 6 -41 23 22 10 -9 30 -38 -13 15 -25 -12 12 26 28 -35 44 21 -17 -4 -39 -2 37 44 26 23 39 -26 22 30 -9 9 -9 31 8 24 -2 -14 32 -19 -20 -19 -4 -9 -44 26 25 -35 -18 17 37 -17 -30 -35 -37 -33 10 -25 -13 -41 -5 41 -32 -30 -37 -8 10 -14 -16 29 42 3 29 -13 9 -29 22 43 -12 12 -32 20 27 -36 9 -6 -31 39 -17 -40 3 42 40 -34 27 14 -45 -19 32 40 14 -26 -35 -11 22 5 -9 -8 20
8 4 -19 2 30 11 35 0 -22 24 11 23 17 -24 18 -22 41 9 -4 -5 36 -25 12 -40 -15 -11 15 30 -12 -1 -21 -1 44 -41 25 -25 -25 30 27 -34 45 28 5 18 20 -27 8 -13 -24 38 0 25 -40 35 25 18 6 -28 8 5 -10 14 31 -39 -6 20 -42 -26 -20 -23 -19 -41 1 -45 -25 44 -21 18 -28 35 -2 -36 40 -21 23 -12 -13 -32 12 45 0 37 -14 -16 -35 12 4 -18 -8 -10 -2 -33 -34 11 -24 37 -22 23 35 35 -14 23 38 31 -3 26 -11 2 41 36 -30 -43 3 -17 -17 -2 37 -22 23 36 -5 41 -6 33 4 -19 9 -6 -16 -2 -38 -29 -6 21 10 -3 -2 -24 28 -26 -11 27 -43 23 -23 44 -31 5 -36 -23 14 -28 -35 -27 40 43 -8 -14 -31 40 -5 21 -38 0 29 -38 8 -28 5 -11 5 16 28 -5 -38 43 -38 -31 14 31 16 33 9 12 24 16 -43 -20 7 11
-15 26 -12 6 -7 24 -13 -28 -19 26 -1 41 27 -9 -32 43 -44 -25 21 -39 -8 -20 16 -2 -36 -14 -28 -12 -37 -24 2 11 -13 16 40 -6 -23 -44 -35 -25 -13 -20 38 -44 27 12 29 40 -32 15 -34 -16 45 -2 -36 0 -37 -6 42 -33 -9 6 -39 11 19 2 -35 -15 25 43 -14 2 -28 18 -35 11 -21 -2 -21 43 -2 -35 -38 39 -35 37 -12 -33 -15 -38 -27 37 23 28 24 30 -31 -45 5 11 -16 6 18 27 -4 -24 -9 -37 4 -20 29 17 -5 -17 36 -6 17 -6 35 -13 17 14 -40 -2 17 38 -38 44 37 30 23 10 -7 -12 -16 7 -13 -32 36 -40 -23 -3 25 -10 11 -35 22 -8 -39 23 -2 9 -19 20 11 -33 -44 -19 44 -25 28 -6 0 -22 -2 29 -21 -28 17 7 -31 -5 -26 -31 -30 27 38 -6 -8 -26 6 31 -10 30 2 11 -37 -30 -1 41 3 23 -37 -22 29 12 37 -1 32 -12
28 35 -38 17 -11 9 40 18 -18 -37 40 -11 23 -3 28 -7 45 -43 -44 14 18 -44 -27 -6 -40 -25 13 13 15 -11 25 35 7 34 -10 42 -22 -23 -10 -40 -30 22 37 15 20 43 -12 18 3 -22 -19 22 8 23 43 -18 -23 15 -5 7 -40 23 26 2 3 27 36 20 -30 20 24 -22 -27 -45 11 23 -32 -33 -7 44 31 -6 32 -13 14 31 4 -28 13 14 21 -32 43 -13 39 -44 -19 -44 -24 9 -33 -8 -28 3 -2 2 -41 7 24 -29 -23 -16 31 -44 -40 -42 -6 -10 0 -25 42 10 19 18 -43 30 12 41 -42 -38 -45 4 -22 -16 -3 15 -39 2 -6 44 9 -27 -35 44 32 -15 16 -32 19 -8 -19 28 -45 -40 37 -39 -45 -17 5 -39 16 -30 39 10 -14 -1 -8 35 3 33 29 -11 15 35 -11 16 28 34 -12 17 -3 23 13 11 -44 2 19 1 4 27 38 18 22 -34 24 9 38 2 30 -44
7 37 -36 -14 9 39 -10 -42 4 11 9 31 -21 -13 -6 -25 30 26 36 -42 34 28 34 -9 22 -40 20 -39 18 -13 -40 28 4 29 -15 28 -43 -14 33 -37 8 11 41 -23 -23 -37 -11 -36 -17 10 -18 -14 24 19 -5 -14 -32 -40 -45 -3 -3 -22 6 -42 -29 -30 -7 -7 27 13 36 -34 -24 33 -17 -21 22 11 -44 -40 -14 -1 -33 -1 29 18 -18 -13 22 -4 5 34 -29 -21 -43 -35 12 44 -21 5 8 2 43 36 36 15 -18 8 -20 19 -41 25 -29 -30 -39 -39 -30 13 8 12 -9 40 -28 -34 25 8 39 -44 21 -32 -8 -15 -21 14 -42 -25 -4 -20 31 -33 24 -42 -28 -30 2 -40 -28 30 -34 -31 -13 -15 -36 11 -34 -29 5 -11 35 15 10 6 45 41 -19 23 32 39 7 -36 -34 -13 -15 -22 32 36 -29 -27 1 34 -22 16 -1 45 40 20 19 22 -18 -35 -19 2 -8 31 -38 22 0 -32 14 44
37 -16 26 -27 35 27 -27 11 44 18 2 -3 5 34 -17 17 12 0 24 42 35 41 32 0 33 -35 -22 -5 -45 38 23 7 -33 -39 -43 -12 -30 26 9 -36 4 1 37 -20 1 -13 -37 -38 41 -26 -20 8 41 30 28 -14 -41 -22 20 37 23 -6 35 -11 5 -5 5 39 23 34 16 -26 -30 35 -33 39 -23 -20 23 -2 -9 -20 -4 -5 -29 22 26 -2 21 13 -38 -17 -34 -1 43 44 33 44 19 44 -11 -9 7 10 -30 -42 10 -32 10 -13 -44 20 -19 -24 23 -24 34 26 -23 3 -37 -29 -20 35 -40 -29 1 9 -40 -19 37 -22 13 45 32 -17 -11 -6 20 24 41 45 42 17 41 5 21 -24 -44 -17 -29 39 -37 -3 -15 30 16 -14 -10 13 41 -26 6 7 -15 -30 -22 18 -20 -12 -44 45 14 -44 11 31 14 18 11 -25 1 5 44 -23 4 28 28 -24 33 -13 20 14 39 -7 24 -33 27 -26 3 45
5 -10 39 11 -25 32 -20 16 -27 -27 31 -9 -33 25 -15 -8 -19 45 -32 -34 21 -23 33 -30 -17 -17 31 40 -22 -40 43 12 23 -30 -3 -27 45 -35 4 -4 0 0 24 -36 -35 -19 -24 -6 -7 42 -23 -36 16 -5 -22 -34 9 -11 -31 -42 -15 15 -39 -3 -29 -14 44 -43 22 -6 -42 2 -36 -39 44 13 -35 23 -29 -4 -31 1 -32 -8 -23 14 -10 15 -3 -8 -6 27 44 -15 -33 42 22 25 -35 -4 -34 -11 -36 -14 10 -21 0 37 28 25 33 -32 -12 9 -29 29 17 11 -28 -18 29 30 -39 16 9 -36 13 43 30 38 -3 24 25 37 -4 -19 38 -19 29 -13 29 44 13 -22 -32 -21 27 -25 -3 -43 33 -10 41 4 34 9 -26 15 -6 -45 40 22 13 -34 -21 -2 21 -23 -10 19 -6 -42 43 -23 37 -23 29 -20 5 -7 -39 -40 -43 -26 38 6 -17 -33 -10 9 -10 -22 -32 25 21 28 11 31 23 28
-14 22 43 -5 -30 -6 3 8 -21 42 -4 -5 -5 14 17 43 32 -37 -13 29 31 2 12 -8 2 43 1 42 -36 13 -38 38 -27 1 -18 -29 -5 33 -4 -19 -10 1 -1 38 -24 27 -17 39 -22 25 -44 14 35 33 3 40 -9 -14 38 8 0 35 20 -6 -2 24 -25 2 -42 7 26 35 5 -25 2 34 -40 15 18 -16 -43 23 -2 40 38 -37 8 -22 -35 -33 40 7 30 -27 -20 9 -39 39 25 -28 -5 -33 -21 27 31 22 -29 -7 34 -4 10 17 -13 31 8 36 33 10 -33 44 -19 24 -15 -19 -21 27 -12 -39 28 39 -35 -9 14 -30 7 -45 -4 37 6 25 23 -8 -32 42 -25 -30 26 0 -43 -27 -20 3 -40 2 27 34 44 9 -13 -43 8 10 21 -11 38 -28 -24 -30 8 -12 -15 -25 -16 -15 -4 41 -27 12 6 14 40 -13 -16 12 14 -1 24 18 -30 -11 -13 -22 -31 -44 29 -35 -18 19 39 14
12 -12 -33 -21 28 -37 -8 32 -30 35 -3 -21 -31 -15 44 5 29 -37 -18 -34 -12 15 19 -5 -28 -43 -23 -14 0 41 -32 -13 -40 0 11 -23 30 -26 -25 -44 -3 26 -43 24 -26 -28 10 -1 -33 22 8 -32 3 -5 -34 -42 19 -13 24 43 5 22 21 27 -36 -31 -13 -39 -7 -14 43 27 37 6 -4 25 43 -15 7 -43 30 15 -14 -41 19 28 7 3 -43 -31 15 37 17 6 21 19 -1 27 -12 -40 -5 42 40 31 34 -17 -40 -36 -16 32 -3 -6 -26 41 -25 -45 -30 -23 3 43 -25 39 4 22 15 -43 0 14 29 44 43 26 -9 -9 27 -40 -31 6 9 -35 -34 11 -30 -32 -3 -23 7 -34 17 35 -13 10 19 43 -41 8 20 2 5 -2 6 30 44 36 -23 -28 -15 15 36 -26 -28 -6 40 -42 -29 5 -23 -1 20 -44 33 9 19 25 15 6 -12 -43 1 20 31 -4 27 -31 -7 -37 16 -44 -17 -39
-12 21 24 19 -21 -21 22 11 -2 38 -37 12 26 -4 12 30 39 8 -26 -7 4 13 -1 -45 26 -29 39 17 -25 14 9 -22 38 27 -42 -1 -42 -14 -14 40 35 27 5 40 37 20 -10 -29 -10 20 -29 -25 36 -16 -29 18 44 -5 -8 -30 -39 -31 -3 -37 -24 21 -34 -43 -45 -5 2 -15 42 -19 -18 -26 2 8 18 -44 -4 -34 34 -11 35 -19 5 -26 -14 -9 -40 15 -3 16 32 -2 -25 -44 -36 34 -42 -29 19 5 3 43 42 -2 30 -5 41 1 16 21 -4 -45 1 -36 25 38 -28 -17 -10 4 14 -23 -25 33 -8 28 38 11 -45 -24 24 13 -6 -40 24 24 35 37 -15 36 8 -17 23 -29 -43 -37 -45 -22 -37 -22 31 39 -35 24 -27 -4 -43 -32 -33 -25 33 20 -25 42 -5 -38 1 -15 34 -35 5 4 33 22 30 -17 34 -35 -43 17 -15 13 9 -8 -36 19 28 24 -41 42 -9 -2 -7 -24 13 19
19 -10 -28 0 15 15 -25 -12 3 0 0 0 44 29 28 12 -37 30 19 -25 -19 -25 -24 -34 -30 -35 29 42 36 -24 -27 35 27 37 -4 -39 21 33 26 11 -35 -17 26 42 -33 -36 -40 26 -24 -4 -39 -17 39 19 4 -28 -29 12 0 43 -2 9 2 -29 -13 -19 33 -33 -10 -37 -29 -45 44 44 9 40 -1 34 36 -34 -41 -17 -8 9 -2 -39 -14 10 42 4 -26 26 -45 21 -23 0 42 12 -2 -33 32 43 44 4 -37 1 33 45 -1 -17 -22 28 15 7 1 31 -32 -21 35 -3 22 -38 21 0 -2 -22 5 -16 5 15 -31 22 2 -10 37 2 -4 -6 -28 -28 13 32 19 -15 -16 -27 -17 12 -27 4 -30 26 42 11 20 -43 -38 42 44 -11 1 29 16 -16 5 -18 36 -18 15 -15 -10 3 10 15 -37 -37 7 26 -14 15 29 22 -17 -16 38 0 31 20 -22 -30 -5 -15 25 -7 28 29 -20 9 43 34
40 -31 27 -7 -7 32 -13 -32 -31 -24 -21 -22 -44 4 -38 -30 7 30 -13 23 -44 -28 14 35 -26 -32 33 17 -35 13 8 39 -19 -3 8 -40 17 44 -9 -30 19 -1 2 -22 16 -36 -15 -44 -10 -12 14 -15 41 16 22 17 8 -25 15 -9 -32 -10 -34 -11 -4 33 -41 5 27 -25 2 -5 -9 34 -34 -21 41 -21 -39 28 33 20 35 -20 41 36 -11 -44 29 -31 -30 -37 19 24 24 29 -29 35 -9 23 -39 -24 -1 34 -19 -6 27 43 -3 -11 -22 -6 -11 -18 5 17 -14 39 -41 -29 -26 -37 9 -33 5 -1 -41 -32 -35 44 -1 40 1 6 26 -11 41 -4 -43 42 -17 -38 38 -21 31 -28 35 28 17 20 -11 -35 33 34 38 13 -16 3 19 43 -35 -40 -33 -42 -23 -36 -19 27 3 -11 -35 -23 15 15 -22 2 -16 -41 14 -10 -5 28 23 3 -24 -5 11 -19 33 38 -27 28 41 -42 -8 -4 39 14 40 18
26 18 33 -22 12 -18 -45 -42 21 -25 26 29 -21 -44 -11 10 16 45 19 26 38 44 -20 -43 -18 37 -31 8 -15 18 -41 -2 -32 -13 -11 -28 -42 14 -12 -25 -20 -10 24 33 0 -11 40 34 -17 4 -42 34 15 -30 40 -14 -12 -27 20 39 -6 11 34 28 -36 -2 -31 -42 -7 -33 -26 18 -44 -31 12 26 32 7 -37 8 1 19 -20 10 -25 -35 -14 2 26 29 10 -27 -42 -12 -42 -27 9 45 1 -26 3 29 0 -17 -20 -36 38 5 26 16 -31 -20 -2 7 36 34 36 40 3 12 33 16 16 -22 -25 3 -2 -6 24 15 -36 2 -28 -10 12 20 23 11 13 -33 37 8 -43 12 -35 -28 38 -18 13 -41 5 -9 33 45 2 -32 4 -2 -2 -26 7 -21 31 44 -37 -45 22 0 40 26 9 -11 22 2 32 -37 -35 11 -14 -30 13 -34 -37 12 20 37 -22 1 -17 -44 26 -19 -29 -37 -15 4 -29 30 -13 20
-20 7 35 -6 35 37 37 23 -41 16 39 -20 -19 4 -26 -26 -45 29 -14 -42 -43 26 12 -9 -8 -36 -34 -36 40 19 -3 -2 41 25 -7 12 -11 -10 22 -3 13 -16 -34 35 -2 18 -20 -1 42 -45 10 35 22 -16 -45 -44 13 37 26 -6 6 14 21 -38 -15 7 -8 -6 44 39 -37 -3 -14 -6 -27 0 -12 6 21 30 -9 -6 22 37 -23 -2 40 21 -17 -32 -43 15 -23 1 -9 38 32 40 -13 -30 7 -36 41 -4 -4 -38 35 25 45 -32 -27 -45 -40 25 27 7 -11 7 -44 21 -18 -13 -40 -19 0 -37 -6 -39 -42 -15 29 4 33 20 -27 15 -8 -31 -1 4 5 -29 -33 9 12 40 36 30 17 15 -15 24 -26 -43 16 -20 -7 -19 43 -20 3 -40 6 39 2 33 15 25 36 -5 20 -14 -25 12 -4 -9 15 2 -30 28 -28 -27 -13 -4 -22 -2 -28 -27 -35 33 -18 -28 12 -11 2 -21 12 22 30 13
26 20 33 -38 -23 7 -9 25 42 -9 -42 -31 -32 24 -32 -12 42 20 35 -39 -29 42 -23 -27 6 -32 -40 13 2 4 41 34 16 -29 43 16 12 32 -22 30 -24 20 -1 12 12 -27 -33 3 45 -24 -3 26 -6 -42 27 17 32 11 -11 35 37 13 28 28 -45 17 7 -20 40 -14 -17 43 -9 -34 -23 -21 33 38 -10 25 -8 -25 28 41 24 -44 26 24 -1 -8 -10 41 -38 -26 -18 17 23 -9 7 7 -11 40 -19 2 -43 -16 27 -9 -8 36 18 14 11 11 -12 -22 17 39 -23 -23 -35 20 -35 38 22 -20 -16 45 -19 0 10 1 -32 34 32 -39 -39 -32 23 37 -13 -12 -5 -38 35 11 8 20 3 41 24 33 -21 -35 -20 -38 -10 14 -16 -4 -34 -29 32 34 -15 33 34 -39 -35 -14 -44 -7 40 -6 33 28 27 -34 -30 9 -14 -11 37 0 5 -20 24 -41 28 -43 -42 -26 29 -35 3 -30 24 5 43 3
8 45 28 10 -22 0 -36 -35 9 36 -26 16 41 -12 8 -15 28 -28 -18 6 -16 32 -19 45 -43 -26 29 12 36 -40 34 -8 -30 -21 20 13 -36 -2 -7 -14 -35 42 45 -44 -33 -15 21 -16 -25 5 24 -24 -13 44 16 -44 -17 -21 -38 -43 11 -24 -2 18 -35 16 31 -25 -10 -4 30 -30 -21 -12 -27 28 -5 -35 -44 -37 -24 -2 -21 -8 13 -43 -24 -20 42 -44 -2 22 32 -19 22 14 28 42 16 34 -29 43 42 23 42 -18 17 -28 4 14 2 -30 -11 30 -5 21 19 -31 22 -28 13 16 15 -45 -13 32 10 12 -12 13 41 24 41 -3 -9 -5 -41 23 35 13 -17 -6 -22 -31 44 21 33 24 19 -21 35 -38 -37 -24 -23 -40 16 -29 -34 -19 6 38 -26 -41 24 34 2 41 -25 44 15 -14 -3 11 -5 -37 -13 -43 -37 -16 -35 8 1 -24 -33 -24 40 -16 -16 -25 -28 -22 31 39 33 23 -14 30 -32 -2
23 31 1 1 22 2 -2 12 -5 38 44 -3 -35 -8 -14 -36 -36 45 -8 -1 -41 -3 -36 33 -17 12 26 -25 -21 10 8 45 -38 6 -34 38 17 27 38 -17 19 23 -41 -7 21 -13 -14 6 37 33 37 33 -24 11 43 -5 21 1 -10 14 -36 35 -32 30 -42 21 -12 40 5 32 39 -45 17 14 -17 22 36 -18 38 32 -33 3 -5 -23 -22 21 14 -23 -25 -34 8 41 42 44 37 6 36 18 30 -41 -10 45 -7 -16 0 32 -38 36 -22 -31 -17 33 7 26 -37 10 -31 -22 -27 -24 -41 30 -2 21 -14 1 22 -4 15 33 19 2 2 -4 20 4 40 -37 21 -1 19 -14 -36 25 2 -43 9 33 18 23 -44 16 37 1 38 21 -12 16 4 3 24 -37 22 -9 30 34 9 -33 4 35 42 11 -11 11 -15 38 6 -16 36 36 -11 18 32 19 -19 41 -18 16 -30 38 35 -44 -12 34 6 -22 -11 13 -31 -34
-28 43 21 27 2 -8 0 -17 -16 3 -19 -25 -24 -6 10 18 -39 -20 -14 0 -35 32 -12 22 -20 -14 -28 23 39 -10 20 -33 -19 -8 -20 11 26 18 6 29 13 -11 -7 -45 32 -26 -10 2 -5 0 22 42 26 37 -1 8 22 -37 -21 -25 -41 1 32 -21 -30 28 -6 -17 29 24 17 7 44 45 -38 5 -28 6 25 35 3 15 44 -29 42 9 -9 2 12 35 -10 -7 23 31 -33 2 18 9 -22 30 2 39 -33 24 -43 3 -17 -16 -2 -30 28 -21 -23 21 32 -24 31 -2 6 -11 31 -36 32 -10 36 -3 -30 -41 6 -16 4 8 -4 31 43 -10 12 -29 -32 -29 27 7 5 2 -21 14 11 -27 -40 -43 -26 -33 -43 28 16 24 -21 -30 -1 -3 -3 35 -6 35 -25 -2 42 -23 18 -13 -11 -33 -5 18 11 19 -22 11 26 10 -35 4 -24 -11 -30 3 -36 -5 -36 -19 -1 29 31 -5 -13 7 -29 1 23 16
-45 2 -16 3 -5 42 13 38 20 -37 40 -37 -38 28 -18 32 2 29 2 14 -24 -1 27 -23 -9 -30 18 -30 -31 24 41 11 -25 27 21 -18 -41 -1 21 -6 22 27 20 -5 -43 2 -37 35 -13 -16 -36 -6 -12 -39 -3 41 -21 7 -43 14 29 34 -41 -30 -3 -11 17 -44 0 -32 1 -11 -18 13 -20 -34 15 -34 -34 -40 -8 -21 -9 -32 24 35 15 43 -12 38 -31 45 33 35 11 15 44 -26 14 -45 2 44 1 -10 -42 33 -24 -14 -18 -40 -4 -8 -26 14 -20 10 -35 -33 30 -14 39 22 15 19 27 22 33 -27 -14 38 37 -8 36 4 -26 36 -16 -1 -40 -4 -6 43 -9 2 34 -10 -33 -23 26 -28 -32 -17 20 11 -44 -26 -18 30 7 35 -6 41 -10 26 40 -13 -17 21 -12 -38 -21 6 7 26 -45 -2 0 -4 -22 -34 -21 18 35 37 -39 -42 12 -44 -15 28 -19 -42 44 -43 37 -2 24 32 12 22
-17 -39 20 4 -40 2 -5 -16 33 18 45 -14 0 37 -41 -45 36 19 -17 -9 5 0 14 -40 -3 37 9 43 -18 41 -37 34 3 -9 20 18 -17 43 -22 -16 -16 44 -43 38 22 34 -34 39 -44 31 -4 -26 31 44 -45 -44 6 -40 -23 -41 -22 25 20 14 30 -18 21 31 -6 4 -2 4 43 34 -39 22 -37 -34 28 30 33 -32 14 -20 -11 -25 -34 -5 31 35 -6 -38 9 19 -41 -21 25 12 36 -9 -10 -31 28 41 -30 35 33 -32 31 13 16 -18 -22 -3 -37 -34 36 36 25 -23 35 26 -28 -31 4 40 40 -41 -14 25 -32 -3 28 -5 -5 -29 -9 -4 -34 -7 14 7 4 -34 -23 -25 16 -37 13 40 -34 3 7 19 24 7 22 -10 38 -9 43 -22 -35 -19 0 -3 -34 2 -24 -14 -37 -25 -11 26 -9 1 6 19 -36 -4 -41 0 41 -43 -4 20 -3 -22 -23 -37 -18 6 -31 -44 -20 27 -13 19 -33 -2
-35 -32 -15 12 38 28 28 37 -30 40 -11 -35 -33 -36 -23 25 13 -27 -32 38 -40 -20 -4 -7 2 7 -19 -2 -40 -16 34 -44 4 5 -38 -21 32 22 22 30 9 12 -18 -1 -5 -13 10 19 -31 12 21 36 4 42 25 -39 32 -38 -27 -21 -23 20 1 12 2 16 44 -45 35 -29 -28 -1 -45 30 -11 26 -18 -39 15 -7 -19 -24 27 36 44 -26 29 -29 -9 41 31 -25 17 -16 -27 31 8 24 -1 -13 20 -9 23 37 -41 -1 -27 32 10 2 31 6 29 12 21 8 -11 -16 -19 11 -44 -21 -27 -31 -39 -4 2 -39 15 -34 -33 -17 40 6 -32 21 44 -23 17 25 39 20 -7 31 -38 -6 20 35 16 36 19 32 -6 -37 -9 44 42 -7 -9 -20 30 19 32 -11 36 2 -4 39 22 -30 -40 -25 -45 -28 33 1 -37 5 42 15 -21 1 -2 36 -34 -37 -9 -15 -31 -26 -7 19 9 -20 10 5 -39 -30 44 -10
37 -28 -1 34 -2 -38 -16 32 -11 -11 -37 25 -30 30 -43 -36 6 -4 -43 3 -33 35 29 28 23 -33 2 31 43 1 15 -12 -44 13 -31 40 -4 42 -25 -36 32 40 -20 -36 8 -44 28 -6 -21 -28 -36 41 -11 42 -6 -38 -36 40 -42 2 0 -13 14 37 -43 -44 35 -3 -35 -18 -25 16 -23 25 39 -16 -1 -21 12 -41 -10 -1 -42 -42 -25 -18 -7 15 44 37 -24 15 4 9 -36 -23 -43 35 -3 -32 13 22 8 3 -22 0 38 43 5 9 -3 24 -20 -34 -25 -30 -44 -28 21 23 -41 41 -7 17 -35 -7 -22 -23 23 -18 14 -30 18 -14 -3 24 -8 -12 -24 -34 -23 -31 4 37 -45 21 -3 1 8 -29 3 -14 24 39 6 20 -18 8 20 -37 38 -28 25 27 26 18 1 13 39 -37 41 -12 -21 -26 33 -41 -34 -8 -20 -27 -36 -32 -23 -27 10 -20 13 -36 -5 -6 -43 45 36 -43 14 -23 24 -33 8 28
13 -40 -39 -21 -8 -23 -14 25 33 -24 23 -6 45 19 10 -44 -3 -4 28 -21 -26 -10 32 5 -26 -17 -27 -12 17 37 -38 39 23 -4 -19 -17 -26 43 44 12 34 15 30 42 -10 39 -22 0 -29 20 -44 16 -20 -28 -13 30 -19 -32 -9 -34 -5 31 -17 4 38 10 -35 -35 -19 18 38 23 31 9 -8 12 -34 16 2 17 -8 3 10 16 30 44 33 28 25 33 29 3 11 -23 25 36 45 -9 26 -35 -41 0 3 9 -25 9 -13 -33 41 39 12 -24 -21 25 -19 -29 2 44 -22 -4 45 21 -8 -6 -30 18 39 10 14 29 -19 33 -21 -22 -11 -35 45 -37 -22 -11 -29 -42 -29 31 0 2 23 -25 39 40 -9 3 -2 -26 43 -8 -43 41 3 -37 -7 24 -14 26 -21 3 -31 11 -12 -18 -34 -39 16 -14 -39 -4 7 4 -29 -29 -1 -2 -8 -37 34 6 -39 -13 16 -33 -35 -43 -26 23 45 -19 -30 36 -33 4
19 -23 -12 27 -19 5 -11 31 -8 -11 21 23 20 16 -34 16 -45 34 6 16 -34 7 -19 -25 1 28 -13 -23 -15 -8 23 33 23 -15 -6 -28 11 9 -13 -39 29 -9 -7 -6 11 -30 -15 -29 -30 11 -41 -44 -8 41 -10 -26 23 -34 3 27 -14 -6 -17 21 -30 20 24 23 -9 3 20 33 13 21 10 -20 2 24 5 18 -19 -3 -5 -21 8 31 -11 44 -4 -37 3 40 45 9 -37 -17 -21 18 -41 -19 -27 -36 4 -41 -14 -10 37 10 -40 29 -25 -42 -29 -30 17 -12 43 -4 -30 2 -37 -21 19 -14 7 40 33 -8 -37 40 29 -27 37 21 -32 -37 17 -45 -3 42 16 26 -6 -38 19 42 32 -5 25 -11 34 9 -36 -12 -45 -37 41 19 -27 -17 -6 -21 23 29 -2 -44 -8 30 -41 26 -9 -7 -3 -43 -15 -36 -33 -4 35 -22 9 -43 41 10 4 29 -29 -9 33 -6 -45 -10 11 0 -40 38 -2 34 30 29
14 -42 -24 11 -9 36 8 14 -33 6 39 22 19 -26 35 -1 27 35 -29 -35 11 -36 -33 -41 41 16 18 33 5 7 6 -30 -41 28 3 -9 -38 -21 -33 2 -9 15 1 25 25 -14 16 26 -6 -37 -34 -31 -26 -38 -31 -32 -12 13 28 -23 -5 23 -26 -13 -19 36 29 16 43 40 9 -14 28 -37 -9 26 -2 33 44 44 25 -24 -17 -2 -38 -45 -21 -44 -23 -27 1 -30 6 -21 37 27 -38 4 -32 -36 -16 -38 11 27 7 36 -17 44 34 -5 4 41 -29 33 -40 6 16 -34 -32 15 -43 10 -44 -2 30 -12 40 18 -27 30 9 20 15 -14 -15 24 -1 39 10 15 -10 -28 -7 -36 33 -42 -24 -25 39 -8 -45 11 30 13 -32 -4 6 26 21 23 22 13 7 -43 -35 -19 33 -1 9 -14 18 -44 8 31 13 17 -5 42 -21 9 34 27 -36 27 20 3 44 -42 19 -19 -31 -42 16 3 18 1 -18 35 39 -6
-1 -42 -15 -30 22 22 36 15 -15 -34 7 4 32 -26 20 -28 29 10 23 -22 2 16 35 38 6 -29 6 27 -1 -18 -40 36 36 25 11 -25 15 -15 -10 -8 -23 11 36 -9 -16 -1 41 -11 -23 8 20 31 -11 -33 -14 9 -17 -8 26 -9 11 -9 -14 -9 11 34 -44 -5 -41 27 0 -20 -32 -41 -45 -35 43 -42 4 28 -30 36 -38 -41 1 -6 -6 12 -8 -17 -30 -24 -20 17 -33 23 29 -39 44 0 11 45 -33 -3 44 18 -31 12 -26 -38 29 -31 3 -22 -6 20 -12 20 15 -42 36 -1 -40 -36 15 -37 -45 36 43 4 15 26 15 -40 17 -22 10 21 -34 8 43 -27 -10 34 -38 -35 -37 33 -7 36 -33 -3 -28 -37 -27 26 27 4 18 -1 -7 -13 -4 -40 16 31 -34 3 -23 3 -43 13 -43 12 -24 -21 31 5 -34 -4 8 24 -8 -32 8 -5 -28 -17 -33 -32 15 23 -5 -5 19 -10 33 -2 -22 -11
35 -27 -29 16 -1 9 -2 -38 2 24 25 -7 8 45 -25 41 -32 -26 5 13 10 -22 -41 9 -34 -23 -34 44 -33 11 -23 39 -18 -7 -21 -5 -26 -7 33 -31 4 13 10 -29 -40 -44 -10 -45 -30 -30 -13 -41 -13 -16 13 -19 -1 16 -14 -7 31 -6 8 -27 -14 -25 22 -13 -29 -35 -2 -39 -21 -26 -19 18 6 15 22 -15 -22 -20 6 -18 -27 -24 27 -45 -14 -39 -10 28 -10 -4 8 8 -36 -43 7 -30 -23 44 -39 -13 -1 -5 43 7 -37 0 3 -25 21 -26 -3 -39 10 -19 38 13 -40 -14 -5 42 26 -2 13 -14 -27 17 36 -37 -38 -44 -33 33 -13 12 -4 31 -18 9 33 -24 12 6 10 -4 33 -37 28 -20 -14 16 -24 10 14 -27 23 -4 40 -7 -14 -38 1 35 39 -32 32 -3 3 37 0 36 -21 -40 -9 35 21 27 -26 40 -29 22 11 45 18 33 -39 28 33 41 -27 12 41 -6 26 -34 -26 -4
-32 -45 -41 -27 39 -45 35 -10 -8 19 -39 -23 7 12 -13 4 -8 13 -16 -19 41 -10 -35 31 31 -18 11 13 -30 -19 4 18 23 -29 -25 -8 16 -15 36 -24 -30 -11 -15 14 -9 43 -44 -15 33 41 18 19 -30 44 29 -1 -42 37 14 21 24 26 14 24 5 -33 -28 -32 -20 -34 -38 14 -9 -13 -15 -35 28 45 -42 -3 -6 3 38 7 -34 10 2 -18 18 -15 31 35 42 -34 -44 -10 14 8 -1 -21 36 9 -37 19 -43 35 -2 45 22 -9 6 -10 -1 9 13 -20 18 -36 14 19 34 -34 -15 -23 -41 -41 -43 -5 -19 -10 5 -16 -3 45 -5 3 -4 34 35 -22 -6 13 -12 -38 16 -15 3 -29 -41 16 4 29 11 22 17 -14 -2 41 -11 26 -37 -44 -31 -32 -11 -8 -32 -33 36 24 -25 -25 -22 43 -39 -32 -30 -45 27 16 28 36 -20 38 23 37 -16 -16 -14 4 -29 -37 8 9 -28 -14 -22 10 35 -3
3 -28 3 -14 -3 1 36 -5 -31 -17 6 10 -34 -10 -41 -28 44 37 -3 -43 -20 -4 -37 -40 -40 17 -9 -19 19 -40 5 -11 44 -15 25 5 -24 5 3 29 -13 -33 22 7 31 -31 31 -32 -34 -28 -24 26 41 -13 -32 -15 -23 4 16 -18 -18 -30 29 17 -12 -12 22 -32 -14 -33 28 -9 42 -15 13 10 27 -13 -1 16 28 -6 -27 -34 -17 -17 11 -33 24 -43 2 -15 16 -6 35 -25 15 31 -44 -23 12 25 -15 -19 3 36 -37 -30 -14 30 12 -28 -10 -18 19 -18 -40 -17 -41 28 -38 -42 -18 28 -14 -35 14 -27 31 11 -33 22 -7 -32 33 -4 14 -2 14 -24 43 -16 -9 44 -14 5 41 -6 -9 40 24 -9 42 -8 12 -33 -3 33 -14 21 -20 -33 35 6 8 -37 -29 -40 36 19 7 -24 4 -1 -26 42 -32 30 -39 -36 4 32 -29 9 -44 23 -41 -9 -20 -23 31 6 -30 -7 -17 -26 30 7 -15 16
-31 17 29 -22 -6 -30 -24 22 -28 -17 11 -39 13 -9 33 21 -17 -24 5 23 -17 17 -29 6 18 -36 -33 -27 33 -40 12 -26 27 31 -35 -6 -14 44 31 36 6 -42 -19 15 -42 -19 -40 -36 -28 -8 -11 -14 -16 18 -42 -7 20 -41 3 15 18 -23 -27 -32 -2 -37 12 17 -41 -12 37 41 -45 -19 -10 21 27 32 38 33 -5 -8 3 -22 16 -36 -9 0 37 -10 4 25 -23 -13 29 45 -18 11 -33 13 31 43 8 -1 -25 10 41 10 2 -36 -34 23 34 5 -27 44 -38 20 0 42 -35 7 8 14 -18 -4 16 -17 16 -20 -35 -11 30 -6 38 38 -31 9 11 -30 -3 -45 -21 0 43 -45 -15 -4 -6 44 5 -2 -40 -13 -11 34 -35 -29 45 -18 -32 -16 21 -13 37 38 -42 -42 5 -38 42 38 26 5 -8 -37 -40 -35 21 -32 -38 -15 17 -26 -37 33 2 -20 30 41 44 11 -22 1 5 15 -1 29 19 -34
14 38 41 -31 26 -39 -4 -18 12 -21 28 -22 -35 30 -20 3 -31 36 32 12 14 2 -31 42 37 42 -42 -43 1 20 35 -9 30 26 -8 -32 -21 30 -15 9 16 -29 39 -2 33 -11 -23 7 -15 -19 -7 -43 39 -5 7 -18 -44 1 23 -23 -5 -38 13 14 -43 5 -6 -32 -34 23 -40 18 14 42 7 19 24 -40 -36 6 -23 -16 -43 -15 36 -33 17 -20 36 -19 -32 44 -41 12 -39 36 35 -38 2 -13 13 -32 -7 44 -22 -9 -40 -42 -43 6 -20 37 -21 3 38 42 -37 -31 -45 -19 -39 -8 -18 -4 27 -18 -45 -38 -27 17 -29 37 36 -14 -43 -11 -18 7 40 -10 -3 -5 -38 -5 4 -24 4 -3 0 9 -4 -30 -39 38 18 39 19 -9 18 0 44 7 -9 -22 -24 16 4 -15 -12 -36 30 -13 -36 20 -13 42 -23 -38 -14 -15 -1 -26 11 11 3 22 -33 15 -29 -21 -26 42 12 17 44 -24 1 12 44 24
-16 -13 26 36 -1 6 -21 21 31 35 -24 36 0 -11 -10 -7 26 10 -42 13 40 8 1 -44 6 4 2 3 44 -7 38 14 2 -15 -41 -42 24 12 -4 19 -5 27 -13 38 -1 4 -31 3 33 4 44 -39 41 23 37 -42 -4 9 15 2 22 34 -2 29 1 26 -9 -16 7 16 -28 22 31 -4 16 15 12 40 -20 -32 9 -2 30 24 -29 -17 9 -2 -2 4 42 -36 12 18 12 -34 -3 -18 -11 26 8 -35 -37 19 33 -19 44 -37 -33 -12 26 -43 8 -11 5 -30 41 29 11 -30 44 7 36 15 -35 19 -26 -39 27 3 14 40 -33 -42 28 4 -27 4 14 -38 20 -6 0 -12 -33 -1 -3 30 22 24 -27 31 42 -28 -19 -10 40 44 -22 10 -27 41 24 -34 -39 -7 -14 -20 24 45 25 12 45 -20 -17 40 -12 -13 3 -45 39 -34 -10 40 -24 -2 24 12 -24 -26 32 1 -29 22 -1 37 28 -7 -21 13
14 -13 -23 -40 -9 -29 19 31 41 27 -5 -9 -24 31 3 -32 21 25 -35 16 14 -29 -20 -43 24 18 -33 43 -3 8 17 10 7 25 -34 -33 -41 24 33 25 17 -11 40 -40 -21 39 21 -25 1 39 6 37 23 27 0 32 -19 34 11 -42 7 43 -33 24 5 26 -28 37 36 41 -16 35 22 -39 33 44 34 21 34 45 7 -9 12 19 -16 -44 -40 12 0 8 -14 3 -23 -6 -42 7 -44 -35 19 28 15 35 -43 -38 -6 32 -20 -11 32 -18 42 30 13 -6 -16 2 -28 7 -39 20 -2 -24 -14 10 -9 -2 -30 -44 11 40 5 8 43 20 7 -31 -27 5 13 43 -37 19 -43 41 3 29 -2 27 -31 -9 0 -27 -22 -26 43 18 31 -44 -5 -25 -4 -6 31 28 -28 -8 -35 -4 18 -15 24 12 -31 -9 -3 26 43 -22 7 23 -30 -31 -10 12 -11 -25 -29 18 3 40 -45 25 32 -13 -36 -36 -24 16 1 -24
-9 24 -45 23 15 41 -16 20 -5 13 -27 37 -26 -13 22 -3 39 16 -36 -45 -4 -34 35 -42 36 13 -28 -15 27 30 4 6 -38 -5 17 -42 27 -26 0 -8 -39 -37 -14 -35 7 22 26 -33 -16 -22 -37 17 41 41 -7 -32 14 -16 -35 -15 43 7 6 22 28 -44 -32 -41 8 44 -5 -3 27 15 1 -43 40 -4 18 7 6 41 30 2 -28 -40 42 44 -10 45 -20 -18 33 3 39 -16 -11 -38 -34 -33 -12 45 16 2 35 -23 4 21 -40 -20 -40 5 -5 -11 35 -41 -21 -33 2 -43 19 33 21 -34 -34 -24 33 20 -8 1 -42 -32 -2 41 15 -3 40 -22 17 -18 -35 -40 14 41 0 -42 14 22 37 3 -27 31 23 32 -11 -13 -7 -1 -23 -4 14 35 0 -21 -44 -25 28 25 20 -37 -34 18 -34 23 -29 -28 -11 21 -19 -6 -33 17 -26 -6 -8 36 -35 34 -20 -30 15 3 -23 -12 9 31 6 -5 18 44
38 -22 17 -41 36 -25 14 23 17 -2 -30 27 -26 11 -13 26 -19 29 -36 -20 15 16 -40 -22 21 35 11 -9 17 9 0 -32 -33 -3 -2 -45 24 18 10 -2 17 34 25 -38 23 32 42 14 -31 15 35 22 17 26 -25 24 8 -34 -21 -39 45 17 -5 -43 0 18 12 1 8 39 -19 -23 -3 1 3 -18 -13 -21 -24 22 40 -44 -3 -27 45 -44 -3 33 -28 21 28 -40 -7 -6 15 -17 -18 -37 18 -8 1 -30 -11 -5 28 -6 -32 36 -21 16 13 14 -11 -26 45 -41 23 7 9 -25 25 -33 31 -30 34 -4 -3 -27 -12 38 -36 -37 -38 9 28 41 39 -19 -34 -25 -16 6 -5 -10 -36 13 -11 33 11 -13 17 -44 43 35 8 -20 -34 26 12 13 -23 13 -14 -23 -38 25 3 5 40 -19 -22 12 -17 -23 -24 13 -40 -29 44 -7 11 17 15 -32 30 6 -3 -15 15 37 -32 35 -40 -11 18 16 -13 32 28 35
-27 -21 25 -6 11 15 3 -6 -36 11 19 -10 -22 12 22 -22 11 -39 0 -22 -45 -19 -34 -5 -14 -15 3 32 45 40 41 37 36 -21 38 44 -32 40 27 37 -30 -42 40 -13 -41 30 4 9 8 -10 3 -23 -39 36 -6 -28 -4 -1 -38 -36 6 23 -25 15 27 -22 5 -14 37 19 39 39 9 14 45 -18 24 32 3 15 20 -26 -7 9 26 -17 -14 -37 -36 -26 0 26 -8 25 -2 25 -18 -26 -25 -45 -9 -43 21 -37 34 6 -17 -13 -1 -2 -1 -23 -12 22 -7 17 -24 -39 -39 12 28 6 -18 43 -11 -43 13 22 -1 37 28 30 -6 -19 36 41 38 41 19 0 -35 -35 34 -41 35 -7 -5 -29 -36 8 -23 16 40 5 -10 19 -32 -43 -9 -18 15 -35 -7 -8 32 31 -12 3 -10 -10 -35 42 -36 6 17 -14 41 22 41 -41 43 -17 -37 -4 33 8 -22 20 16 -42 -4 -31 -41 -37 35 14 25 6 10 6
-27 28 -39 3 32 27 -30 22 24 44 7 -36 -27 -23 23 21 11 19 25 43 -31 -39 -42 22 10 -17 -20 40 19 14 3 5 -41 1 45 26 31 15 4 28 -37 8 -16 11 -39 -12 -30 30 38 -19 41 -18 -25 41 -26 -16 43 -28 -20 41 8 15 -37 27 1 -20 -30 23 0 -19 3 -13 0 -15 45 43 16 -40 22 31 -17 -37 -10 -27 37 -13 -28 -10 20 45 33 -5 27 -39 3 22 -23 27 -17 22 36 12 34 5 -42 12 -1 -23 -13 13 39 2 15 -23 9 10 7 39 -25 5 33 29 31 -18 31 2 27 -34 -9 29 -39 -17 -7 -33 -22 -20 27 -37 14 25 1 26 -19 16 35 28 -40 -37 3 -17 -40 -6 2 2 -40 -18 -20 -33 -33 11 -5 42 -36 36 16 1 28 -45 10 31 -24 39 -43 -7 39 19 -16 -16 40 19 -33 22 36 22 31 -4 -6 -39 14 -11 2 43 -13 -20 -14 -23 36 14 20 8
-27 -39 16 32 29 -35 -30 -16 43 14 18 36 -25 1 -6 -44 37 -39 12 -19 -19 -19 -40 -16 37 -30 7 12 -29 -41 -30 9 19 -9 -38 21 34 1 -26 -17 5 39 -4 -16 -45 -19 32 23 -36 2 0 24 8 16 24 -15 -28 -18 33 -42 -28 5 -27 -17 22 -32 -37 -15 24 39 -34 43 -24 15 -10 16 27 3 1 8 30 6 1 -12 -43 18 35 13 -42 -28 37 -42 -44 -5 24 -9 -32 -13 33 -10 18 -14 -31 31 0 0 -1 -45 -8 -39 44 23 7 24 -6 -42 29 -45 -40 1 39 39 -24 -14 -14 -26 35 42 -30 -12 12 41 -12 -24 36 -19 10 28 4 -13 26 45 -1 -27 -1 6 1 -17 4 -12 -4 -7 21 13 16 33 32 -28 33 -17 22 9 11 32 12 4 30 0 16 1 5 -1 -2 -44 -27 -33 -4 6 -15 6 33 -41 -28 -37 27 -42 32 -38 31 -3 25 11 42 34 -39 -35 20 32 17 -29
41 6 38 -16 13 23 -44 39 24 -23 -1 4 -16 9 30 -17 25 -3 19 -30 -41 -44 11 36 11 37 23 4 30 29 -22 -38 -27 11 -24 29 -29 37 5 10 40 -23 -22 -12 27 8 33 -30 -12 34 -37 -31 7 32 1 28 34 30 -4 22 -6 17 37 -11 -17 -13 11 36 9 39 -14 -38 28 -2 -31 -12 -21 4 27 -45 40 -7 17 1 -21 44 27 -42 -2 -33 24 19 -19 -35 2 -2 -43 16 15 12 -8 -41 11 -28 -41 -35 22 -7 7 -12 17 16 -5 -6 27 7 12 -28 16 -22 25 15 -41 11 -43 9 8 7 -41 31 4 15 -1 12 -2 40 9 17 -11 -4 38 -33 -5 19 -15 30 9 10 -3 39 -32 -43 -29 -41 -8 20 13 -25 -14 41 1 23 -40 31 -3 -40 -32 -6 -18 -4 1 -24 23 -28 27 -10 7 11 7 1 -40 -26 -8 -11 15 -22 -13 22 31 19 17 25 -38 45 -40 -2 1 6 -18 -7
15 40 3 13 16 -6 -25 -1 -18 18 -1 43 -41 -44 -40 -14 11 35 5 -16 -34 9 -31 37 -36 -4 -17 44 -22 -41 -44 -13 39 -43 10 14 4 -37 -3 14 7 -1 23 -22 -45 -43 14 23 -26 -41 7 23 10 39 -4 39 -29 6 -45 -24 13 27 -24 -13 5 -18 22 13 -23 41 44 -38 -44 -41 38 32 3 -41 45 28 16 34 33 -42 -4 24 -21 37 29 -9 -35 29 40 -41 -17 5 20 13 -30 15 36 -29 -35 14 -24 -38 4 -35 24 -35 -24 38 19 -35 34 -28 0 37 -14 19 12 -34 -40 4 26 11 31 -16 -31 -44 -15 -13 31 -2 8 39 7 33 3 26 6 -40 -37 -37 -45 26 16 -9 -26 -35 -35 -35 -32 24 -30 -9 31 -37 14 -41 40 -17 28 -34 -7 -3 40 -14 -11 -13 -40 -40 25 -38 -13 34 12 -23 14 -5 31 -11 32 -30 25 -8 35 -12 -24 36 17 12 36 -32 40 -12 12 4 17 -35
44 8 -27 7 15 23 13 -3 37 -18 -2 -41 36 -9 -25 -40 -6 -37 -1 4 -35 3 -10 30 39 -1 -16 38 -36 22 -31 -11 33 -3 -6 -15 11 26 -4 -16 16 45 -16 -18 28 -9 13 -42 -5 -19 -25 -2 -21 20 -20 44 17 38 -2 39 -4 -28 -16 30 1 -23 39 -25 28 38 23 27 -6 10 3 5 6 7 -8 35 -43 25 -45 17 37 -36 38 3 2 29 -15 -5 3 -6 -33 11 -39 16 22 40 -36 -41 4 7 -34 -40 -38 44 -14 35 -26 -32 41 -15 -11 15 -31 -23 -2 -43 25 -7 -12 -20 -1 -41 -45 2 45 44 -38 3 -19 -20 16 -8 44 30 39 22 -1 -6 29 8 13 19 24 14 6 -22 -3 -7 22 8 12 14 32 22 31 42 26 27 35 14 26 -45 -23 -31 -10 32 12 22 7 1 -9 -17 31 7 26 -13 33 1 0 -14 21 26 24 17 -9 33 37 -23 4 23 -21 35 40 31 12 15
-37 12 37 27 5 44 3 -40 -43 -2 24 9 15 4 -4 16 -8 -34 -41 18 13 42 -23 -37 44 40 8 -29 -36 -4 44 31 -10 -35 -41 -6 -6 -9 44 28 -6 39 34 -41 27 -5 -34 -40 -3 34 -31 27 -27 -15 24 -20 -35 -24 -4 -18 -33 -18 -11 -22 -34 36 -27 9 7 45 10 17 38 -11 34 -42 14 15 33 -13 -7 0 37 26 -10 4 -31 -10 0 -19 23 -2 -21 34 44 -14 -18 2 13 -5 -31 27 18 -27 -19 -9 -13 -29 8 -6 7 -26 13 -29 36 44 -26 -16 6 34 -20 10 -27 -16 43 3 4 -23 37 -23 -14 9 -18 -25 -40 -5 39 -40 -4 -2 34 13 -9 31 -33 5 44 -15 35 42 -5 -41 -10 -20 43 4 -43 28 44 -1 -21 19 -40 -34 -25 23 -36 -21 43 -35 -29 -30 6 28 36 20 44 -40 6 27 44 23 -25 19 -44 -19 -38 -24 -32 16 31 42 29 17 -19 -3 -36 -34 1 11
-45 -26 19 3 38 -19 34 42 -5 -29 -31 -39 -45 37 -5 -35 -24 -20 40 33 14 -25 -12 18 26 -11 11 -32 45 -43 -35 36 -6 -42 -27 -19 33 -42 39 -18 2 32 -29 3 9 -14 -10 18 -22 -22 5 -26 -6 34 -40 -26 39 16 24 -19 -12 -5 -41 6 45 -4 -20 -1 -2 18 -29 24 -34 17 4 6 8 23 -39 12 -24 8 9 -1 -34 -18 -1 39 -31 7 26 10 -12 -3 -41 -34 6 -10 -14 -13 -14 -21 25 -16 -21 -6 -13 -26 -36 35 36 -18 -2 14 8 8 -11 21 20 11 32 -29 -18 4 35 -38 -6 -2 17 33 -28 23 43 8 -20 -31 -4 -22 -14 0 14 4 -17 -44 13 33 -8 -14 -4 25 8 -1 1 -39 7 43 -26 -39 -28 16 1 33 -25 7 -14 43 -15 -22 -26 42 13 -17 44 37 -16 -1 -36 43 20 2 -5 16 -3 15 12 -25 41 13 25 -36 40 45 13 -36 -19 36 -1 -19 -26 43
-35 -1 30 17 42 -20 -40 -6 -11 -1 10 -5 -45 10 16 26 19 2 44 33 -1 -23 -19 26 25 -15 16 -10 11 -9 -10 -28 -31 -45 -24 20 -11 25 -41 19 5 -8 -16 14 41 3 42 41 26 10 17 -17 22 7 38 12 43 -9 36 17 -37 -45 44 44 31 17 -23 -1 35 -11 1 -22 -16 -37 11 -19 28 24 16 -43 -22 36 -3 7 2 -4 13 -1 -21 -35 16 -33 -29 -32 0 -41 41 43 -45 43 21 31 -30 34 -9 16 -4 42 5 -34 -8 38 13 -34 1 -43 42 40 36 -44 -30 -30 -9 -33 23 26 -26 -12 13 -36 4 43 -19 35 -45 -40 -35 32 28 -27 -16 36 18 45 0 -45 23 24 -17 33 44 -36 -18 -12 20 -36 -10 -42 11 -19 -33 35 -41 41 29 3 -10 -33 -26 11 19 14 -36 -17 16 -13 -32 -13 34 -5 10 12 -32 11 -36 16 -36 0 43 42 6 -29 -33 -11 -24 -7 8 -16 5 -18
-30 2 -31 -27 16 36 -1 34 -45 2 25 -40 -23 -38 33 9 39 -6 0 5 -10 11 29 33 25 -19 31 18 19 40 -43 -31 42 -7 5 12 -16 -9 -16 26 -20 27 -11 -17 -8 -18 7 21 12 17 -24 -34 19 28 -19 -8 9 -37 42 -32 4 14 32 38 22 -10 17 -25 22 5 10 -20 -3 31 3 -31 -19 15 -39 18 -39 19 -35 -10 -30 21 45 20 29 -43 22 -33 -43 -36 37 -20 25 34 22 -4 8 -4 -22 -45 25 -22 -31 -36 25 12 30 -32 39 8 -1 -20 12 8 -38 -30 43 -22 -16 18 -7 42 -8 -14 35 23 19 12 -43 30 8 3 18 27 32 -28 8 43 9 11 43 -45 -35 3 -26 20 14 13 -16 -1 -7 41 4 22 8 37 16 24 27 7 -10 -43 -11 -23 6 6 29 0 34 -44 -8 -7 -21 -10 -28 29 -43 -15 10 -6 36 -30 8 15 -27 -29 37 -13 38 13 40 -32 -3 -18 7 26
18 11 26 -31 -2 5 -41 -30 -26 -27 26 -41 17 -13 -33 1 -23 -36 8 41 1 -12 -20 -41 -27 26 -3 -28 -20 -21 26 -27 -27 8 19 -38 13 -10 -5 -5 37 18 37 3 -2 -34 -44 -2 -41 4 -13 25 -5 -14 -25 37 29 -29 -11 -30 35 6 -26 19 -37 28 -44 23 15 -45 -8 22 45 -7 -26 5 -9 21 -21 7 11 16 -15 -7 26 -14 -33 -42 -4 12 -17 42 -39 29 -37 14 -19 35 26 8 -21 -21 -43 -31 33 30 31 -21 19 -10 45 31 -33 29 -21 15 15 -31 -12 -39 -42 -33 24 17 26 -24 38 26 36 -6 -15 39 22 23 24 -35 21 -22 29 37 5 25 -1 21 9 -8 -27 2 3 -22 -10 -15 40 24 40 -19 26 5 10 -11 -9 -31 41 6 38 -5 10 40 -25 15 -42 26 -44 35 44 -2 -39 -13 32 -20 -44 26 4 5 45 -41 -17 -22 5 -21 39 43 13 3 -11 -28 1 38 -2 -19
16 18 -31 40 41 -5 0 -38 -33 29 -22 2 41 45 24 -24 -31 6 8 24 27 35 -23 -9 -14 5 15 -19 -36 -20 -19 -13 16 5 28 7 24 -21 26 -36 -28 2 24 38 19 -24 43 -22 30 4 -18 -9 25 -42 1 -39 -26 -2 -19 -39 -25 -1 -3 33 42 -32 -42 7 -25 -19 -38 -1 36 -37 25 23 -43 -1 30 -11 -29 -27 -38 -34 28 44 26 26 39 12 -3 14 3 20 8 21 29 -2 24 4 39 1 -24 44 -24 19 -15 -6 2 -40 -30 -4 -23 22 -13 -12 4 39 44 -36 8 -10 10 -12 -18 27 22 -30 22 -4 -11 12 42 10 -18 19 -2 16 41 23 -24 -4 -39 21 8 -28 -37 31 3 25 2 -32 -39 31 -25 41 -33 -26 38 -31 -6 31 21 36 34 14 -2 41 42 -14 14 -30 -13 0 -35 -23 4 0 -21 -24 40 33 21 -5 -22 41 -36 16 33 0 -37 -39 -27 -8 5 31 -29 -3 -14 -7
38 39 45 -33 -35 34 16 -7 12 42 35 45 -7 -6 11 -15 34 -11 45 24 -34 7 26 -23 20 -24 -26 4 13 24 45 -35 32 11 38 -35 36 -15 -10 -37 23 42 -2 29 -31 36 30 44 -13 -30 34 -16 -34 -28 45 -34 -6 25 -11 31 -7 24 3 -34 43 -11 -10 -1 -1 -16 43 -44 26 -30 -25 -42 32 -30 5 25 14 -37 -12 43 0 -20 -6 -30 40 30 -11 33 28 9 1 24 -17 44 17 -24 1 45 -2 33 27 -40 -22 38 5 23 -28 27 34 23 31 -22 2 -26 27 -24 23 -2 -8 30 -38 -16 4 35 -1 36 26 -18 36 -38 12 35 32 26 11 8 -21 31 -6 12 10 43 -6 27 -33 -1 -30 -9 16 35 5 40 -28 16 -23 30 -39 -27 -31 41 25 -18 -2 41 40 22 -7 -14 -21 35 -21 -41 -34 31 -34 -5 19 23 36 -8 36 45 -8 -41 -24 6 -7 44 6 42 -21 -12 28 -6 -37 19
-23 -35 -19 -8 33 -22 -41 -36 -4 -38 -30 3 27 34 38 11 6 -21 0 -39 32 -1 41 -17 12 30 -6 -11 -37 9 31 42 -44 -19 -24 34 -45 -7 -7 -6 30 13 23 -44 38 -45 31 -30 -1 -7 11 -44 -30 -2 -19 9 -42 30 -15 39 -5 -28 -30 4 -2 -27 -20 -24 -25 31 36 -38 17 -43 -18 41 -42 -6 14 7 -19 26 14 -10 40 -29 21 -7 -15 5 9 7 -41 37 32 -28 0 41 6 26 18 41 -15 41 -22 45 -29 -45 22 -43 25 -43 9 42 -21 -35 40 1 25 1 10 20 -32 -36 -28 -32 -15 35 20 -22 -22 -13 -28 -39 -8 -18 21 17 -45 -42 -19 0 35 -8 45 -11 -35 36 -29 0 -29 -34 2 13 6 -30 45 33 -28 -6 4 -23 9 -34 45 -16 -29 -44 -32 4 21 -9 31 -28 -39 -27 -16 -15 -2 18 15 2 32 -7 6 -7 28 22 -3 39 -25 -22 44 -6 41 4 7 11 -36 16
-31 1 27 -5 24 -2 40 9 21 13 24 -4 -24 5 24 44 -21 0 -7 4 20 -17 37 13 19 18 34 30 10 18 -19 -30 -45 -30 34 5 -11 -44 -12 25 -24 28 -40 -36 -19 -12 25 41 8 -9 -10 38 16 -30 28 -24 42 -38 -34 -24 39 -7 45 -30 -5 -27 27 44 -14 4 -4 -10 -6 15 19 0 13 -4 29 38 33 -29 -39 -19 33 -22 0 -12 -32 -34 44 -37 14 -34 -42 4 -15 7 -36 -37 -6 -23 -31 -20 32 -43 37 -18 -18 -23 26 7 39 -7 9 1 9 -17 43 8 -34 41 11 -3 -38 7 -24 -18 -22 4 -6 27 -15 38 -14 -28 -29 -15 8 37 -37 -2 -17 -37 23 4 -33 38 -44 -26 8 -44 27 -3 -23 37 22 39 17 -6 -31 -17 28 -4 -43 31 45 -36 9 18 0 -4 -23 15 -10 -38 -45 9 30 3 -12 39 -14 -4 -41 4 18 17 7 -36 41 -25 -39 7 -33 -37 -20 20 -1 23
24 -23 9 44 29 31 -14 1 -10 -31 37 42 -9 30 -10 -22 29 15 -25 -10 -16 27 -7 -3 -1 -10 -44 29 -6 -29 -19 37 -32 -10 -26 -1 -20 22 -28 41 39 -34 -4 19 -37 40 21 -27 29 -2 -15 41 39 -19 -5 -42 -19 15 14 33 -33 17 29 -19 38 -15 -18 -40 -15 39 -16 -13 39 37 40 1 -34 -22 42 44 -32 -33 26 26 17 -43 12 9 -44 -41 -42 -38 10 -8 -14 19 9 37 -31 23 -10 -1 18 10 10 23 28 -3 -44 12 -28 26 41 29 37 40 14 6 14 -28 -40 41 24 29 -27 17 1 17 22 28 8 29 -27 22 -32 -42 44 35 24 -32 45 43 -33 -25 -34 -17 -32 -37 1 -23 -16 42 -32 -19 45 20 -30 36 8 25 18 -38 22 10 36 23 -20 -18 -38 -31 -36 -18 -7 32 -22 -8 -2 -11 -11 40 -20 34 5 39 21 -2 -36 20 -17 -16 42 -34 -34 39 -8 27 -27 32 25 -5
-18 -36 12 -10 -3 18 40 -17 37 -9 1 4 -7 -19 -6 -31 -37 7 12 -43 32 -21 8 20 -44 10 -30 31 4 -15 -8 18 -7 -34 -39 -27 -17 6 -39 27 18 14 40 -2 16 -5 42 -42 5 -5 -16 -26 -26 23 -35 37 -11 19 38 -41 22 13 12 37 -37 -43 3 20 8 -35 33 -34 -17 19 42 -42 14 38 -35 -22 38 -24 45 38 -11 5 24 -17 42 -45 -13 -34 -25 -12 -33 35 20 7 -7 22 -10 30 -3 22 -19 12 33 -17 19 -25 -5 -13 -41 32 -1 3 14 16 27 24 -39 17 17 -28 12 -39 1 -7 35 31 39 -40 11 3 17 -4 -37 -23 0 35 21 15 -3 9 10 -1 33 -19 19 35 34 -4 -38 34 -12 12 -9 23 15 8 29 22 -16 17 44 -35 -38 -40 -25 -37 16 -14 -22 32 23 -42 -15 8 -30 -16 -1 -16 -31 -10 41 36 -43 -34 14 -2 -5 -18 10 39 -45 -42 -29 29 -19 31
27 -4 -7 -34 -34 -29 -8 28 5 22 14 -25 -44 44 -30 -20 -22 -30 21 -22 0 18 -23 -34 21 -41 -39 24 29 -29 -12 -17 28 -6 -19 7 -12 17 -36 3 39 -42 -11 37 -19 15 18 0 38 -11 -2 -8 -26 16 -2 -11 43 -20 -26 27 -21 16 -37 36 43 -1 -32 -41 2 -14 -40 -7 24 42 -23 -1 -24 25 -36 25 37 -28 22 39 -16 -34 -14 -29 -20 42 42 -38 -10 18 34 38 -1 25 13 30 -34 43 -18 -40 -39 3 25 -35 -18 -39 27 -22 19 -38 9 -39 25 40 41 4 16 -19 7 -3 29 -42 34 -43 11 10 -16 30 3 -14 -4 -19 3 -20 -4 -13 -32 -31 -12 43 -32 21 35 -19 21 21 -22 20 -8 43 11 -25 29 -44 -12 34 -20 38 -34 4 -28 25 31 32 35 -15 16 -14 22 22 38 20 20 -4 -27 40 5 -44 7 -33 -7 -33 -10 14 20 -43 -25 -20 3 -1 40 -9 9 -5 10 -13
-11 -40 19 -11 32 12 26 29 38 -1 -43 29 0 10 10 -33 -15 31 -38 34 -21 29 -4 -14 -28 -32 38 -26 -41 10 -39 -22 -14 9 21 6 -25 45 9 -5 18 8 -25 32 38 15 -42 13 2 -27 11 -15 15 -13 14 42 -40 -16 3 -45 -13 -14 -35 31 -11 -44 37 -35 15 -37 19 -5 -28 -3 31 12 28 44 -14 -9 -23 -16 20 -16 18 34 -22 -5 -5 -10 -39 -39 -35 9 -2 -38 25 -32 -2 -32 23 30 26 14 26 7 -9 1 -30 -36 -17 -43 31 -41 10 -29 43 -43 6 12 41 -13 -21 13 -2 32 26 4 -25 9 -14 -3 -29 12 20 45 -31 -44 45 -26 -19 11 -42 42 39 -31 45 25 -22 -17 11 39 -28 -38 10 -29 16 -10 -28 11 -4 -39 -4 14 35 18 20 24 -39 -3 33 -8 -4 25 14 13 18 -1 -14 9 27 -6 -6 -44 -7 -22 9 -17 41 41 6 -8 13 34 22 5 34 -38 16 44
26 32 -19 23 -20 -35 41 -40 37 14 -18 32 12 -9 35 -6 -1 9 15 17 41 -35 5 19 -37 -17 -5 -35 20 9 4 5 -19 6 8 12 -27 -10 21 5 -27 12 -21 -32 -7 9 -23 -38 -16 32 -17 -29 1 -2 29 -27 -34 -23 25 44 -35 -13 0 -22 -21 5 34 16 -35 42 36 14 0 15 37 -38 -39 37 -8 13 44 37 37 -4 -11 -43 -21 -25 43 32 -5 -44 -44 6 -13 -32 -5 -35 -22 32 -12 -19 -18 34 -28 19 -1 22 11 4 -34 23 -24 8 23 26 -14 26 -20 36 -45 41 38 -24 27 -7 -29 32 11 1 13 22 41 -26 43 23 25 -16 -32 -39 15 28 -14 -36 -19 35 3 38 4 -25 -11 -35 30 -18 40 -5 -29 -26 -27 35 35 -11 -12 14 -26 -8 15 1 14 9 9 -18 -7 17 33 19 8 -21 -44 12 7 6 2 -37 -32 -40 -3 -40 28 13 27 -43 -40 -42 -14 30 -45 -15 15 28
-35 5 -43 18 12 -25 -16 -36 -38 -15 -18 39 28 35 16 -32 10 -19 11 42 13 -40 -26 -17 45 22 41 -30 -21 -23 -31 -44 30 -41 -39 -32 -24 -27 -3 -16 28 27 36 -39 31 36 15 -14 38 13 -19 -32 -35 -43 -9 -32 19 -42 41 -21 -34 -12 34 -9 2 9 11 11 -9 -27 36 -18 -26 -3 -31 -32 28 -8 -11 -21 -40 -33 -18 -10 40 -25 39 -9 34 -32 -26 22 21 -28 3 -44 -26 20 19 42 25 26 -32 1 38 33 0 34 1 36 7 6 43 35 -37 -37 -8 -29 -39 18 39 13 -36 -44 4 35 -2 20 38 -15 -17 44 28 -20 -36 35 -16 -31 42 37 7 37 -14 -36 -27 31 3 -11 21 2 5 44 21 44 14 23 -39 -19 -29 -13 -12 -39 20 40 -34 22 -24 4 -13 5 -1 5 -2 18 14 -30 -17 -20 32 -22 -26 -19 -6 -4 17 -19 -2 -42 14 -23 5 11 -41 19 33 40 -7 -37 -15 -7
-23 -24 -17 37 26 29 -11 26 -30 43 -42 36 -35 22 37 33 22 39 20 31 34 -26 -7 6 20 -10 -24 -6 -9 -25 -29 -19 36 43 12 -19 -31 -29 42 -9 37 24 7 8 -12 40 -39 -2 36 15 -33 -6 -36 -2 -25 -2 3 40 25 -25 15 -38 -20 42 13 30 17 -7 -5 -20 -45 -25 40 22 -39 12 -11 -20 26 31 14 35 -34 -4 -26 -24 22 36 30 -33 22 -39 0 -45 -6 36 29 -26 8 -1 -26 6 -33 36 -24 -39 9 23 4 -27 -6 45 12 -44 29 7 12 -5 -4 26 34 1 3 -22 -34 -6 41 16 -2 -38 -10 43 -2 -28 -3 39 12 -14 -32 -29 -38 36 8 12 17 -2 21 -44 -44 7 -22 32 -17 15 -33 -28 21 -30 -25 3 -39 29 14 -7 -13 31 14 16 41 31 -25 -22 -9 -17 -8 -39 -28 -42 15 31 -2 23 27 -24 42 34 -18 0 33 -7 -8 42 -18 -6 21 -17 -41 -24 -7 32
14 24 35 -9 -42 -12 24 -27 27 -21 -10 42 -14 -30 18 32 -16 9 21 0 -12 22 22 -30 22 33 -12 36 -23 21 14 6 24 39 -2 -32 18 -6 -8 26 28 -20 11 14 -27 -9 -34 -4 -9 22 41 21 -38 -2 -13 20 -28 -36 -15 11 -6 22 22 19 5 -35 -42 19 34 10 43 -4 -21 37 36 -3 -41 11 32 -36 -24 32 41 -39 7 -20 -39 29 43 30 42 10 29 29 -16 -25 33 -38 -33 -43 -34 29 40 -3 8 -26 -31 11 -2 37 -32 -37 44 0 -42 17 25 6 -42 -3 27 3 15 -38 28 13 32 -43 21 38 -44 9 -15 -19 -13 3 -6 25 33 -17 -31 -9 8 12 27 -44 28 -32 22 -5 -37 29 29 -24 -36 -19 -38 12 10 -29 -21 -42 43 -33 15 17 13 44 1 6 -17 -15 -5 -26 -41 21 -6 -35 23 -40 -23 -3 16 39 35 -21 43 -32 -30 9 -20 35 -29 37 15 42 -22 -12 -7 -11
10 -43 -12 21 3 -23 -39 9 43 8 32 -17 2 -3 9 -29 -4 24 -12 41 -39 -25 11 39 -20 -42 29 -10 -15 4 24 -44 39 -20 33 -28 25 -9 34 -37 16 27 -21 -10 -10 -6 -34 -22 34 1 -19 -30 -15 -28 25 17 -41 18 -6 -37 -32 -39 -10 -21 29 -9 -32 -4 -17 28 43 33 -41 10 35 45 -14 1 33 44 43 22 -32 3 31 4 34 -13 7 -19 -37 40 -3 17 37 -18 12 41 36 -2 -26 -6 11 9 32 -21 -38 -25 5 -35 -42 33 33 -34 3 -12 42 44 -37 30 -35 -34 12 31 -31 -29 11 -25 7 -10 -27 -3 -18 5 28 -27 -23 42 41 5 25 19 -32 14 -41 22 35 -43 14 45 41 32 -42 14 -35 0 41 -23 -32 39 23 -27 -8 -36 -12 -36 -43 5 -32 -17 21 -41 -19 -37 40 -2 -6 -32 -35 36 -40 -26 10 45 26 -2 11 6 -31 44 -36 -9 32 -16 9 2 2 -1 8 21
-12 -18 14 -43 -16 3 27 -12 -39 5 -4 7 5 32 -10 40 -24 32 6 10 36 4 42 0 17 33 -45 42 17 9 -43 42 -41 -39 -26 -25 -21 16 -8 -29 8 -45 23 30 -7 44 -29 42 12 29 40 45 0 41 4 44 -35 -15 -17 33 27 36 -35 34 -36 -7 -2 15 26 -16 36 -24 30 26 39 0 -15 -13 22 38 2 43 -43 44 18 -45 30 -32 -28 13 37 4 -26 -25 15 42 30 10 24 0 9 9 -44 -3 33 -16 40 -35 -41 26 -35 -7 -29 2 31 28 -19 -42 44 30 -15 -16 10 -24 -1 14 5 -8 23 13 -34 -41 -34 -19 39 -8 33 -34 29 8 33 -41 41 9 -41 -1 1 28 24 -1 32 43 16 -6 -6 22 -40 -38 -34 -44 26 29 -16 21 -33 -44 -24 21 -14 8 -17 -24 9 45 37 -24 27 -35 23 32 -4 -45 -22 17 16 28 -10 -42 5 -21 -10 -41 -25 -22 35 42 -11 -36 24 26
27 -9 -17 18 32 11 -28 8 1 31 45 -17 8 11 -39 9 -30 -1 -32 -7 3 7 -16 17 4 -44 -44 34 22 -11 10 -27 -40 7 -38 -37 43 3 -25 -12 3 38 -1 43 17 -45 19 -33 19 14 -5 -7 -10 -22 -18 25 -16 -45 -16 -7 34 -8 -2 -17 -3 -40 -2 -39 3 43 15 38 7 -44 21 4 15 -37 4 10 -38 -20 -11 5 1 18 -31 -43 -11 40 32 4 -39 15 19 13 -38 42 36 -40 9 -42 -15 -31 34 14 -40 -40 -2 32 -45 -29 -31 -14 21 22 6 14 40 11 14 12 -1 15 29 30 22 21 18 6 -8 39 14 -22 37 -37 -27 19 1 -21 8 25 22 -43 -3 -33 -21 -25 -18 18 -14 -24 -37 37 29 -15 -29 -18 12 -37 -28 24 -28 6 7 39 -16 41 -5 -44 35 22 -43 -11 -20 7 11 -43 -5 22 -8 -35 -22 40 -35 -23 33 13 21 10 40 -20 -27 6 -15 29 -33 -37 10 39
31 -38 34 21 -29 -28 42 -25 -17 5 -41 -6 -34 -14 -8 -29 10 37 27 -19 21 10 -19 2 31 -16 -30 -43 -36 -40 38 -1 8 10 -3 44 17 15 4 -28 45 22 45 -5 8 -42 30 28 -22 -14 -10 -31 -10 6 19 -3 37 23 -30 22 40 12 0 41 -3 26 16 22 38 -16 -42 41 42 -15 24 -23 39 -41 -21 -31 12 -22 -43 -28 -34 4 -6 -35 -30 -19 24 -32 -43 26 -44 31 -29 5 -13 -3 -27 -32 -36 4 37 -16 -22 -30 33 11 -22 -32 -36 -27 -26 34 27 -43 27 37 -14 -38 -15 21 29 2 -38 -42 6 -12 30 -7 10 -1 -2 -25 36 16 -40 9 -17 -16 31 -25 27 32 2 16 6 44 28 -45 -5 -45 22 15 -18 11 -34 -1 -11 -27 41 -4 26 -42 42 14 4 -2 45 -43 -29 0 44 21 6 38 -35 7 44 -33 40 0 -13 -43 19 -9 42 33 -21 2 -15 -10 37 40 45 -39 -11 -1
-33 -29 27 29 27 -31 -30 0 43 27 18 36 35 -29 38 15 33 0 -38 29 -12 -23 -43 4 5 42 1 21 8 29 17 -23 -38 -12 -18 -43 -34 -23 -45 -34 -22 -7 29 15 -21 31 -26 13 -43 1 -16 -26 -34 -31 -30 -29 -29 1 6 28 34 40 -15 -24 -31 24 15 -12 -41 -43 19 -21 -6 8 33 -14 15 17 -19 9 -19 -29 26 6 44 -10 15 -4 -11 22 -1 19 -36 7 22 15 35 5 22 -15 33 33 28 37 45 12 27 31 29 24 24 37 -43 -45 -6 -42 20 36 41 -37 17 23 45 -6 -16 21 13 44 -40 -31 -37 27 -35 -45 13 -41 -38 -37 41 1 -15 -9 -16 41 41 -14 3 5 37 35 1 -20 -22 -7 42 20 -43 23 -19 -42 -39 37 -6 -24 33 -26 45 5 28 42 -41 16 18 -8 -24 -17 -45 3 29 42 41 -16 19 34 -22 -40 -40 0 37 21 -3 19 22 -3 12 -6 0 41 -5 16
-24 -7 16 -26 28 -44 -19 -16 38 12 39 -36 -41 -32 39 -41 39 36 -40 20 21 2 22 43 40 -15 -42 -19 0 42 -34 -19 -13 -21 -8 -12 22 -39 17 22 10 13 -39 -42 -35 -30 -22 -19 18 -39 -1 45 30 9 6 -12 -34 -3 26 18 -2 2 10 4 -35 19 -2 29 27 -20 -41 -12 32 -33 27 26 -1 -37 -13 -15 -27 16 3 25 25 -1 45 27 18 -6 -18 -12 -10 -16 20 -25 -33 10 8 -41 30 -30 44 20 37 -21 -17 -3 19 24 42 25 -4 28 -34 -28 40 14 34 30 27 25 38 38 -14 -2 -32 20 39 -43 26 -24 -22 44 -16 16 -42 17 -29 -13 -26 37 -39 13 38 13 -8 -8 27 -32 30 -27 -33 -29 34 -37 25 23 15 -2 -24 -4 37 38 -41 22 -18 -6 11 -28 -14 -25 33 -29 1 -24 32 18 1 -38 34 -40 -40 25 11 -6 25 -1 -26 -44 -42 -26 10 -38 -29 -23 -44 3 24 -7
41 34 -23 -12 25 12 34 -20 33 29 44 25 -16 25 -15 -24 -35 5 -34 31 -36 31 -22 -19 -11 -20 8 -43 30 38 -43 -18 28 3 -12 2 4 2 10 20 -1 25 37 -5 -45 14 -10 19 -26 -23 -2 -7 36 -34 14 -30 -13 -22 6 -16 -13 35 31 -19 -16 -5 20 -41 -15 -6 -42 -38 9 -23 41 -42 4 44 37 39 27 -13 44 4 12 22 33 -6 34 -19 29 -18 1 -44 41 -22 3 -5 37 29 -14 -34 -15 28 26 25 34 7 38 -8 12 45 14 31 -11 21 2 -12 39 -23 39 -27 21 33 -13 -25 4 -11 -40 -28 -44 -42 11 0 -44 -35 -40 -24 27 2 15 33 22 5 -29 -38 14 37 -9 -15 18 -31 -33 -42 4 42 25 -13 15 -23 -33 44 5 -22 29 -17 28 31 17 -8 35 14 -32 -18 13 43 0 22 36 31 -37 28 -5 -21 36 -31 17 1 27 14 -44 -11 17 -4 -3 -44 39 -35 37 25
-15 44 -37 11 43 -29 -20 -22 24 1 -18 -26 23 20 37 -33 21 21 -25 -8 2 23 -42 40 42 24 38 16 0 -33 -5 9 44 -28 44 -18 38 10 21 24 41 -36 -30 -36 45 -15 -16 -38 14 42 12 26 4 0 4 -5 27 0 -8 10 -26 13 15 -28 -16 5 -8 5 -26 7 -14 8 36 6 -27 4 -36 0 -9 12 36 1 -18 30 -32 -23 10 -41 -16 6 -21 -33 -32 -18 39 24 30 13 33 12 44 -32 -24 6 -44 -8 -24 -32 40 -32 -18 4 -9 -14 31 -7 -37 -25 5 -38 -5 37 11 -45 25 -31 -9 8 -37 -16 44 6 -25 13 -45 0 14 4 -10 23 6 44 41 -27 21 36 17 13 -8 19 43 28 34 -42 42 -9 -7 -34 20 43 37 39 -2 -1 24 -41 -17 12 34 26 30 16 40 -38 15 -32 32 -29 6 -24 21 22 -16 -42 -30 24 32 12 19 6 24 24 -34 -11 -42 -11 32 42 8 -2
-16 29 2 -32 7 3 39 10 -4 15 -41 0 -11 -40 37 -25 -14 23 2 -42 34 9 5 -19 45 -24 -9 -16 42 -21 32 -28 -9 -24 -6 -13 -4 -22 24 -32 26 29 -15 37 9 -34 -12 -32 -34 45 -21 4 13 20 31 16 -32 19 45 -45 -13 -18 9 -11 3 27 24 -15 -31 -18 39 -1 11 43 38 31 -22 12 34 -16 44 -36 -37 -39 37 -17 -12 37 34 -9 -6 40 -25 35 -25 -7 7 -2 2 -19 -16 10 3 -32 10 30 -23 42 -12 -19 -15 23 -25 27 45 25 5 7 30 41 34 -30 4 -40 -10 31 2 45 41 44 -1 -35 17 -11 16 33 -2 7 -31 2 -8 7 43 -7 25 40 15 -9 34 11 -24 36 -30 40 -15 -25 35 -34 4 -36 -19 -34 44 -34 -3 -23 9 25 17 27 9 -24 -24 19 13 -15 1 11 21 -21 19 -14 -33 32 32 -37 -43 8 8 -24 15 -43 -34 -29 13 20 -19 45 -6 16
-44 -27 -27 -36 -41 -10 31 29 42 45 -17 -5 -22 -9 -39 -10 -2 -25 30 8 -12 -36 -17 -1 5 9 -8 -40 36 -33 -3 19 -40 14 -44 21 -18 -16 39 14 -28 14 7 14 -1 40 -5 24 -13 -32 39 37 41 38 -41 4 24 10 -39 -29 -28 -13 -8 12 -20 -20 -35 18 -2 -9 -38 -34 12 -38 -4 -13 38 39 21 -33 11 43 -23 44 12 18 36 8 -14 21 -31 39 34 -41 -5 22 -13 44 24 41 41 5 42 -1 -43 29 39 36 35 4 -28 7 -1 20 10 -9 -26 30 41 -16 39 3 -10 -6 -27 15 -2 0 -10 10 -39 15 5 -36 -34 -6 -13 3 -29 3 15 17 23 38 -8 20 -21 16 40 -2 -29 24 12 -42 44 -32 3 37 3 21 44 -28 -26 13 40 34 -37 -16 33 40 7 36 -38 -36 39 19 41 -13 -31 -40 -7 41 -26 -12 38 25 23 -24 8 38 9 -9 9 -2 -42 -24 -16 -39 10 30
-26 -30 37 -44 32 -30 41 -1 -21 -15 34 -20 -45 11 -45 10 -2 40 -6 5 39 21 -27 -29 -33 -16 -40 -32 -41 41 -43 17 -22 5 -27 -10 35 -8 -30 24 21 44 -36 24 34 16 42 -23 -39 -20 10 -34 -29 5 41 -11 1 -42 43 -45 -4 -16 42 -15 42 17 27 -33 11 45 -30 35 24 9 4 -43 36 11 -12 -5 45 3 -2 -42 19 34 44 45 -21 37 -31 24 18 43 -17 -32 -2 -30 -13 2 -41 22 19 -42 7 30 -41 28 37 31 33 -38 -5 -13 38 -9 5 37 -2 -14 22 -37 7 29 -1 -23 -3 -14 -40 14 -4 10 -8 -43 -26 35 6 22 -45 -14 -40 22 9 10 12 -17 -38 -13 29 21 27 -42 0 -39 -31 13 -40 13 36 8 8 -7 -19 33 3 -26 2 -7 24 -24 25 30 44 27 7 5 15 -18 -35 31 39 44 34 -16 36 -42 -33 21 17 -28 -9 19 45 -11 -32 15 -43 -29 -32 -33
11 39 -43 3 4 -14 -44 0 2 -18 4 4 31 -40 -23 9 39 1 32 -29 17 -18 27 12 0 18 -10 33 36 36 44 25 44 18 -1 -5 -42 -40 -43 9 -15 2 -2 -18 9 -22 -44 22 -27 25 -7 14 3 11 11 -9 11 -36 -15 -4 26 39 37 33 16 17 39 -36 -21 -13 -29 -18 20 44 18 -40 -2 20 31 -14 24 -8 32 32 42 37 34 4 0 31 -29 15 -1 -43 -40 17 -10 -32 -20 2 42 34 1 39 16 -35 0 28 29 -35 3 5 36 2 10 -28 -25 13 -2 24 -37 1 -11 40 38 -26 13 24 36 -11 -23 -43 44 37 13 7 -34 15 -12 -5 8 -6 12 14 -38 -26 33 -5 40 -27 -21 -7 -43 31 34 -40 -26 19 -24 -28 -16 10 -23 -3 -43 -36 13 17 32 -37 -14 -43 -6 -19 -1 20 41 -42 15 -28 -14 -19 -26 32 19 13 -19 8 -42 -44 28 -4 -28 32 19 34 23 44 -24 12
-6 16 20 28 1 -35 1 37 -12 33 43 -23 -1 39 -5 -44 38 17 -7 11 22 32 -27 -44 36 -28 4 -11 3 -20 -34 -42 -8 38 26 40 19 42 4 -21 32 5 -24 20 7 7 9 -43 -5 -40 -31 19 -16 8 -40 -27 -32 -30 -17 -25 4 -23 1 -17 -22 -42 0 15 -12 40 -32 -33 36 -17 -15 -23 15 13 34 -40 45 35 43 -18 34 -31 24 39 2 -16 33 18 5 15 -34 -21 -8 -20 12 6 40 -17 17 -37 -32 33 -23 35 6 1 32 28 6 42 13 7 -13 -40 -16 30 -21 -20 41 -35 23 36 -13 -24 -14 -30 -39 42 43 25 -40 -12 -36 0 -19 22 -41 -17 40 -21 -43 -11 -41 7 -35 -11 -2 21 -23 -16 42 44 -34 3 42 45 -29 -8 -23 40 -28 16 -35 -24 -32 -21 -5 -39 -20 12 43 -14 5 13 34 44 14 -3 -17 -34 12 -23 35 -14 5 -15 45 -35 -30 -42 23 -8 -5 17 -38 -30
-33 1 45 12 -43 -24 -15 36 -33 17 -33 41 22 -5 18 -43 -37 -33 38 -5 45 19 23 13 -31 -24 9 35 -4 8 14 -27 -42 0 11 -16 -39 33 -20 -20 -38 10 -12 17 -28 -9 -18 8 -31 -5 11 -13 -24 -23 -2 -34 18 32 -45 -33 25 -18 33 -17 -6 -21 25 -2 -4 1 -35 13 -20 -37 -1 2 34 28 10 -37 32 45 40 22 12 -38 10 0 -16 14 40 -24 28 -12 24 -17 -41 -27 24 -37 16 12 9 11 -42 -12 33 43 -28 -39 -14 21 2 -27 39 -18 -2 -41 -15 38 -35 -5 24 45 -1 -32 45 2 34 3 -28 15 18 24 29 13 8 21 14 -11 -29 -16 35 18 -18 18 9 -9 44 -42 19 -29 -9 37 27 -21 -26 -11 11 16 -7 20 -32 32 -27 -28 2 -44 -29 1 15 -34 -40 -21 -37 10 15 41 -27 -10 22 -35 40 -14 11 35 -10 8 28 -19 -7 28 0 37 -34 -27 -35 29 -30 20
1 6 23 3 -10 -1 11 -7 -21 -43 -28 -16 7 -18 19 -7 10 -17 31 39 -11 -8 39 -23 -16 -30 -15 -16 -28 32 -27 27 -24 15 -45 -2 -11 -33 0 25 -41 37 0 -20 -33 -20 -30 -43 35 -41 -2 -27 -2 12 -35 44 18 -3 -34 -13 -42 -5 22 -29 -39 -26 -29 -32 -17 25 0 34 5 34 -25 30 -29 13 34 16 0 -45 9 41 -4 -29 17 -13 5 43 37 34 -33 -16 43 -2 43 -10 27 -19 31 43 -24 30 -33 33 4 41 -3 8 -9 14 -19 19 -1 -11 -12 -1 -5 43 -18 14 -5 39 -3 17 9 9 36 45 -28 -27 -12 -16 32 40 -28 -16 14 -1 -28 -5 -4 19 21 -17 21 31 -13 -10 31 25 -14 43 -4 -16 -22 -26 -15 36 16 4 -8 5 34 10 -32 -44 0 -8 -8 35 -17 -7 25 31 -40 -22 -21 24 13 11 -29 36 38 15 6 38 36 -31 11 23 -11 -39 -34 27 7 44 -43 5
-31 -36 15 16 -22 -39 -34 -37 11 16 23 29 -34 5 29 39 26 30 29 2 -11 17 28 40 16 -8 -28 44 -28 35 9 36 -28 32 7 29 -5 -43 39 15 20 -38 -7 -8 -39 25 12 21 9 -21 -7 -9 -15 -39 -22 8 -16 -17 18 -28 -18 -15 26 -21 21 -34 -1 -33 -2 -36 -41 0 -39 -21 3 32 1 -2 -39 40 22 2 39 10 1 -27 21 30 -39 3 -20 12 -41 -8 -3 -34 -26 -16 24 6 -23 1 -7 38 -31 -34 37 -9 13 5 -2 -8 -41 28 -34 19 -21 16 -37 -14 3 17 20 -35 28 3 32 -42 -42 -1 41 4 -26 43 -3 22 -31 42 -29 37 37 -34 -29 20 -33 -7 -5 -39 -21 -31 28 -24 -33 -24 -10 -19 -29 -18 -31 -39 -19 -24 -5 -11 -43 24 35 -14 -10 3 16 -5 7 -26 10 -45 13 -15 7 -32 42 -8 -24 -43 -43 3 36 -2 42 40 0 41 -34 45 29 -21 -35 -14 27 -39
-38 -15 -44 -28 44 -40 19 11 -4 -44 16 -11 -16 16 -22 17 12 -29 18 -22 28 -19 -18 44 9 45 -24 -11 13 -21 -9 17 -12 -28 32 -11 -43 39 5 12 -13 25 16 25 -3 -10 26 42 30 -24 -41 -4 -44 -15 6 9 31 6 -37 20 17 -29 -36 32 -23 35 -14 -36 34 12 33 -8 -19 -28 -9 8 -33 -35 34 44 20 -41 5 1 -9 -38 -21 14 29 26 21 -12 31 2 -40 22 12 -19 41 -17 38 -5 34 14 -15 -24 -45 15 43 1 -5 12 -41 -7 -16 32 20 -22 -24 -18 20 -43 21 -17 -38 39 -8 -41 -44 12 -10 20 23 36 13 -39 -4 -32 24 -8 -5 -30 44 -7 -19 34 -23 -9 -12 -4 -41 35 -5 -20 0 -19 -25 -27 -26 -35 -45 -45 8 17 -25 -19 -3 30 -21 -40 -30 7 -37 2 16 34 24 45 34 28 -44 -44 -11 -10 25 -24 -38 -18 -4 -40 -2 -11 28 -45 30 -23 -16 -25 25 34
-25 44 44 5 32 34 -2 14 -30 -25 -29 -36 32 10 30 40 -1 6 -30 36 -23 8 34 29 43 26 31 43 -18 -17 -5 -39 -33 30 -15 -36 -25 38 5 -35 12 26 -13 11 -5 -8 41 26 4 -2 17 -26 39 1 7 -19 3 -7 -38 -12 -17 3 15 43 35 -16 0 9 -41 -5 34 -5 -3 -19 17 -15 6 -44 45 -1 21 -35 -33 44 -28 7 37 -13 10 44 -2 -8 7 9 -25 37 -30 -22 27 24 16 29 20 8 11 -39 42 22 -45 7 -7 15 -18 -31 23 -3 -31 20 -12 -2 -28 -35 11 22 -39 8 8 19 2 37 -21 27 6 -9 30 -11 -20 -5 17 -18 2 16 14 19 -6 22 28 -45 27 -35 33 -5 12 7 -43 15 -16 13 22 32 -39 -22 -44 -6 1 -24 30 -37 1 -42 2 42 -12 40 9 32 1 39 -7 19 25 11 -31 23 -40 20 4 42 -41 6 -18 39 16 -17 16 28 -1 -16 7 -31
-40 -11 -8 -11 34 4 -21 -36 -6 18 42 35 -22 43 10 -21 -21 40 44 1 -33 -2 -31 -42 7 -36 -25 18 16 -35 -7 11 -15 31 21 35 -18 -41 -38 -40 37 -4 6 -2 -29 -40 -24 11 -14 -12 5 -37 -41 -14 -37 -6 -28 9 17 40 -32 26 6 -35 25 -13 -16 19 -24 -29 -45 -19 -15 17 45 9 -1 -45 7 34 -4 6 39 21 -35 11 28 -3 -33 -43 -7 -10 38 35 -32 45 12 31 23 1 22 -6 42 -17 -27 29 6 -44 16 31 12 -29 6 13 19 17 28 -14 35 18 -37 24 -42 -12 2 -19 -42 14 -12 8 7 8 12 -29 17 -11 -10 41 6 -26 -36 -9 -44 33 -39 -39 8 20 -13 27 24 -14 12 -34 -11 -14 -16 -45 11 -9 -8 9 34 -22 1 27 45 -5 -16 41 -24 0 -2 -38 18 -27 21 18 -9 -6 -6 -1 -6 -29 -45 35 -9 8 -45 -45 -30 12 -21 -33 -18 -38 40 30 32 -11
-29 -2 -42 -22 31 -20 -41 -41 8 24 -17 -12 -21 25 -32 13 -32 -43 -43 -8 30 1 37 20 0 23 4 -34 -6 -41 36 31 41 -17 38 -39 -6 10 0 35 -31 -31 0 -1 29 1 -3 30 -44 -25 27 15 28 19 39 -21 -40 -37 15 25 -2 -16 14 16 -16 -41 32 -22 15 32 21 20 27 -3 38 3 -9 43 -32 -10 -31 20 18 19 19 16 26 -1 -21 5 -41 -20 -1 17 -23 40 2 -8 -39 10 39 -20 -23 43 -15 15 -30 -28 21 -18 11 -13 -7 -31 44 17 -13 29 -15 8 -36 15 17 -45 -8 16 -34 -25 -43 -5 -12 6 -41 -39 -43 -21 20 -21 38 -32 -26 27 15 0 34 18 8 7 30 -35 0 26 0 -26 -40 43 -22 -4 12 -42 9 -16 -27 -38 -5 -29 -8 -13 -11 22 18 26 -24 10 -14 -41 20 -41 -8 -1 -37 -42 6 27 39 37 -30 16 18 -16 25 -35 12 12 -34 -20 27 -28 -3 45
45 -38 45 39 -28 -2 24 5 -32 -10 -38 -19 25 -4 -33 -39 -45 0 -32 22 -39 16 -8 -34 6 41 -8 20 -11 -12 -21 -2 -21 35 38 -45 9 -29 -36 3 -6 35 -15 -31 -4 28 -35 40 -4 24 -25 6 6 -32 -3 -39 -9 -8 0 -12 23 -12 3 26 5 39 -19 30 -22 33 31 -41 -21 21 3 -8 40 16 -20 44 41 -23 31 -12 5 10 -23 7 34 -30 -39 3 -45 8 29 9 -23 -30 -34 44 -39 -45 -1 21 2 0 -30 18 32 -34 40 36 15 -39 -4 -29 32 -29 32 0 36 -8 -20 -10 -14 13 18 30 -27 24 39 15 -25 -13 17 -3 29 -8 -20 17 -34 10 39 25 -36 -20 9 -27 13 -21 -2 -1 21 31 12 -6 8 36 22 17 9 18 37 -39 -16 -38 -35 -26 21 -7 44 -18 0 -24 -22 1 20 41 -25 12 44 -39 -11 -26 -35 12 19 0 30 7 -37 -40 43 -27 3 -17 45 -6 -42 -1
9 -25 -18 -35 -19 34 -16 44 27 38 13 3 -20 8 16 24 -1 7 -27 44 -21 44 -20 3 -9 45 -18 19 27 -14 -14 28 -10 -21 8 -23 -31 -33 -11 38 -16 28 -41 -6 15 19 -25 25 -12 -20 27 -28 15 15 20 19 -35 45 32 -5 43 -33 20 -23 -7 -6 15 28 2 -14 -28 22 -6 -27 -41 12 -29 -1 -31 -42 -40 16 39 31 -14 -21 -22 -9 24 15 40 7 -31 -25 1 -33 4 -27 15 -19 17 4 -42 42 -7 27 14 -43 -44 -33 -37 -15 -22 24 27 -36 -25 33 -41 31 7 11 -2 -17 -19 -34 14 -17 31 31 20 32 -24 -11 -45 -41 11 11 -40 -33 -39 14 -3 -30 39 11 -11 -30 -7 -7 25 -44 20 -13 23 -23 13 20 -37 35 4 43 36 -29 3 -33 31 -10 -6 38 9 45 -10 41 -5 -36 30 -1 37 31 44 38 13 33 27 45 -38 -35 33 32 26 -40 2 -37 12 35 -17 22 24 -42
14 -1 -3 7 -18 -38 33 -40 -38 45 -25 0 7 11 42 -1 -17 30 -12 21 11 -20 3 -28 -42 5 -2 -38 -32 27 -32 -32 25 -22 -43 6 37 -31 31 -43 24 -10 23 5 -14 16 4 19 5 -45 35 -13 43 -27 -17 19 -11 2 -30 -43 25 12 -16 -40 -38 36 25 7 42 0 -35 20 -33 3 42 5 29 -40 35 39 -31 14 37 35 -1 31 30 -15 -28 26 41 -22 9 3 14 -38 -8 37 32 -6 8 13 20 13 1 -17 -3 -13 -14 -41 20 26 -7 31 -26 -7 31 32 0 16 -15 -38 24 1 16 25 14 -6 21 35 36 -40 39 43 -28 34 -25 28 23 0 -32 -15 -19 -15 -20 28 43 4 -25 44 2 1 26 14 -44 41 -32 8 -11 -8 32 -36 -24 37 -8 -20 -21 8 19 37 -19 8 14 -8 13 -19 -17 -20 20 20 41 -6 -42 42 6 41 -25 32 -21 -23 -12 -37 -43 23 -34 28 -1 42 -25 30
-42 -28 41 -40 -18 -24 8 -22 0 35 -22 13 -22 -18 -30 -3 11 -15 20 1 7 44 41 29 -16 12 34 -39 -16 34 -26 27 -42 32 -39 37 7 1 -4 -21 -17 8 -38 19 -17 16 24 14 -30 22 10 -3 30 -36 18 25 17 44 -1 18 -32 9 -28 11 -31 36 39 -28 -32 -41 12 2 -44 30 0 32 -10 -11 31 -25 -8 32 -35 4 34 39 18 -25 -24 -31 27 23 -21 -28 -15 -21 -33 37 9 -27 34 -29 6 -29 43 26 -2 40 -7 -18 23 16 -41 -42 -6 -43 25 -13 32 7 19 25 -11 -11 34 15 -45 31 17 39 11 -31 -14 -29 -45 -30 7 -6 5 39 35 2 1 25 -6 -14 28 -19 -6 -6 20 32 4 -11 30 45 18 -28 41 33 -11 27 -36 -34 31 -17 -6 8 37 -5 2 -13 14 11 -21 16 37 23 12 14 -6 -21 42 39 43 44 -35 -8 -41 22 4 -35 -20 2 35 36 41 33 18 42
-30 -6 -31 -2 35 -33 14 -16 -37 -42 -25 -11 14 -39 5 -24 -19 -44 9 37 -27 -8 -13 -5 -41 33 34 3 31 -10 -8 9 -24 21 34 -35 6 42 19 -42 38 -14 5 -17 -23 33 -9 10 34 30 34 21 43 -6 -14 0 -2 31 -38 -2 5 23 -23 -41 -24 -20 35 -34 -43 10 31 18 -31 -13 -10 19 43 2 15 14 -13 17 44 20 32 -16 35 -7 -19 -17 -15 -11 -9 9 -2 35 30 8 11 -40 10 -6 17 25 -7 -11 3 -12 -18 41 40 25 25 27 -8 32 30 11 6 -4 -28 -15 -10 -8 -16 15 43 35 22 40 -8 -19 17 -5 -24 22 26 -38 -43 42 -20 4 22 18 -44 4 3 28 -9 -2 -28 32 32 -18 -36 8 28 -17 39 -4 22 -24 44 -10 -37 34 35 -37 -13 -22 15 -12 19 25 25 38 1 44 -3 -39 1 26 -16 30 -36 -19 12 29 -42 -11 20 25 -5 40 10 40 28 -6 36 -18
-15 18 -32 -20 15 -3 -7 -40 -41 -16 12 -13 5 -5 -43 -40 38 -28 -39 -20 -11 43 33 15 33 44 -9 25 24 20 -36 -16 -4 -3 -15 -23 10 21 15 42 2 -20 28 16 -10 -9 28 30 -2 -10 -43 18 14 -2 33 -41 44 0 21 33 1 37 -25 10 43 1 -27 -16 16 41 -10 13 -41 -12 21 33 0 -25 23 -8 33 28 -21 41 -22 39 -32 22 -5 34 4 3 26 6 -35 22 -39 -11 19 10 -4 -15 -27 -24 13 29 19 -31 -29 42 -35 -41 20 -17 30 14 -43 5 3 23 1 36 -30 40 -8 37 25 19 22 -31 -15 31 43 44 0 12 -21 17 -5 3 -26 -6 23 11 20 28 -39 8 -16 41 26 11 11 2 -22 5 -6 19 28 -2 -18 24 -44 33 -42 21 -32 -11 20 12 7 39 41 -25 12 19 -41 38 -1 0 36 -30 -12 19 5 11 -10 34 7 -26 18 5 -19 32 -33 -29 44 -19 -9 32
7 -44 7 15 36 -2 -6 -28 -6 3 21 25 -36 -17 29 -17 -32 14 44 40 29 10 11 14 3 2 -9 39 44 0 -17 36 36 -36 39 41 -29 -42 30 7 13 45 41 7 -12 -42 0 36 38 1 29 40 -18 -19 7 30 -41 38 32 -42 9 -24 -44 39 -32 23 -7 -27 45 27 -17 28 33 -45 12 11 -11 -24 -30 28 5 5 19 26 14 14 39 19 32 -15 -14 -7 -36 5 42 39 4 -19 -24 32 34 23 -40 -37 19 -9 -37 -42 35 -34 -42 -35 17 -2 -2 -45 -15 -2 29 43 -42 8 35 39 -20 -19 -9 -13 30 -21 31 32 10 45 3 13 26 -29 6 33 -20 -31 -19 8 -44 5 -19 -28 -27 -38 -24 -34 -21 -14 -18 -45 20 9 6 -17 -12 0 -14 33 -28 44 8 35 -36 -14 9 38 37 -16 20 -16 32 -44 41 43 8 24 9 42 36 -7 -1 29 42 -28 -16 7 -29 -30 43 8 -27 14 -8 31
-40 13 -6 -25 -2 -35 -15 36 41 37 30 21 -34 -43 13 -4 40 -33 42 -26 -29 4 -33 30 5 -8 -25 -13 34 23 -6 -41 6 26 29 35 -1 24 15 18 -22 18 -24 41 -25 -25 -12 -13 22 6 -14 5 2 44 -23 -37 -19 -11 6 4 -11 33 29 3 20 42 31 11 -37 6 -12 7 -10 42 19 -12 7 4 33 -6 -34 -45 -37 -19 -12 7 41 -25 37 24 34 18 -14 -42 20 -8 20 -9 -5 15 25 2 -19 26 29 16 -16 32 18 -9 -38 -29 -39 -11 -40 40 -40 -39 1 42 3 -38 42 -24 -41 34 6 -41 -4 -42 10 -22 0 38 3 -35 15 -33 -12 17 41 6 -31 40 1 37 23 29 14 10 22 40 16 45 -45 21 27 45 -34 -29 33 44 31 -7 25 27 -4 8 -33 7 15 -39 38 15 -32 7 -9 -19 18 -13 39 37 -13 5 38 -41 -30 -11 28 -28 -20 12 -27 5 -37 19 -41 -9 -11 -1
-19 -30 10 29 -40 31 -39 35 43 -8 -26 40 17 16 -12 -24 -18 -39 22 1 26 -15 -33 29 -3 37 -21 -42 -30 -40 -32 39 0 11 -41 17 -40 41 -40 35 -2 3 38 18 41 11 11 9 -25 -6 16 14 -21 -13 0 -12 30 32 16 -22 -40 -32 16 31 -18 -7 12 30 36 16 17 -1 33 -23 -14 -43 18 -18 15 -39 34 -19 28 39 -9 26 6 8 27 16 23 -17 -8 -29 28 30 -1 23 -28 -36 12 -35 9 -24 32 -35 -4 15 34 -26 -41 -42 17 2 -42 -19 -44 -20 -42 16 -30 -2 -43 0 -5 4 -15 -17 -2 -30 -19 -41 -35 25 2 -32 -42 -37 22 -10 26 -26 -12 -44 -33 -36 1 0 41 43 10 -2 12 -26 2 9 -42 -21 -15 -39 2 35 -40 37 24 -1 40 -18 -39 -21 15 -19 -13 27 35 22 31 -5 25 -39 22 -33 -34 -10 13 -35 -27 -23 26 3 22 16 -17 -14 -22 14 -25 27 -22 -18
-27 -22 -38 -37 -13 -35 28 -33 16 9 -11 5 -15 -19 24 19 7 -1 -44 41 -5 -24 39 -2 -23 -12 -8 21 26 -8 9 10 -15 -27 20 -38 44 32 -3 3 -41 29 -24 -45 35 32 37 24 -5 -9 33 -34 -29 -11 -26 -44 38 4 45 -29 6 -11 -10 30 16 -16 23 42 -12 24 2 -45 4 1 28 -30 0 -38 -11 41 14 -3 -4 -21 -15 -18 41 10 -17 -31 -27 35 20 -32 41 35 18 -24 -21 29 -15 42 -43 27 -39 38 8 10 -33 5 12 20 -41 -27 -3 -3 -34 -6 41 12 -9 -45 -5 1 -8 41 13 -44 45 25 29 -10 -42 -11 -38 -36 9 42 -15 38 -29 32 -6 18 21 -44 -16 13 -27 30 13 -45 32 2 12 -43 -36 -7 20 1 14 28 26 25 33 -1 4 -35 -11 -39 30 37 -2 6 13 -34 -21 -10 -36 -45 -11 15 -42 4 26 15 -21 -18 39 1 -16 1 21 -31 38 0 18 8 -16 11
0 17 1 27 32 42 -28 1 35 24 42 -12 25 43 19 -8 -17 12 25 18 -16 -45 41 -32 -32 36 34 3 4 -15 6 12 21 -2 -38 25 -17 42 4 10 -20 30 -27 -11 42 36 18 -37 -5 -37 6 19 0 5 36 -4 -24 -45 -13 -6 -4 -35 -7 25 32 45 15 -23 -19 36 -23 20 -33 -30 7 -28 -10 -22 -43 -36 -44 -38 29 14 -1 17 -35 27 -29 -25 -3 37 25 -19 28 -32 -9 41 -14 -41 31 30 1 35 -1 19 -28 -7 -33 10 -39 -45 28 40 -36 -11 34 -29 -32 17 -29 40 7 -15 14 -29 -19 14 5 -21 17 -23 -27 28 8 26 8 -30 4 -6 12 8 -14 -11 -28 -20 33 5 32 -25 12 -16 44 -9 -7 8 20 -27 43 -41 3 -31 -9 3 20 -23 14 36 -22 -37 -29 -12 42 -6 -17 -19 -26 -14 32 -44 16 -38 4 -14 33 43 -1 -20 -40 25 -7 -38 11 7 44 19 -36 -31 -40 14
-17 36 -20 -34 28 -31 26 -37 -25 -24 -23 -10 2 16 31 4 19 -28 13 -9 -43 -25 27 17 -7 38 6 1 32 37 9 -5 -19 33 -33 -3 -42 -26 -19 -33 -13 24 7 -3 42 -7 -17 -35 -22 20 -1 -19 -18 -18 -33 -12 -42 16 -40 17 3 -13 17 -15 31 27 -43 -22 26 -35 20 16 -31 -30 -32 20 -18 27 23 -33 43 -32 41 -32 9 -19 41 -23 39 -28 1 -20 -22 -16 17 -30 1 -11 -22 -32 -20 -32 -6 24 -17 6 -33 -29 30 33 -2 6 18 20 21 20 -21 -11 -42 -37 30 -40 30 29 -32 28 -10 32 -6 34 -26 12 -39 0 -14 30 -28 17 6 20 22 11 -27 42 -16 -22 0 26 33 2 40 -1 -8 -7 -45 -12 -16 23 6 7 -28 -30 -8 -30 -12 17 33 -4 -11 -36 16 -45 -28 -45 -11 -20 39 34 11 4 -1 6 -22 -26 18 -37 -24 -17 -3 -42 29 -9 -35 12 24 -25 -6 -3 9 -44
-3 -12 -22 24 14 -6 -15 19 25 -27 -16 -9 -15 19 5 -42 36 -18 -6 28 -12 -4 44 -17 14 13 -39 29 -11 21 42 6 -7 19 32 -35 4 -23 -34 5 -38 20 -18 -20 -17 -28 -21 -12 16 0 20 33 2 6 -22 3 -37 5 22 18 20 -29 4 -19 -38 -25 21 6 44 -19 -39 8 11 34 33 -25 -2 -40 1 30 -41 -32 -8 24 -39 11 -22 -22 18 -7 -34 -7 -21 -10 -5 17 -5 -18 -3 41 1 33 7 7 -2 39 -36 26 25 37 34 33 5 -37 22 -22 -22 -44 -15 10 17 -35 4 24 24 28 -25 -25 35 -23 -33 -18 32 1 28 10 -16 -31 16 1 33 -39 -22 27 7 44 -22 27 36 20 15 14 -44 -40 28 -31 -44 -13 -41 -13 15 34 20 26 -15 -30 10 21 36 -6 41 -10 14 -41 -17 30 -11 29 -36 -37 34 -1 -17 -42 26 -22 -37 -4 37 -30 -20 -12 37 33 -29 -13 33 29 -30 40
-31 -19 -41 -19 -13 8 28 -31 28 45 -9 -14 -8 13 0 13 42 25 -38 27 37 38 -30 -6 -25 -36 -12 5 24 18 -30 32 -20 -21 41 35 -33 25 -29 32 -1 -34 -29 -16 20 42 43 7 3 24 43 12 -8 42 27 9 25 -30 -12 -22 -14 -41 2 -41 2 18 36 -9 8 13 -27 3 -41 -39 -16 39 -33 18 -9 41 -16 9 12 -10 37 36 0 -13 -41 -31 -13 -26 -2 8 1 -30 -23 1 -41 -21 44 -9 2 -11 -20 18 -11 -34 28 -35 -34 5 41 -31 -7 -13 -5 27 -28 -22 -6 23 -4 -40 -41 -10 -28 15 27 29 20 0 13 -29 39 17 20 22 27 -40 29 6 -9 -39 -11 11 -44 16 -23 7 -40 -21 -29 34 38 -32 10 9 -38 -28 6 -1 -22 -14 19 -45 -20 37 -10 4 39 -1 26 29 30 -7 -28 4 17 11 -33 -6 -10 0 22 6 -42 4 -45 -19 -28 -4 -20 11 -15 19 -21 35 -10 -40
-31 -41 24 0 -42 -20 39 -23 -43 -1 -40 -15 -21 18 22 -22 -31 -31 38 -41 -25 24 -24 3 -28 35 -39 39 -11 23 -9 5 17 0 22 -31 -39 -36 21 -7 23 -18 13 2 -18 -45 35 29 43 3 -32 -4 -25 -4 0 6 44 27 40 -34 -22 -28 -43 -27 12 -38 22 29 -17 -11 -18 29 -17 41 36 -11 -11 24 -39 27 43 11 -9 -8 1 2 -31 36 -24 -5 -1 15 -17 -40 -34 -10 -36 13 29 -24 21 8 -37 7 -39 -6 39 -22 2 25 -38 27 -44 -3 27 -33 16 30 0 -13 44 40 -5 -10 -8 -3 30 28 4 -7 -1 -41 0 -6 -3 20 15 -30 -10 35 -8 -16 -15 11 -1 -2 41 -34 35 -25 -26 -37 0 -22 -40 -3 -28 -3 15 -4 -44 29 -38 29 30 -16 34 14 10 34 17 -22 12 43 -9 -18 42 -40 4 -24 41 -14 34 36 -34 23 -24 9 34 37 26 12 -22 -25 -23 -35 30 36 33 -35
-26 -23 9 -8 -24 42 -28 -21 -35 32 -33 -13 22 29 15 -34 31 -37 -14 -5 -36 8 -17 40 29 22 42 35 20 -30 -18 5 45 -16 21 7 -32 -13 -16 -31 -27 38 37 -1 43 45 32 23 6 -18 42 -16 5 -18 23 -4 -37 -34 -13 16 -43 -19 11 24 5 13 -20 -42 -16 -34 17 2 13 -45 18 -38 7 16 3 30 19 -14 14 -15 33 -43 -32 -41 7 17 -10 3 -12 34 10 -17 -40 3 -36 -19 7 13 15 31 -29 3 7 -14 -39 3 -19 8 8 24 42 -29 -1 12 10 14 -27 20 -31 -9 -29 26 43 -13 25 22 9 -29 40 32 4 16 39 -2 -15 -36 15 24 10 21 43 14 -18 42 44 21 -3 -26 -23 -19 -7 -16 36 -29 11 -34 0 12 -39 -43 -42 9 34 -38 22 -14 -13 1 29 34 21 1 -36 5 -21 40 -14 -23 -45 17 4 16 -10 -40 23 -38 -39 -16 4 0 -20 35 -45 -5 -15 -16
-15 -40 -38 29 24 -31 37 7 20 -44 40 14 36 33 -38 -18 30 -14 -37 -36 -4 -44 -25 34 -16 11 4 12 -22 -34 -35 22 -34 30 5 -25 -7 32 -4 -23 -3 14 27 -12 -14 -39 -27 22 33 -22 7 22 -28 29 -5 -34 -16 -41 -24 -30 9 -37 -42 20 2 14 -10 23 -12 39 28 11 13 17 15 -23 -11 -25 27 6 26 -21 -41 45 11 -19 0 -1 45 33 -27 -29 -16 -38 23 31 -10 20 -17 -22 45 -33 -29 -34 45 -30 39 40 5 0 -5 -40 10 -22 38 42 -30 39 -6 -15 6 -26 -2 26 4 30 1 5 42 -18 -3 19 -29 -27 -26 -26 -17 26 -20 28 -25 -6 -22 24 -7 22 22 21 9 28 -5 -8 0 -29 37 -35 25 21 -20 -33 38 -17 -25 13 -4 5 7 -7 -36 -29 -34 24 42 6 -42 14 17 11 24 22 39 -13 -28 -30 -18 -36 -11 -18 -40 -5 36 17 -17 33 38 -8 -10 28 -16 33
-36 -10 36 15 -18 -3 1 30 4 -17 8 18 -1 -2 -17 -41 -37 36 35 -10 32 32 -11 -6 25 10 -11 34 23 -27 -12 -21 -3 21 29 38 16 14 14 1 34 12 16 -19 -34 -9 -44 -10 28 6 24 19 -15 11 34 11 -16 -5 -3 1 1 33 -26 -26 44 -16 -16 1 -44 -19 -5 9 14 26 14 -17 32 33 -7 -12 -12 25 9 14 27 -3 30 32 -29 0 2 41 -12 -11 -44 -39 -30 34 -8 13 -13 -37 -12 15 -18 -16 -22 21 21 14 -19 -14 7 33 -3 -3 23 -30 3 -36 -9 18 7 -13 -3 -4 40 -19 -1 22 -41 -26 39 41 19 12 44 8 13 30 34 5 -9 -14 23 28 -8 -1 -43 45 -24 26 11 26 -8 -27 43 -7 -42 28 18 42 -29 -24 -14 12 10 -33 -31 -6 -7 -38 -37 17 9 26 -19 9 15 25 -11 -19 13 32 5 27 -5 -44 -26 -44 -44 41 4 -42 17 28 -11 5 -36 28
38 9 14 -40 22 -33 -35 -19 -31 32 8 34 -29 -13 28 -35 18 -13 18 -5 -12 31 16 -22 43 21 18 14 27 -8 12 -10 -3 -7 -42 1 -45 -12 30 30 -27 -30 25 -20 -22 20 -32 -12 17 23 -1 12 -24 23 -10 36 24 8 -16 43 -12 39 41 7 -36 -19 11 38 9 10 -39 20 -16 0 14 -22 -31 20 -9 14 -43 -4 26 -20 -4 25 -7 -24 -10 29 -17 -33 0 36 -29 -45 10 14 -38 -24 30 5 -1 14 -34 4 -28 -38 35 3 3 12 -32 1 17 -30 24 11 -37 7 2 7 2 -6 -16 1 -27 -25 -21 -21 -23 -5 31 8 38 -10 22 2 16 26 33 43 23 0 -17 1 40 -4 -3 -33 41 -35 -28 -25 1 15 2 41 -10 -6 10 -43 40 32 -3 11 24 -37 -37 -40 -37 -1 3 44 -5 26 4 -9 16 -15 6 7 -22 32 19 -38 -12 19 6 9 2 26 42 42 -28 -12 36 -33 3 -39
-9 -42 8 4 12 13 18 8 -36 -4 18 -44 33 12 -23 34 9 -31 13 -18 44 -20 6 41 43 27 -42 -43 34 -23 10 18 -23 -5 22 -11 -7 18 23 4 13 -22 37 15 0 7 16 -44 -41 45 -9 7 37 12 5 -15 21 37 -19 -40 0 2 -17 -7 9 27 21 -14 19 -39 -38 -23 -25 28 39 -23 2 27 7 4 -15 30 -36 12 -2 10 -40 21 0 8 9 34 27 20 20 -39 -2 -6 -14 -45 -17 9 34 5 35 -42 -14 -34 -5 43 21 -6 -11 -39 -23 -20 33 -6 -9 -2 1 -18 -16 7 39 -23 38 39 11 -3 -45 28 11 21 12 21 19 -20 -3 -11 16 -44 -28 39 2 -44 -8 45 16 23 36 -25 18 33 -5 24 30 -4 29 9 -15 25 17 18 40 -36 42 -41 -36 32 21 -38 14 5 13 -29 -8 31 -20 -11 26 19 10 -7 21 -21 -26 29 -43 -40 -31 -40 16 -33 -42 41 14 14 -20 -5
39 40 -27 -31 -17 39 26 36 33 15 28 35 37 -20 35 37 25 -32 29 -17 44 18 27 24 -35 -30 -15 41 -24 19 -4 40 -32 -33 5 25 -10 -21 20 -26 -9 -17 -20 15 -39 38 43 0 24 41 -7 -35 -18 -25 28 37 -42 -23 34 -23 17 -7 -28 23 9 2 -32 17 -5 -19 19 23 14 -25 7 28 -5 22 21 14 23 40 -13 -16 -45 -12 40 4 -22 38 40 37 -42 -14 -22 3 -28 -39 37 -14 33 31 -30 -20 43 28 44 -22 -14 28 24 -36 -45 -34 32 -7 22 -18 -6 40 -11 -32 37 -32 -41 34 -40 -6 42 27 17 -4 -38 -27 13 34 1 -12 -25 9 -23 8 28 -27 39 37 -4 -43 30 -30 7 -26 -9 -30 44 13 -21 -27 -8 5 10 -2 14 -34 -18 -23 43 2 36 34 41 17 26 -35 -22 -21 -42 -35 -32 -21 -37 -34 -42 -3 33 -20 40 -44 -14 37 -9 2 -7 22 0 -13 38 -41 -29 19
14 28 7 34 28 42 40 -3 5 -38 30 -9 31 -2 -9 -31 40 -11 16 24 41 -38 -14 -39 3 -36 4 1 -25 39 32 -8 -19 -10 -14 41 -20 -23 41 4 38 22 36 8 5 2 -20 -10 -1 37 -10 -24 -31 -36 16 -32 -39 -25 -8 5 37 -31 36 -25 38 -37 2 10 9 12 5 -43 5 7 26 -17 -22 3 -41 -17 31 2 -5 42 31 40 -17 2 -20 -35 -14 20 -42 18 33 -33 -25 -12 -40 5 25 -8 -45 -37 -40 -4 20 -31 -23 26 14 -31 26 -15 43 44 26 1 22 21 10 2 1 38 -18 -14 -25 -41 -25 4 13 38 -33 27 -2 13 -17 -13 -25 24 6 -39 -9 13 8 20 -17 26 -35 -26 34 38 18 -19 -31 -3 -27 11 9 9 -24 20 -9 32 17 -5 27 -26 29 -40 -15 19 17 -34 42 41 -15 -16 38 -35 -41 3 39 -5 4 -40 12 -42 14 41 -33 -17 -1 16 8 6 29 -40 28 38
-38 -44 44 7 -15 5 -43 5 0 44 32 -44 -1 13 43 10 1 32 -10 -1 -26 -23 39 -1 -35 23 33 -6 15 45 31 1 -35 22 -26 -4 19 14 8 -15 -4 -18 12 32 0 -42 -45 -33 0 -34 -39 -45 -7 -15 17 42 -32 8 -10 -16 2 39 6 -2 23 20 -7 -28 17 38 -31 -19 -21 8 -12 -22 32 -36 26 -11 18 28 12 36 9 41 44 -36 37 23 -40 -42 -41 -1 3 2 -2 -2 33 3 -9 41 -36 0 -40 1 1 18 44 -13 15 33 -29 14 9 7 24 -17 0 -3 44 -26 -40 26 26 8 9 -25 -40 -11 -28 10 -16 -9 -30 -11 -39 38 -26 -41 27 -25 11 -6 -30 -40 -18 -25 42 -23 -45 1 -30 -40 13 38 -14 7 -29 43 25 -13 -18 12 -42 -28 -22 -12 11 -41 5 -33 -28 11 -42 26 22 16 6 -9 6 -42 -37 -10 35 37 -29 43 26 -14 32 -20 21 43 -34 -43 19 -13 4 23
31 -22 31 -12 -2 -23 41 3 -44 -23 18 30 11 20 -27 -23 -17 17 -8 -45 -32 -14 9 -33 2 -19 37 37 -30 31 35 19 34 -43 17 31 32 -22 -20 3 38 35 31 4 -40 26 -30 22 -31 8 32 -16 23 -38 23 -11 40 42 -32 5 10 8 -18 11 -17 18 30 -32 20 5 -35 41 20 0 16 42 -30 17 -4 -7 -16 -34 7 31 -6 -25 20 2 -37 0 8 37 -32 -14 -15 11 -24 -14 -26 0 -41 42 -23 -32 39 30 5 -12 -37 -21 -2 -45 14 7 -45 -17 24 -16 -41 23 17 -18 12 30 -16 44 -7 3 -17 -15 -30 39 -32 8 -7 34 23 -9 2 16 -44 23 -24 -40 42 43 -6 -18 39 -2 15 -15 -21 -17 25 41 -6 -29 -13 31 -10 -8 -33 17 25 19 -37 21 -38 -44 9 4 -6 30 -4 22 15 -33 21 -44 -38 -41 15 -4 43 12 15 34 -21 45 31 -36 20 11 -33 -4 16 -6 41 15
-12 15 -35 -23 -17 44 34 -1 40 -2 34 -26 2 -44 32 42 -20 -15 37 8 -42 -41 29 -12 6 -40 -2 39 -27 19 33 -29 -32 6 -10 -16 5 31 20 28 -15 -32 -44 42 37 -8 17 28 -31 41 23 -21 9 -39 -45 43 -43 42 -19 26 13 -1 15 6 -3 -23 -7 28 9 -15 42 28 -12 14 13 -6 5 -8 -40 -12 25 -25 34 -33 38 -24 -13 35 -33 20 12 26 5 7 -29 -24 -19 29 -38 -45 33 42 -29 10 3 21 29 -14 3 6 -4 -11 -34 28 -14 -22 44 5 43 -21 -19 -45 14 33 32 -43 -2 30 7 -18 27 9 31 17 -30 36 31 -34 29 6 4 1 13 42 0 23 -1 4 -29 33 4 37 13 -19 44 23 -22 -27 18 37 2 28 -18 29 -42 -12 29 26 -37 27 -12 -34 28 19 -39 9 -32 -7 -1 -41 31 -3 -29 -39 40 24 29 42 42 -36 -22 -3 9 -14 40 -45 -13 -23 -21 18
-17 -9 41 16 -43 3 45 27 -30 -30 30 -20 -17 18 -20 28 6 -39 -1 -45 -9 -3 35 -39 -20 38 -45 -36 6 1 1 -36 28 43 5 -24 -17 20 -4 -38 -35 -8 11 -9 -14 40 31 13 23 21 -45 -9 40 26 40 -40 -35 -9 -43 1 44 -12 -44 -12 -34 34 -27 -20 31 -23 -33 -29 42 28 -19 -7 10 5 -20 -35 36 -18 -22 17 -17 17 20 18 4 -44 -11 -38 -8 -30 -24 26 5 0 18 -13 -45 16 1 -25 5 12 -3 43 12 38 -28 13 17 29 17 36 -33 -15 -36 40 11 -19 30 11 -42 -8 43 0 -36 -6 3 -32 2 33 36 -5 12 -26 -15 19 14 30 -29 29 -35 -7 24 21 30 -24 40 -19 7 29 -6 -16 41 45 -19 41 14 31 25 6 41 -19 37 -13 27 -38 -32 -7 -9 -33 18 21 -39 -27 -22 -24 10 42 10 -37 41 35 12 -16 10 27 -27 10 -28 21 32 -34 16 -27 21 -10
-38 -5 4 -27 7 31 25 24 20 -20 -8 15 -45 -18 32 18 -7 -27 -38 -31 -29 9 -2 -38 13 -35 8 18 43 -24 -2 3 37 19 -9 -24 14 27 45 -12 1 38 -2 0 42 29 -9 -31 14 30 22 33 -4 -3 27 -43 6 -3 34 29 -18 39 12 26 4 -34 26 33 -30 -29 -9 -12 -11 -22 25 27 38 27 -10 19 -41 27 -31 -7 37 23 -10 0 11 -12 23 -45 -37 -22 12 -3 -8 -14 13 -26 2 -16 -40 13 30 -1 36 -1 -18 25 16 1 -31 -34 39 5 34 5 43 37 20 -2 -36 -40 -32 -6 -44 11 -28 39 -37 -41 -12 -27 -26 35 17 26 -44 4 -25 39 42 6 -19 -27 -16 -9 -6 16 -28 26 42 5 -4 -11 -33 -10 5 10 11 31 -36 11 -36 -15 -15 26 44 -17 -18 37 2 44 13 -25 -27 25 35 -1 29 37 -40 -39 8 -19 43 15 9 -37 -25 -3 0 35 29 -16 8 -27 27 13
-45 -20 22 21 13 -24 -22 -24 -5 -39 4 7 -6 -32 25 -37 -32 10 -31 28 21 13 43 -32 -14 -15 -26 -25 -32 8 35 8 -8 22 -1 -43 -20 32 -35 -24 -27 -19 -1 -24 -3 4 1 -11 19 43 -34 11 14 -1 -9 -31 -36 -9 -4 -33 -1 30 -33 -30 5 8 -20 7 17 -7 44 27 -22 10 32 39 27 -43 -7 38 -16 -26 18 -19 -8 6 -5 2 -34 0 -30 40 -38 -14 -43 -21 -16 -39 29 -11 -3 -6 -15 36 28 39 10 34 16 27 -21 -32 13 -42 36 -8 -36 -31 -42 28 -9 1 23 43 25 -35 12 17 5 6 8 -35 -36 -40 -34 -28 44 -42 9 12 38 -10 39 -29 42 -6 27 -36 10 44 -12 41 6 38 22 -20 5 44 4 6 8 -15 -7 -43 -44 -28 -8 -38 6 15 -7 -15 -44 34 20 30 -25 25 -3 -11 -18 26 23 40 3 -7 -44 -40 -12 31 -13 -25 43 -41 2 -34 -19 38 -22 7
13 36 35 25 -23 -21 34 43 1 -40 -24 31 20 -19 18 -22 1 38 -34 35 4 42 24 -10 25 -28 41 -12 -8 26 6 -35 42 -12 -16 40 -3 6 -26 38 -25 1 -33 -36 29 23 -33 -39 -41 -14 -19 20 -32 -34 -14 -36 -6 44 -34 -34 -38 43 -37 -10 39 -27 -3 5 19 25 -7 35 -9 -7 29 4 23 -45 -13 -13 -34 13 -7 26 18 41 23 45 4 25 39 -36 -11 29 1 -9 -39 30 21 -25 -38 3 9 2 -29 -16 31 -36 -42 43 -32 34 -2 -30 -44 7 -25 12 -36 -19 -20 -34 32 2 -17 33 -19 9 38 -14 -3 37 7 40 12 23 -37 -12 35 31 -34 -6 35 14 -8 -42 -41 16 -30 -34 -36 -16 6 42 -12 24 -44 19 28 5 12 -43 -40 -38 12 14 -4 18 -25 -29 -28 28 -28 -5 -29 17 17 -15 -26 38 -6 5 -23 -27 28 -20 -41 -7 12 14 29 6 -19 1 10 22 -42 27 -7 -3
-10 -25 39 28 28 -38 41 26 22 -9 -34 -32 26 -1 13 -10 26 23 4 -16 36 26 -28 16 0 39 -12 10 -33 5 39 44 33 -4 -43 11 26 -17 29 -38 32 -13 -5 -19 45 -22 -21 -7 -19 24 39 19 3 24 -25 -28 19 7 34 -38 37 38 -22 -39 40 -40 -13 28 -38 25 32 25 -23 -5 43 43 -33 0 -24 -12 -39 10 16 7 -38 -12 -30 3 -36 -5 -27 -31 -4 4 28 -29 36 13 27 -1 3 42 -11 -24 17 1 14 12 -26 2 26 14 37 6 37 18 -1 -38 -25 4 -33 -9 -3 14 -28 17 -32 5 22 38 13 45 38 18 -16 -1 -30 -29 -34 -37 28 3 -36 19 42 5 15 24 45 21 -25 -3 -8 31 -11 29 -42 13 25 -23 1 -11 -36 13 22 5 -30 -23 -36 -23 13 34 27 -18 31 -9 -45 -15 33 39 28 -26 43 9 -38 42 -37 -18 35 34 -10 -26 -24 -29 -24 -34 -43 8 -27 5
18 38 -35 12 -41 42 -17 -7 -12 -20 43 25 11 22 27 -40 2 -6 33 -27 -42 -41 3 -41 31 -6 -12 -17 -5 -5 2 16 -32 -39 11 -32 -9 -38 -30 -11 42 16 -10 11 -31 -42 -30 22 -28 27 -4 37 18 35 5 17 -12 3 -6 8 -4 -37 34 20 -32 27 19 -14 22 -3 29 -25 21 -26 -36 8 -8 -1 -42 -5 20 -8 -13 -4 33 -11 -9 21 28 -1 -17 12 5 43 -21 44 -3 40 16 -8 -33 2 -14 -2 21 -40 -1 0 -16 26 16 -4 37 42 -43 -34 34 38 12 -3 11 -3 4 45 -36 -3 42 -40 29 34 11 11 15 21 -6 -3 -5 -8 26 -27 2 -19 44 6 -5 34 -11 -35 -19 -29 10 -38 40 29 -23 -13 -9 -21 -29 -3 -12 -38 27 41 15 -18 -20 12 -15 -24 6 4 -4 21 23 -23 3 38 29 37 42 27 6 5 -38 44 -19 16 -13 -18 3 10 40 -17 -29 -4 -8 17 5 -41
-37 3 40 -40 -44 8 -7 39 -13 33 -34 24 21 -40 -18 -26 28 24 27 20 -38 -14 -22 -17 31 -24 -7 -19 40 -4 -34 -28 26 -22 -7 -39 44 -13 25 -41 -30 -23 -15 3 22 -33 29 36 -29 1 29 36 -14 28 21 1 -23 12 -14 -32 0 -40 9 -22 43 35 -10 -13 -37 28 -42 17 1 -30 -15 -34 18 21 31 38 36 -34 30 35 11 -22 21 -1 -29 -2 -34 -43 -27 -26 -24 24 37 -9 -3 -41 -15 -36 -26 43 31 25 25 -20 26 -11 -24 -45 6 6 -41 -40 -23 45 -37 -32 -27 -41 -24 24 -31 -10 -37 -7 18 40 0 28 -36 0 44 -13 19 -39 0 22 -13 29 -39 -4 30 8 4 -37 -16 1 -9 -40 0 21 -30 12 15 -18 16 0 -10 -15 30 -27 19 -15 12 -37 -18 -12 43 22 43 38 23 20 10 27 45 -17 14 11 -32 20 7 15 -41 -30 16 8 28 -20 -31 43 40 28 -15 -36 30 26
34 9 -31 33 -28 -33 35 2 36 0 -28 28 28 12 -15 12 -17 3 12 -43 -8 25 9 9 10 38 42 23 -35 -40 -31 35 12 11 -14 28 45 -38 -30 -32 -45 -34 38 19 32 -15 -9 -37 22 -27 26 9 -6 -27 -17 -4 31 -34 -16 33 14 -29 -11 23 -40 -40 15 16 -25 25 41 3 27 34 24 27 10 1 8 -35 -8 26 -25 -18 -40 40 -37 44 -35 -8 1 16 -5 -1 -42 13 20 11 33 20 43 -6 3 -7 -33 -6 -7 -33 20 27 -12 10 24 44 -45 19 31 8 0 -23 14 -25 36 45 36 -9 43 28 13 22 -38 25 13 14 23 43 40 -36 14 -4 -14 38 -9 -5 -2 16 -9 -13 8 -4 19 28 -30 -10 -37 30 15 19 -11 -32 14 -22 37 8 18 42 16 45 41 35 -32 14 10 33 -35 5 -32 15 -22 -1 -4 -18 -13 41 -3 -8 9 10 10 37 0 11 39 32 -8 -25 2 -30 23 -29
-33 35 3 -14 -16 4 36 29 -35 35 -44 -15 -9 41 12 -37 35 6 15 28 12 -43 -27 12 8 42 20 -11 30 2 21 13 36 15 30 2 13 28 14 -18 14 -17 -40 14 5 -32 -19 -9 2 12 4 39 -1 5 -14 -11 -31 -4 0 21 -13 -38 -34 -6 12 -30 -31 9 -23 -15 -37 1 -38 -29 -7 -13 35 -9 6 21 -12 7 -36 33 -31 -29 -33 -3 -7 -39 -31 40 -3 32 -20 -4 15 -41 -35 14 6 -28 -28 6 31 -33 10 -10 39 42 17 -25 10 31 13 21 -32 33 -7 -28 -42 -15 -4 3 -10 28 8 30 42 0 -8 24 34 -28 35 -9 45 -22 43 35 18 12 -45 33 42 8 -39 8 -11 -24 14 27 16 -29 11 31 43 -41 42 -14 -36 18 40 14 36 -5 20 45 12 14 -12 15 -12 13 45 14 2 -23 30 -10 -34 0 -38 35 -3 -18 -13 -16 36 -39 32 35 40 0 -32 20 38 -36 -33 -1
-8 -7 -32 -13 -5 -19 30 -38 20 -8 -35 8 30 -26 -32 12 11 21 -21 31 38 -3 -17 -1 -20 24 -31 17 25 7 29 3 -34 27 -21 -31 -4 4 39 8 -38 18 5 -44 -42 -40 -5 -22 -13 38 -43 -40 -30 -22 24 30 -12 -36 -36 14 -5 -10 -9 -18 22 -20 -6 22 -15 40 17 17 15 1 -13 -25 31 -1 15 -6 -1 -15 -25 7 -7 33 33 25 -6 29 -9 -14 -3 -27 -33 28 35 0 -44 12 17 -30 -23 -4 41 39 -26 -14 -28 28 -42 14 -25 -3 -36 -11 -23 0 -34 -38 2 -40 -35 -23 -28 -37 13 -30 -14 28 3 -11 43 -39 -10 -33 7 5 33 -13 -19 39 23 -3 -43 -4 -6 -38 24 25 42 19 -36 40 -2 -37 -4 7 14 22 -41 -11 24 -29 19 8 -4 25 22 -4 10 -20 41 -32 25 -7 9 -20 -36 42 -26 -32 0 -44 2 33 16 -33 15 31 -31 -28 34 4 11 -21 2 38 17 -35
9 -26 -10 -5 -9 2 35 41 -12 10 10 13 -1 11 3 -1 -15 -11 42 19 -4 17 -19 -35 -30 35 8 43 6 39 15 4 35 -25 -6 -5 -11 -19 18 -40 -13 -12 20 38 -14 24 20 33 1 6 32 24 -17 21 -33 11 -37 14 23 -6 -32 -14 30 35 24 -37 43 30 25 -1 0 3 42 45 10 -34 27 31 -26 34 -39 -39 -18 40 43 -40 -22 -24 20 -38 13 26 -1 -36 -6 4 -37 -21 -19 17 -26 -15 41 25 6 -13 -7 -36 25 -17 18 37 12 30 14 24 23 -14 13 32 22 20 33 -33 44 -1 4 -44 -4 -41 34 1 12 14 -14 -19 23 40 -12 37 8 4 -39 16 -35 -17 38 -44 -23 27 -23 34 -25 22 -2 38 -34 -25 -41 2 41 -9 -42 7 2 3 -43 22 12 -15 21 7 23 -19 -9 30 36 42 -18 1 9 44 -33 -44 40 21 23 -25 -13 -23 34 43 9 3 32 29 -21 -33 -17 -27
23 -7 -2 33 21 15 -23 43 -15 43 22 43 -16 -18 19 -4 22 13 17 14 39 -30 -44 -3 31 -41 14 11 30 16 35 -30 6 13 -41 -16 18 -1 -27 -5 19 -35 9 -12 12 -14 -25 43 -13 14 -19 30 -45 24 -7 -9 -38 32 -21 -34 2 -13 31 -32 35 3 -27 39 -8 0 8 -30 -38 38 36 45 -20 -38 2 -38 33 6 3 10 -38 37 -43 34 -31 -45 -2 15 -43 31 23 5 39 36 -32 -2 20 33 27 -1 7 21 4 -33 23 4 5 37 -20 30 -18 -24 9 22 -29 26 -34 18 -43 3 -11 -43 -36 -5 7 -7 43 26 41 23 -30 -17 41 -40 -13 0 9 -8 7 7 30 -42 -41 1 28 -30 26 -18 21 15 21 32 -39 11 -13 30 -12 32 38 -35 3 -25 -23 27 18 22 29 -20 37 30 33 17 -30 -32 11 26 24 -37 43 33 -36 -23 -16 -26 1 -39 26 -37 38 37 34 23 -33 -22 34 5
37 37 -5 35 -40 -22 -8 -34 30 -35 -38 -28 -18 11 -41 -13 22 4 -29 9 -12 39 42 15 30 -41 -12 11 22 43 42 -4 22 -25 -17 6 7 33 18 -25 16 -9 31 -35 -34 27 -6 -40 1 6 -30 -43 -14 -24 36 -43 -24 8 3 4 -38 17 35 25 -12 38 -7 27 18 23 28 -11 12 -42 24 21 22 14 33 11 -4 -2 -4 -5 -7 15 38 1 25 -43 -6 -34 5 -8 37 11 -27 44 37 9 41 -43 10 -3 -1 -1 -21 27 -5 45 -20 6 4 -11 -11 -29 -9 9 -4 -4 38 -6 25 6 18 -31 20 18 4 21 39 13 -18 -17 10 29 25 -19 -45 -31 -16 -27 16 -15 -19 16 27 4 -25 -26 -7 13 12 18 -41 28 3 -24 -41 -4 -40 38 -15 9 13 -31 10 37 33 9 25 -10 0 38 -44 30 42 40 35 -10 2 26 -15 -45 26 40 12 6 -19 -44 36 44 -3 23 15 -16 42 -11 9 -1
41 -34 -7 7 7 8 -18 -41 8 -20 4 -42 -26 20 -2 -24 -19 14 -30 -35 -6 -30 -15 -40 7 25 15 40 14 -1 -19 35 -25 -33 32 -19 -38 -20 0 32 7 -20 6 18 41 -6 19 -19 -38 32 -15 -39 -2 -32 5 17 43 -14 26 -39 -45 -12 28 39 39 13 -3 -1 -26 -9 -16 -38 -14 -16 -10 1 -12 -27 9 25 27 -7 39 28 19 -31 16 -31 -30 -13 9 8 36 -5 -4 0 -19 -44 21 -44 -1 6 -9 20 -37 14 -35 11 -13 -15 -25 -23 6 38 18 -23 -38 26 24 -5 27 -11 -17 -28 33 5 17 15 0 -7 -42 22 39 28 31 38 -3 41 -43 29 17 -18 -6 34 21 34 6 13 -26 -16 -15 24 33 -40 -20 32 -21 5 19 25 -45 27 -39 35 1 -40 35 -15 29 -22 0 11 -6 -26 0 39 0 -14 7 -17 36 -5 -20 36 18 -24 -25 -31 -30 -38 7 -27 38 -4 21 5 -10 -1 -26 32
-36 10 4 22 1 -29 24 -13 -42 39 -33 -41 -35 -28 3 -42 -8 -10 -41 -18 -17 -33 -14 -29 38 -10 -41 -17 6 35 13 -23 30 -17 2 -21 -39 9 -9 -29 20 38 28 12 -26 -20 -5 2 7 24 36 -7 -6 -32 32 41 37 34 28 -43 -18 27 -21 -42 5 -22 5 -38 -23 -8 -15 26 -20 20 31 -19 9 26 -2 -17 41 -1 17 -19 -44 -19 17 45 36 -36 -3 5 -4 44 -38 19 -26 9 45 29 -21 31 33 -6 -38 42 -12 36 -20 -40 -37 2 17 -9 34 -38 30 -15 -40 -37 43 -15 -30 32 -38 30 -1 40 -19 2 -17 5 -25 29 -28 13 -18 30 -8 26 23 -2 -2 12 -2 -4 -18 -23 21 -29 -38 -34 25 -18 2 -40 18 -15 -25 -19 40 -13 -35 -17 -7 10 1 20 5 -18 -41 -11 7 1 29 30 -29 -29 -34 -27 14 35 -4 -10 40 -4 -7 -33 -22 32 -11 -44 -40 45 42 -33 -33 -35 -17 -14
11 -44 45 -42 12 9 11 -28 40 -10 9 6 10 11 -35 -31 23 29 -13 29 -19 -34 -1 8 24 19 -23 0 -29 -27 8 21 -3 -31 25 -27 0 5 -45 -38 -25 -7 21 -26 -18 -43 15 -40 32 -10 -12 19 -9 19 -4 -35 23 7 44 -22 -4 14 32 18 1 -15 -18 -16 -40 20 -28 -26 -35 44 -38 -32 33 0 -40 25 31 -44 -39 -36 -27 9 -41 15 9 -42 -4 -12 -42 -2 2 -4 3 -43 -24 36 21 -28 -43 1 -21 10 26 -29 36 20 -40 35 36 -37 5 43 -31 42 4 -15 -12 -29 -24 -23 43 28 -35 -33 39 39 -2 -39 17 -12 -16 -6 -12 -42 -27 -2 17 30 -17 -20 15 26 42 -29 33 28 -13 -12 32 33 -42 32 9 -6 -44 -16 36 2 25 38 -31 -1 27 -42 -16 -30 38 29 29 5 -42 -30 -18 16 -26 28 37 44 -4 -25 15 37 -42 32 10 30 -16 -24 -25 -14 15 -14 27 -21 -25 -12
-19 24 26 0 45 -44 -35 12 -22 -12 27 -34 42 45 36 34 -40 -41 33 38 -17 -8 1 0 30 42 29 -42 -43 13 -6 29 37 9 38 -19 11 -6 -30 -4 -15 20 -30 1 20 -41 -30 -43 38 7 19 38 -9 11 43 -30 -29 -38 24 -22 4 38 4 -40 -15 6 16 -5 25 -35 27 -41 -4 -3 33 36 44 -42 13 -39 16 -8 -44 -30 -4 39 -30 39 7 30 -39 -35 17 17 -29 -23 8 -5 40 -18 17 9 -42 1 39 -37 8 -40 -27 -1 -15 -30 8 23 27 38 30 24 -31 33 33 27 -21 -2 -15 -12 16 24 26 -33 -27 -28 -37 -21 36 0 42 -8 2 2 -26 -39 21 -9 -6 -16 -20 -11 -42 6 -5 -1 -5 -16 15 24 34 36 42 -29 -16 -26 -30 -5 -12 -35 -44 -16 32 41 -23 24 -14 -42 -30 -8 -25 20 27 -24 -9 35 35 19 38 2 11 -18 -29 6 -19 -33 14 44 14 37 27 19 -15 14
