19 -22 11 29 14 35 30 16 17 -15 7 47 -3 -7 39 -6 -1 41 27 22 -5 -31 -28 5 9 -3 -9 -32 8 1 -28 -31 -36 -10 -26 -15 32 -16 10 -48 -13 4 50 24 43 21 -11 31 37 -14 -4 6 66 -29 25 28 -17 -19 31 44 -25 -15 -20 -25 -33 -38 -15 -3 -41 23 -26 -46 -46 -48 -66 -36 -34 -9 -13 19 -30 -13 22 -14 -25 -16 -30 -35 -35 -13 -40 -35 -22 -22 -12 14 -23 16 43 -21 10 20 -9 25 -8 -19 -25 -16 -7 -9 13 21 -12 -35 28 5 -23 -11 19 -22 10 8 17 -8 -18 27 9 -4 -7 -26 -24 -52 -36 -24 -17 11 21 -1 -13 -16 -50 -46 -24 -36 -35 -31 13 -12 4 3 -32 -29 -30 -13 -50 4 -25 -31 -28 11 -5 28 -8 -5 11 13 -22 21 -15 27 16 26 -45 -18 -11 1 8 32 4 -35 13 -11 -20 -11 -3 0 47 -9 -26 51 -8 3 20 -9 6 35 19 -12 -17 -26
-28 -32 13 -4 -26 23 22 -23 -18 8 -14 4 -27 19 -41 -47 -27 21 14 20 31 15 33 -22 27 -5 6 -8 -13 13 8 31 23 9 11 7 -16 -2 21 35 35 12 32 12 64 -23 -5 -22 7 1 53 -29 21 27 68 12 -10 21 -15 16 -19 -54 -40 -5 -11 -40 29 -32 26 -16 -20 -3 -25 12 9 27 34 -32 9 -23 18 -10 -35 34 -32 10 -9 -16 14 -13 -25 11 1 -54 -52 -24 -28 6 -44 -27 8 11 -2 24 27 32 44 -12 17 9 41 20 18 -4 -5 50 31 39 20 39 14 22 -33 23 -9 11 5 21 23 14 9 -7 2 16 -9 -30 14 -28 -27 -18 -45 16 7 -19 8 -47 29 12 16 8 14 7 -36 10 -58 -12 -28 10 1 -16 30 26 -5 -21 -21 21 -13 13 -12 -20 -3 38 -5 -16 26 -23 2 9 20 30 0 -23 25 -10 46 -5 56 6 25 10 5 33 -14 28 -15 14 13 -31 -22 28
2 15 -6 17 -17 -5 -21 -6 -8 30 10 -7 -28 -23 -31 -36 -3 -28 10 -22 19 -54 -32 -5 -19 -49 35 -2 2 -33 8 5 -46 24 -3 -13 18 -21 1 -46 -26 1 5 0 10 5 -33 -27 14 9 7 32 -8 21 15 9 -1 10 15 30 -20 -10 17 -12 32 22 -11 -9 -17 7 -17 3 17 -2 12 26 -21 -29 3 16 43 35 17 33 -32 30 22 21 32 19 37 17 -30 14 -12 31 -10 24 1 -10 1 6 -29 17 -23 -8 -26 8 3 -15 28 29 -11 -17 11 4 -14 4 19 -27 -40 -32 -17 -9 -3 7 8 3 12 -31 29 20 -6 -12 -10 -26 -33 -3 -25 29 13 31 4 14 2 25 -18 -27 -1 25 14 4 -21 18 -9 22 -15 -21 -3 -22 -1 28 -2 5 34 8 -11 22 -11 24 -32 29 -16 -8 10 -32 -4 25 33 15 3 2 -7 17 8 4 -4 11 -14 24 28 -4 -19 8 -24 23 -2 11 -23 -30
-4 23 -6 -25 -33 -35 28 -21 14 33 3 -17 12 -8 15 21 -20 19 20 -14 -25 18 -17 -31 21 24 14 3 15 18 29 -25 -4 7 -3 32 29 -15 20 -10 -37 21 5 4 34 3 16 -30 8 0 -10 34 42 24 2 16 25 -7 7 33 -36 -29 -23 28 -52 -41 5 -36 15 8 -40 -15 -14 -44 -23 -33 13 -21 2 19 -12 -17 16 -8 -1 -35 39 -9 -20 -7 -4 28 22 8 13 24 9 -28 4 5 4 1 7 -8 -13 31 0 8 46 -17 -32 -7 -3 20 -33 22 -3 25 15 -5 11 21 28 11 0 40 -9 -7 32 24 40 38 -6 -7 -20 6 29 23 2 6 8 -23 -30 -59 11 -39 0 -20 -25 -28 -15 -26 -49 -42 -35 -18 -48 11 -26 4 15 -7 24 9 10 -27 -13 -16 -27 18 29 26 -17 3 22 -1 3 28 -3 -2 -29 -6 0 -9 -5 -19 20 5 -22 -22 -8 -23 6 -28 6 -30 1 -31 -35 -4
-5 -14 -19 22 -16 18 -4 -16 16 14 -33 -25 15 2 3 -16 13 -15 -12 -30 24 -11 -1 -3 -3 5 22 -9 -26 -10 26 11 14 7 -4 1 -5 -33 -13 -33 22 10 16 10 -16 -6 0 -2 29 -23 21 30 -2 -2 7 -2 -28 -19 13 17 14 26 -16 -13 -26 10 17 6 -43 -6 -22 -22 -14 13 -7 -14 -23 -25 -1 30 -9 12 -18 -28 5 -51 -17 -58 -19 -51 -43 -25 -11 7 -9 25 -1 -33 -8 -30 0 9 37 38 58 -8 -9 18 29 -4 0 5 -19 -11 -28 -3 14 23 26 35 28 -16 1 0 -29 7 -31 -39 -30 -24 9 -49 -38 9 -17 29 34 7 9 20 13 -30 -5 30 -26 19 -19 26 -5 27 14 -10 4 24 11 35 -12 22 25 1 21 31 -3 19 -19 11 -11 -16 -23 -13 -20 26 -1 14 1 32 -16 -17 26 31 -8 32 16 8 -21 18 26 -15 16 -18 24 24 38 27 -16 -10 19 -1 36 -23
-21 13 13 -22 -28 0 17 -2 -29 -20 28 -1 0 -13 7 -14 5 -1 -21 4 -15 -10 6 -20 -8 4 -17 17 -12 9 -26 3 -4 -18 -7 21 20 0 4 -33 11 -15 32 18 21 -28 9 -28 1 7 7 18 19 -33 -14 21 22 -21 -1 20 -18 -32 -27 3 -29 11 15 18 -34 27 22 9 5 7 25 2 4 -7 0 -31 -12 -12 31 -20 21 -2 -18 -16 6 4 5 -26 -24 -6 -16 16 34 -7 -3 1 28 14 12 14 -1 -1 -28 -10 -18 -24 -33 -36 -25 -45 -5 -38 30 11 9 -15 22 22 -41 -31 -20 -21 14 7 -21 -17 -27 -8 -5 -26 -24 -1 25 11 -5 -28 -1 -16 -31 15 2 0 -22 -11 40 -13 -23 -12 41 20 5 44 35 33 -15 -21 34 16 10 -21 0 35 -10 23 -28 16 -10 1 25 -1 -12 -21 28 -20 -7 14 3 28 21 28 -20 -18 34 21 -26 -21 -22 27 17 5 22 -1 -26 30 -18 -11
-39 8 -14 11 -14 28 31 -23 24 32 -19 -17 -12 8 17 34 -28 -22 -19 -2 -7 -24 32 16 19 0 1 -6 28 37 21 1 -4 8 16 -7 18 41 -31 34 1 16 61 13 19 -21 20 -21 30 2 29 7 -28 6 53 31 8 -1 1 29 2 22 11 -3 -20 -4 -27 -44 5 9 -35 -17 -25 -25 -28 34 -40 -4 -23 -41 -27 -19 -13 -21 28 22 10 22 3 -15 -28 4 -10 8 21 14 -19 -6 -35 -30 -17 -21 17 16 -12 -35 -17 -25 -7 -32 8 6 13 15 -20 -19 -31 2 -29 -40 19 32 -8 -39 -19 39 -29 -1 14 -24 -8 -9 -5 -11 -3 -38 15 9 -5 -27 30 13 -11 -13 31 -29 5 -3 -14 -39 -13 9 -10 -5 -14 9 15 -3 -26 -3 -22 8 -13 9 -6 -29 4 -29 35 -5 0 14 -3 -6 29 -9 -29 5 -5 10 8 8 -3 -10 -32 41 11 14 -19 -12 16 2 -21 -29 -2 17 27 -33 -19 30
-16 8 -1 -3 -12 -12 15 -5 -29 35 12 15 -28 -19 2 11 -8 24 -15 28 -21 21 -17 -23 2 14 32 34 -23 25 -39 15 27 -21 -18 12 28 -9 21 12 37 44 28 -8 -2 9 12 -26 26 -12 24 -3 44 -2 38 27 13 12 -26 -19 16 -33 0 -21 8 -4 -33 -26 -14 -5 3 -25 -43 9 -31 -11 -20 26 7 -1 1 10 29 21 -19 -9 12 14 39 -11 26 -5 14 -13 -2 -28 -25 -23 28 7 -40 -27 -16 2 -13 12 -18 4 23 8 -1 3 -51 -6 -4 26 8 -26 -32 -51 12 -9 31 28 -22 -10 -24 -14 26 -23 42 22 25 31 -7 4 -5 23 26 17 27 -4 -10 -11 20 -9 7 -11 -20 17 -8 10 16 -26 -13 -23 0 -8 -30 -12 13 -28 6 -33 26 12 20 -28 -1 -36 -30 21 14 -12 23 -5 -33 23 3 -35 13 29 -4 -7 3 -27 18 -28 -7 -29 30 -32 16 19 5 -34 -17 4 11 -18
11 26 -22 20 -10 -4 20 26 -23 -2 10 -12 3 -8 -24 6 10 9 33 21 -34 24 -9 -4 -32 1 -10 -12 16 24 -24 9 -5 -2 29 -34 18 12 9 -16 22 -13 -13 29 -27 1 -5 -22 -22 -7 4 -22 16 6 2 -25 1 -30 27 5 42 4 26 21 5 20 15 -12 30 -24 -2 7 17 12 26 42 8 -3 -1 36 13 30 -28 -27 12 4 33 -18 29 -22 25 -6 18 -5 -6 -31 7 4 -15 -26 -27 -24 -1 -13 -11 -27 -30 -23 3 -2 -31 4 -10 -35 -24 -35 8 -13 0 5 -8 15 18 -23 4 -14 -14 -24 -29 -15 38 6 9 -9 -4 -26 16 -13 11 25 -22 -17 18 5 18 4 27 11 2 -18 41 3 5 -20 24 -27 36 -23 23 21 -1 -4 -1 -19 31 29 13 -28 14 -16 -16 24 -26 -10 7 9 3 29 -27 -15 -28 19 -6 25 10 -2 21 -5 -31 -1 30 -19 5 -22 -27 20 -12 -12 -22 -7
32 -19 12 8 46 34 -12 10 26 1 30 30 10 -3 -11 -4 -13 33 28 39 -14 -14 -12 -19 -33 20 23 -6 14 5 -34 -4 3 6 14 7 22 -14 -11 -25 31 -29 -17 28 -9 -30 6 -1 16 11 5 -29 -3 -6 -12 2 18 -10 -16 32 12 -15 -28 9 -10 -47 30 -7 -36 -5 16 -31 0 9 -3 -25 14 -26 -33 -17 -18 -18 -32 18 -34 -22 15 27 5 -21 -27 -18 8 3 5 -42 15 -24 -28 11 35 6 24 -11 20 -2 -19 4 6 0 22 45 -5 18 -17 47 -9 15 5 24 -44 5 10 -6 -12 -10 -26 13 26 9 38 -3 -34 24 -30 -46 -36 -46 -37 8 0 -25 23 11 18 -6 -6 4 26 21 36 17 23 33 -11 12 19 -7 -28 29 -15 -13 6 4 -25 -10 -3 -4 5 -5 13 -9 -26 -11 19 -6 -22 29 -27 14 -7 6 32 -30 -4 -30 37 -1 16 44 15 10 -3 16 -1 -26 0 -11 -13 -26
16 31 18 26 5 6 -16 13 2 -29 8 -32 -23 -18 26 -32 -27 3 22 26 6 -18 21 6 -3 21 18 31 -24 19 -7 13 13 -17 -16 8 -14 -5 -7 -10 22 12 33 21 -12 -1 -5 18 -20 -31 2 4 6 -24 51 17 3 26 9 -12 -19 -33 -17 17 18 -3 10 -27 -21 -26 15 7 13 -23 4 -27 -3 -30 -26 -4 -30 -9 -18 -12 -22 14 -11 18 -23 -14 -19 -19 -21 -23 14 -13 -30 -14 18 28 19 6 -25 17 22 21 24 13 10 -23 -9 26 22 -20 -28 11 11 -21 4 21 -23 -39 -10 -6 24 -17 -3 -1 -19 -24 17 -8 20 0 12 -22 14 19 -28 -38 -11 -7 -11 -1 -9 -2 -18 -18 -15 20 30 15 36 25 -10 13 18 16 12 6 -23 -26 -7 2 34 13 -2 1 -7 13 -17 -15 -4 -27 18 -23 -28 -7 17 -25 2 13 24 11 -13 25 10 -26 -34 -26 -29 23 -23 -24 -6 -31 7 7 -15 28
-34 -10 -20 -21 32 -17 -19 18 -14 23 30 17 -7 2 -13 -14 -7 15 4 -16 27 28 2 -31 5 -16 -9 11 35 25 28 -18 9 30 8 -3 -13 -37 -2 -15 3 1 24 -29 37 -16 -20 -19 34 30 21 0 0 -14 -20 -7 -12 5 -26 20 -2 -18 25 -32 5 19 6 -24 -3 9 -24 -22 -15 20 -5 -17 -3 7 -2 32 11 -16 -24 17 12 -24 -14 19 9 5 -26 23 13 17 -3 -27 -6 14 -23 18 18 37 2 -6 -8 18 9 46 47 -1 3 -18 0 19 25 -3 4 34 -19 17 19 -13 -32 -7 35 10 -13 8 28 -12 11 24 -13 -28 -11 -10 -34 27 18 16 -29 -10 -6 -24 -8 20 -31 -28 -34 -23 7 -15 0 -30 -28 21 -18 11 0 23 4 13 23 19 5 -5 17 -12 -26 -13 2 -3 -23 -2 9 19 -18 -20 -8 -17 25 -17 -5 21 -10 3 -13 2 -28 43 29 -23 -2 -27 20 25 -14 -24 -2 -10
27 9 30 24 1 1 1 8 30 -31 6 22 -16 22 -3 19 -23 5 -14 5 -23 26 -13 7 -27 -12 -14 -28 -25 -28 18 35 -7 1 -27 0 -26 -21 -22 -14 -15 -33 -15 -13 -17 -28 -25 4 -30 29 21 -24 22 7 -6 7 27 24 26 -23 -21 -13 -32 -4 0 -18 -21 17 22 2 30 24 24 -7 -10 -3 -5 -9 22 2 11 -29 -24 8 -6 32 -6 29 -17 14 -10 14 17 -3 -12 -24 18 13 26 -22 22 -22 -2 -17 -33 5 -7 -38 10 29 7 16 -22 3 23 13 22 -23 -39 18 10 -6 1 24 -26 30 24 9 14 24 28 -25 -10 -28 -6 27 -25 21 -19 2 -35 22 -25 20 -25 16 24 -13 25 -18 -12 -13 24 -36 7 -30 4 26 12 7 -26 -31 -33 -10 -17 -22 -22 12 -5 -25 -29 -28 -27 -20 -27 -8 -26 6 -6 -1 -4 12 30 -12 16 28 19 -11 -16 -21 -11 -31 6 32 -11 -4 21 17 22 30
-29 -5 17 20 -4 8 -3 4 6 16 -31 11 18 22 30 13 20 8 -31 0 9 15 -10 -24 16 -27 6 23 4 -1 -4 3 -11 -18 -8 25 18 29 -19 2 18 -16 -4 -13 25 -23 -11 24 -24 6 -14 4 -11 26 -13 25 -10 -24 6 -24 24 -23 -4 31 -17 33 -13 -3 6 19 -18 2 -16 2 1 -4 22 -9 -2 13 8 8 21 -16 -5 -8 7 -1 5 -5 -6 14 16 -30 -23 5 22 0 11 4 -4 2 54 4 31 -21 -8 -15 -13 30 28 8 1 27 51 -12 5 36 27 33 33 -13 21 26 -21 -15 -29 -21 12 19 23 -6 25 1 22 21 32 22 38 30 18 -8 8 -28 19 15 -28 -7 4 42 -7 5 -9 -21 -2 31 0 -22 -34 -6 -20 -4 13 -19 29 24 -7 -4 15 3 29 -28 -22 -22 -32 12 4 15 -23 -13 32 4 -16 25 1 -16 17 29 -2 28 -25 0 17 10 -13 -5 5 8 28 -11
-10 -15 -20 -31 20 -19 -32 -19 2 23 -4 -15 -1 -13 25 -21 11 35 30 17 12 -3 28 25 -5 6 -1 -8 -30 -24 0 -13 13 24 -22 -2 -11 20 26 -32 16 -22 63 -9 -6 -14 4 -2 -28 18 5 20 17 -19 10 -17 -7 32 -16 39 -20 -63 -7 -26 -30 -49 -13 12 -23 -12 -27 6 -5 -38 -28 -75 -19 4 -13 0 12 -27 -17 5 31 5 -14 8 -18 3 14 1 -10 -15 -18 24 -11 -8 -35 -4 0 1 29 10 -24 19 -4 19 17 26 7 -29 1 30 -8 15 -6 33 -23 -1 -35 -49 -33 17 -25 -8 11 -33 -10 -29 -44 35 28 36 22 -11 24 -20 -12 12 -21 -7 -14 -45 -49 -36 -32 1 -65 -16 -45 -22 15 -42 -51 6 -47 -19 -2 -31 40 -29 -17 63 60 -14 15 45 25 26 -6 62 -9 44 40 20 46 38 15 17 10 26 21 -7 19 16 8 13 4 19 10 -16 43 -6 -18 19 43 7 22 12
-32 -11 -4 22 -34 -16 36 11 -16 -10 33 -53 -7 -13 -9 12 -17 -23 9 -3 -22 4 1 16 -13 5 23 37 -26 7 -11 -3 13 -8 28 -9 -13 -8 -3 9 -20 14 -30 4 -20 4 24 -3 -31 2 -52 25 11 -25 -33 -27 31 3 26 15 2 -24 29 -4 25 -10 16 40 -3 2 32 36 10 16 52 -6 0 11 -25 12 -21 34 13 -10 -31 -32 -19 24 23 -26 -19 -16 32 -13 11 -15 -4 17 -12 5 -28 3 35 18 -34 -38 3 57 21 4 13 15 37 17 -8 -3 0 5 -25 1 8 -24 -3 29 -37 -15 -3 8 31 -36 -24 -3 0 -26 20 21 -16 14 -6 18 -32 -1 -37 -17 -13 -17 -17 4 -14 9 -9 -27 -29 -23 -52 -29 -21 8 -6 -20 8 -4 -25 -10 31 1 30 12 -6 -3 18 29 -10 29 40 48 -20 -13 -16 -12 -23 39 -21 -6 -11 49 -12 54 33 31 -1 35 -6 20 -13 -6 52 26 23 -17
0 -1 -10 -6 22 -27 11 -18 -5 29 -26 7 -24 -42 20 27 -10 15 -31 -4 29 -2 5 8 -19 17 15 31 -1 -21 -5 -8 28 22 37 -3 -20 14 -12 33 36 -4 1 -14 60 -10 -17 21 14 21 76 -24 66 40 -12 5 8 -5 21 83 0 -9 -63 -17 -39 -41 6 -88 2 -24 -12 -6 -87 -4 2 -10 -19 17 -65 -48 12 -14 -22 51 -1 42 31 -14 27 -6 7 -3 26 -3 -11 32 25 20 -18 5 27 9 14 5 29 -34 22 -8 36 49 14 12 -15 -25 -15 6 -8 6 23 -13 -61 -26 -53 -41 -71 -13 14 -33 2 -21 -33 -30 -6 -46 -28 -28 13 -29 -1 -11 -27 -1 16 -29 7 -37 -13 -1 -12 19 -25 -29 25 -52 -2 1 20 -20 -5 25 13 15 -3 32 -15 12 -10 -11 33 -13 18 -22 -30 16 -28 -30 7 7 2 -21 -29 -11 24 -4 12 44 -11 2 20 -15 30 -8 37 -14 14 -21 3 -13 32 -10
-17 -32 -17 13 1 19 8 10 13 -18 11 16 -12 8 5 -16 -26 5 -30 -3 -11 -22 24 -26 -13 27 1 -15 30 6 -13 -5 35 14 25 46 5 -4 22 -22 11 -14 45 -10 24 -24 -26 -19 9 12 -16 -16 43 -7 -20 6 -19 32 21 17 -66 -46 -23 17 -49 5 12 -38 -29 -30 21 -58 -13 -12 -25 -4 -4 -29 -14 -1 41 60 35 -4 25 -15 41 38 -24 -34 14 -22 -25 26 10 17 22 20 7 1 12 6 -8 36 8 -17 -19 3 -27 19 -28 -27 5 19 -9 2 -2 -12 -48 7 6 -15 -30 -7 21 -23 27 -36 3 -33 11 6 14 24 27 31 -35 -4 9 1 1 1 19 -9 38 16 0 15 -8 -27 21 -9 1 -25 -24 -30 5 22 -13 -19 55 8 32 40 -2 -7 14 18 58 47 40 50 48 25 8 52 53 60 63 39 -5 -17 1 26 -40 -4 -24 5 -23 3 26 -15 -15 -34 -15 -23 -27 -11 -29 -19
29 -13 1 18 23 10 -40 -26 -22 4 -26 4 24 30 30 -39 -22 -30 38 -21 -10 -31 -29 17 -23 9 -15 -40 -8 -19 -19 27 -25 -4 4 -15 0 -26 20 10 -1 34 1 -21 -20 -13 -20 -1 27 19 -15 19 -23 -7 18 -22 -11 -25 31 -18 -37 -20 -11 16 -23 -29 2 4 28 21 -11 11 -30 -14 -31 -35 6 -18 -5 -1 13 -25 -8 -36 -10 20 20 -31 -3 4 11 -18 -11 -16 -9 41 20 24 13 -19 34 -39 26 2 20 6 -21 -1 3 -14 26 -42 -29 8 -48 -15 8 -2 19 -3 -24 3 -20 -4 -17 -10 16 25 -25 29 -35 -25 24 -29 -16 -15 9 2 35 -24 -3 -21 -12 9 4 -16 28 -18 -19 22 -32 -3 21 -33 -22 14 -31 17 -21 -28 46 37 -10 27 23 30 18 23 -15 0 45 39 3 23 -5 31 10 48 26 42 24 -28 20 22 -17 -34 12 25 -8 34 9 -12 -15 -28 31 23 -14 -17 -17 -7
-23 5 -14 8 8 -11 -23 -12 18 1 -6 -14 -7 -33 -25 8 -23 18 -3 8 -2 -14 9 -2 -5 8 10 13 -27 21 25 -13 9 10 -13 -12 -21 -11 -33 4 16 2 -25 0 25 -19 20 -2 25 -17 11 -7 -36 26 -10 21 22 -28 19 -6 21 37 10 14 22 -19 3 8 -27 -22 38 26 12 -5 -15 -30 -13 -5 26 -15 -10 -5 19 1 29 17 -34 -33 18 -22 7 -28 9 6 5 19 3 -16 -15 6 -23 -4 -7 0 -31 24 19 14 -6 17 11 -19 26 -26 26 -25 -23 -14 -30 32 44 11 19 7 -22 33 4 -22 29 -18 1 5 23 -28 9 -7 -18 -7 -18 18 -39 8 19 -8 -20 -18 17 5 11 -11 15 -21 14 -11 18 4 19 14 -10 -24 -20 -9 -12 -30 -24 19 -14 -16 7 -26 -24 30 17 -13 5 17 0 14 29 4 8 -28 25 1 -21 45 7 1 -10 28 -32 -6 31 -5 23 -19 -26 31 -3 -3
21 27 16 -10 -5 -11 30 28 32 17 -8 -13 0 37 22 -23 18 -9 -2 -22 15 -8 20 20 3 23 8 36 3 1 3 14 -6 1 -11 9 31 2 14 9 16 6 23 19 -5 25 -15 -1 -1 -10 -36 -28 -18 2 -8 -17 1 9 -5 18 3 -5 18 -19 -7 -50 15 24 -17 23 -30 11 -32 -13 3 6 -19 28 -23 -12 7 -12 22 14 -3 -12 -17 -22 4 -29 -37 4 -19 -51 22 -10 -21 29 -11 33 39 -3 -10 -5 32 8 23 11 3 19 16 -31 -12 41 -3 -5 28 30 -18 49 -15 -1 11 14 -52 -16 -3 -40 10 -40 22 5 -30 15 26 18 -5 18 -33 -40 -11 -2 0 -18 26 10 9 -3 7 -18 -12 -18 -13 -20 12 -32 0 40 37 -4 -1 32 -11 -15 -14 20 -24 5 22 -38 -29 32 -26 -11 1 6 -4 0 -8 2 22 22 -28 -14 8 0 7 -24 -7 -40 -21 -30 10 -18 25 -37 10 -13 18 -25
-22 7 22 -3 -43 -7 3 25 -38 6 -5 -20 -12 -16 -6 -25 21 12 -24 22 -21 26 38 6 34 38 17 -14 -2 37 -9 11 -16 -31 42 54 23 -28 -4 43 29 30 58 6 41 -12 -3 -4 -31 -20 13 28 44 -2 -8 -12 -20 -22 31 37 -5 -50 -8 -26 -38 -5 22 -8 -16 -12 13 10 13 -36 13 -36 15 19 -30 4 18 -42 -31 10 25 -29 -33 0 8 -15 -6 -2 16 -31 -11 -44 25 -17 -18 -32 -39 -25 -5 -39 21 -18 -6 -5 -9 -28 21 -40 -17 21 -30 -15 12 -17 2 35 -6 4 -42 1 -41 20 -27 9 -32 26 -20 -12 -7 -36 22 -13 -35 -8 -1 22 -25 12 -9 0 10 9 -26 -32 -15 1 8 -11 6 -34 -29 -5 -2 -22 5 6 50 26 -7 -2 26 16 -1 30 36 1 26 -7 -9 -16 3 -10 20 -6 -17 8 -28 18 -7 -16 14 5 32 9 -30 -18 15 -13 -14 28 -7 -4 6 -16 35 -15
40 -29 -29 -15 -9 -9 31 -1 19 18 -9 15 -16 14 -18 18 43 -3 20 -13 -14 32 24 1 -32 -21 -31 30 -20 -26 -8 -30 31 -31 -17 35 6 18 24 7 -27 13 -8 -9 33 10 22 22 -31 -18 -18 13 10 10 -24 27 -30 -20 -24 31 3 15 36 -11 -15 29 -12 5 -11 16 23 -2 27 18 -23 23 33 -21 21 -20 0 3 -36 6 -14 28 -6 -9 27 15 15 -31 -18 -11 18 7 4 -12 -2 1 19 -14 -30 -10 7 0 3 8 -8 -19 -19 26 7 -23 -25 7 -8 -28 5 5 -24 -1 -25 -27 -17 29 16 -30 18 12 9 35 -27 -22 -6 -30 -28 -25 -26 29 -9 -8 2 -18 28 16 27 28 -24 -16 13 23 31 4 -14 18 5 25 13 21 -1 17 -22 -16 -33 -14 40 -10 29 -13 -19 6 4 -10 -19 -15 -21 -12 -1 5 20 -6 25 -28 18 -32 26 25 20 -25 -14 1 16 12 11 -2 -12 -4 27 24
2 -27 -26 -2 -5 -30 -27 -28 -18 -21 23 12 -33 23 -11 -6 29 3 -9 5 10 -10 -29 -30 9 -27 -27 -23 -6 -20 4 -5 -4 7 -14 -32 20 -20 -28 26 8 24 25 15 44 -11 12 32 25 8 29 10 -27 31 18 22 -14 -18 -21 22 27 3 26 19 11 -32 2 11 -2 13 9 -34 30 -8 -6 21 -25 -6 16 -16 7 -26 -15 -29 13 -3 1 -42 -10 15 -6 -24 -22 -28 22 -45 -26 -18 -19 -17 27 18 4 -21 20 18 34 -22 25 3 -18 -15 26 22 -16 9 28 -7 -21 -8 -44 -28 -14 -29 -10 -5 13 3 6 28 12 13 10 -45 28 -28 -21 27 -26 9 -22 -14 14 -47 11 -12 19 -2 18 -29 -2 -8 14 -25 5 -23 22 19 -10 -30 36 2 -38 -1 1 2 4 15 15 -17 -36 -15 -7 13 -30 4 14 -3 3 31 -2 -4 7 -22 16 55 35 9 -27 3 16 -18 11 -20 -18 12 3 16 21 8
27 11 36 -13 12 -10 24 21 -21 23 -17 -30 -19 -26 -2 -17 -15 50 -2 -22 -23 -32 -9 -24 -18 13 -19 12 -21 -28 -17 -30 11 -6 -1 -16 7 12 -26 -13 16 16 10 -7 -14 19 -18 -24 -5 -24 30 -17 38 14 23 -7 -4 19 -22 8 -30 7 23 0 23 -38 3 -10 15 32 4 21 -43 9 -4 9 16 -33 1 -7 26 -26 -17 -5 38 5 31 -16 8 -28 13 -27 -20 -31 12 22 37 -2 -4 -4 39 21 25 37 22 -2 -23 26 -13 -11 -9 12 -33 29 -2 35 15 -18 -12 19 21 -20 39 -28 -2 -15 -13 31 -25 -16 29 34 -23 36 25 7 29 -16 -21 3 15 32 -6 -32 -23 -15 10 -24 21 -37 -31 3 28 -25 2 -9 6 -29 -10 16 -2 -9 -1 3 -37 -33 -14 7 -24 25 -33 4 -29 10 26 6 -30 -33 -20 -19 11 32 18 16 6 2 -32 -7 20 24 -29 -13 -9 -14 -9 7 16 2 5 23
17 -7 -27 -28 5 4 -5 6 -22 32 -20 16 13 -28 31 16 14 1 5 2 -18 14 8 23 20 -4 -10 -23 -22 -7 13 -10 32 23 1 8 -34 0 -30 28 1 47 15 -12 -21 -5 -3 13 27 -14 24 21 -18 11 12 32 9 30 -24 28 12 -32 -2 -2 -11 15 -31 18 -5 16 -10 -8 -11 10 -26 -17 -29 -9 -31 -25 -26 16 18 -9 -22 -22 2 17 -16 -5 25 -6 -13 5 -25 -32 -16 10 -21 10 -12 -23 16 -10 27 26 22 -9 -8 -19 -22 -6 34 -2 -3 24 -1 29 -2 7 10 22 -34 1 -3 -6 -17 -2 31 24 -20 -3 -18 26 17 31 26 -7 33 -9 -5 -1 9 -49 -14 -15 6 15 -13 2 17 9 19 -7 -8 -44 -32 -3 -31 -11 -14 -6 1 -18 -30 14 -1 14 17 8 17 -6 -12 12 19 -3 23 -17 -22 -21 -3 -19 25 6 19 -8 -34 28 17 -35 3 -1 24 -25 21 9 -35 22 -25 26
-14 -8 -8 3 -9 3 24 9 -29 -24 3 16 17 -7 31 5 -14 -20 -26 9 -2 7 -23 -14 -2 17 -24 6 4 26 19 -5 36 -1 25 -10 -4 -30 26 -10 21 -16 -28 -30 26 16 -16 3 27 14 16 -4 19 -1 23 23 -30 1 27 24 -31 -25 -7 -17 -13 24 13 7 25 9 -13 -1 -5 -17 -5 -20 0 -22 2 15 29 -33 27 -13 13 -16 -10 -12 -35 21 -20 -21 -25 4 9 -30 -7 19 23 15 -24 26 -26 -6 1 -15 30 8 0 -13 28 -15 -3 13 -19 -3 -24 30 14 32 20 4 4 -6 -27 18 25 32 -30 15 -1 -17 -1 28 -12 18 2 -25 12 -14 20 -23 14 -46 -20 13 -26 18 -16 -39 6 11 23 4 19 6 3 22 -8 -8 28 -18 28 -14 23 11 20 6 21 7 -22 -11 -11 14 13 -28 -18 -13 13 -17 15 18 9 -2 38 -7 29 3 24 -9 16 18 35 20 -29 16 29 32 27 3
-15 22 23 -28 -7 10 -25 4 3 -16 -16 6 1 -24 24 37 1 -30 -26 -24 15 1 -8 10 12 -26 -4 -28 1 -31 -5 -9 1 -23 12 14 -16 -28 -23 -19 -14 -7 32 31 24 -24 -10 -7 2 -29 26 2 -7 30 -17 -20 25 -32 24 -12 20 -8 -36 29 5 7 9 11 -23 -25 -21 -10 -3 10 27 2 -28 -7 -36 18 -3 18 7 7 15 7 31 -7 -31 -22 29 -15 -4 -11 1 -36 -23 5 -21 -15 12 -23 29 29 7 18 5 11 41 38 -2 -23 40 29 5 -3 17 9 -9 31 20 -30 -24 9 17 -26 -6 -28 11 1 29 25 22 -33 -29 5 -1 -20 -32 9 -20 13 -8 -27 19 -30 16 30 -4 -19 8 -23 23 25 -10 -4 -34 -7 11 13 -13 20 -30 -7 -6 25 -1 -22 16 -10 21 15 16 15 -21 -10 -13 -5 25 24 -21 -15 -12 -12 25 5 -36 22 27 -22 20 12 -8 11 -24 7 11 -32 5 -18
15 24 -26 11 11 14 -8 6 -11 26 -19 26 41 -27 16 29 58 13 18 2 -28 3 32 -22 -7 -9 -15 0 24 11 -16 -35 12 28 26 20 -7 17 -4 3 -12 24 17 4 -6 29 1 -3 8 -18 10 18 28 12 -30 -20 -16 6 -5 -46 10 21 51 -4 -29 -11 28 5 38 -26 16 -10 15 32 -7 -30 7 -5 -4 -23 -20 -31 18 -28 16 -30 10 26 47 42 -21 -16 -1 9 30 28 -26 33 -18 6 9 -1 -5 17 -9 13 17 0 30 30 -6 -24 7 -21 -19 10 -16 30 -27 12 5 23 -3 -38 -2 5 5 1 -25 16 15 3 0 13 20 33 -25 -50 -35 36 22 -17 19 -9 -11 -12 23 -6 -43 -27 14 -33 -3 -27 36 -13 -30 -15 -20 -7 36 2 23 -26 18 26 35 -5 0 -44 -4 17 23 -4 -6 -42 -28 -27 25 -5 -1 30 -37 36 20 -1 -8 11 -17 5 27 -21 -7 27 18 1 19 -16 -7 13
-43 19 17 -30 -41 -23 5 -37 -1 25 -12 0 12 10 -18 3 -9 -3 -1 -9 1 5 -4 20 -8 -6 40 23 27 11 -15 11 6 -11 55 18 -29 19 -10 31 -5 -44 -26 -29 -3 10 4 25 -33 0 -21 -28 -30 -5 18 5 24 -21 -5 19 22 -26 -12 27 -32 -25 29 -32 -3 -21 -19 -31 -20 -31 10 -17 0 25 -1 6 -17 66 13 -12 10 -13 17 2 -5 14 2 -25 -12 30 42 22 -29 -13 -20 -4 21 -24 45 -7 9 26 22 3 39 18 23 6 13 23 -25 -22 27 -16 -12 31 -29 -32 -18 -3 -9 -36 -15 -24 -12 -8 -13 -14 7 -34 30 16 14 -24 -27 -15 -12 -10 -20 1 4 -15 9 21 -32 -24 -3 -8 24 -31 -11 -10 -45 18 -28 -13 -18 -35 2 25 23 -8 20 -7 -6 24 27 8 -26 10 20 9 -18 30 13 -30 26 -2 -21 5 10 21 -8 24 15 20 -23 -18 6 29 25 -21 38 -21 -3 13
-15 24 37 18 48 17 -24 -24 31 -21 17 -28 27 -17 28 -3 -4 35 -2 10 8 26 -7 9 -35 28 10 0 -16 15 -19 13 24 -32 31 -16 -26 16 -28 1 39 44 53 23 -11 17 1 22 29 13 7 -21 6 -24 50 21 6 -28 20 17 12 -62 -34 5 3 -24 -31 2 -5 17 5 4 -23 36 -1 -11 -14 24 -12 -39 -28 -24 -38 -17 -10 -52 -18 -28 26 21 29 11 31 -37 -49 -22 -26 19 -9 -2 6 -15 2 -36 26 -7 -3 33 14 13 3 -34 -36 -1 -8 -17 20 -30 11 3 -21 15 -23 -19 -55 -12 7 -15 16 -38 18 -38 -29 2 -9 -15 27 -11 -13 -26 -19 -19 -12 -6 11 -60 -29 -27 -30 -21 32 -18 -21 -23 -31 -21 24 -31 -57 -23 23 17 11 16 -13 25 -29 11 35 29 6 14 27 9 -14 -17 29 -6 -16 -12 -20 -20 4 -11 0 23 26 40 31 28 -17 13 16 15 32 37 40 -5 36 30
-28 -16 5 17 -16 -31 -13 17 -22 17 -11 -7 39 40 32 -16 10 -15 13 28 18 8 -3 -30 -15 40 29 18 13 -16 -26 26 -7 33 9 8 2 -7 34 20 17 2 48 -6 42 -7 4 0 40 4 51 11 -3 -27 17 14 6 -21 7 31 -44 -56 -21 19 -57 -10 -23 -28 -14 -1 30 0 0 1 -16 -32 -29 1 -12 -6 21 14 19 -7 -16 -24 -31 -15 -12 -7 31 -26 24 -13 -21 20 33 21 17 -17 7 4 23 18 -21 18 36 31 -3 -14 -19 -15 -17 -36 8 13 4 11 28 13 -12 5 -28 19 29 10 18 3 14 5 -26 -19 -37 -25 -15 -32 -20 -4 -25 26 3 4 -35 13 -5 -25 -11 -3 11 -28 -14 11 -35 -26 -3 6 -10 26 -35 2 -14 -2 -28 32 -25 -17 -16 25 12 6 8 -27 -7 -19 -15 -35 33 27 -34 7 7 -21 -25 -11 -20 21 35 -15 20 -17 6 25 -23 -33 -17 -3 19 -34 -12 -23
-13 -13 4 -1 28 -22 12 -33 -19 -2 17 -7 15 14 -13 32 -17 -25 -14 29 -8 -34 0 -16 2 11 -13 20 -18 -26 22 -23 -31 20 -3 -3 5 -4 -18 -28 19 7 6 17 1 30 4 1 6 -12 -9 -26 14 32 -5 -21 -15 -9 4 17 16 -38 -6 -26 -7 -14 23 -36 34 5 -24 -16 -11 20 17 -7 -13 -15 -24 -5 6 26 -23 23 -23 36 -5 -25 20 20 29 -18 8 -33 17 -3 33 23 -24 15 -24 -1 -23 11 -24 15 -2 5 18 34 5 -8 40 -36 -44 -1 0 9 -1 17 -2 -1 -17 -15 -12 16 -31 -27 -2 38 37 4 7 20 0 -12 6 11 19 -29 -26 -32 -23 35 26 -17 11 -12 25 24 -21 16 16 39 -13 2 31 19 31 19 -3 8 33 20 24 -8 22 27 -5 -32 34 21 -12 -9 16 -4 -19 -10 22 12 12 -6 -15 23 24 -39 31 -19 -18 42 -19 5 -37 -1 18 -20 15 -2 -35 21
28 -8 -13 -25 -9 41 -10 36 -28 9 -8 33 18 12 6 18 8 -28 15 -37 -11 13 -29 -14 -8 -12 2 -40 15 -25 -15 26 17 -1 -13 -4 24 -9 -8 3 0 6 45 -31 -9 -14 4 3 16 -1 14 34 42 3 7 -18 -12 21 -26 52 20 11 -17 16 -17 -10 -30 17 -18 -32 -1 -15 -31 -4 -37 12 17 -7 31 26 3 16 26 -21 29 42 -32 -12 4 -12 4 -21 -32 -3 18 -5 17 15 -25 20 24 -17 27 40 7 31 17 22 6 4 22 32 -15 -1 32 28 -9 25 -23 19 -9 10 20 -6 30 -7 3 -38 12 7 18 -23 17 -28 18 -10 -25 -30 39 -6 -7 28 24 -13 15 13 -21 -9 -41 18 3 -17 15 27 -9 10 36 -7 27 21 -33 -29 -25 -5 3 -16 -15 14 -11 -26 -31 -23 -4 -23 -26 10 -18 -12 -23 -17 14 7 11 -8 10 8 -10 -35 5 10 4 -25 18 -28 -29 -15 -5 5 21 -8
28 30 -34 10 -26 -6 15 -38 -25 -22 -3 -28 36 -1 -20 15 29 27 14 -19 -1 10 -6 31 29 26 -23 16 -7 -10 -23 -1 -7 27 -2 -28 -33 -25 4 24 -20 26 -25 -17 22 -4 -16 27 -17 14 -17 8 8 39 25 -1 -26 -22 -5 13 -5 -25 -13 18 -12 -8 14 -18 13 6 -27 16 4 1 -5 -39 -8 20 -9 11 -8 -14 11 -37 -9 4 -9 -37 -23 5 25 18 10 10 -17 1 -32 13 -1 -26 29 -5 18 8 -20 -16 18 -10 14 20 22 -22 -40 34 -6 14 10 -18 14 0 -1 -37 -16 -9 -23 2 -12 -10 20 -15 -41 28 -19 12 14 -24 -29 -18 7 23 -42 34 28 9 -26 -7 15 13 -14 -24 19 -4 -9 21 19 15 -3 -13 -38 -9 -32 16 21 23 -18 -19 8 -29 -21 8 -29 32 -42 -13 -18 28 -18 2 2 8 10 11 11 13 13 -11 -16 20 25 14 12 -3 -14 42 -11 -21 -19 -32 11 -12
43 -28 -7 47 26 32 -13 -3 -10 11 35 -10 -4 -6 45 -21 4 32 38 15 -29 -14 -13 0 -13 -17 26 19 -31 7 24 -15 -35 -7 32 22 -21 6 26 -27 20 2 49 20 -33 2 -7 -20 9 -30 44 22 3 24 9 -28 -1 31 8 -28 11 -46 -29 -28 -23 23 13 -40 13 2 -3 -23 -3 -22 -17 -10 1 -31 -5 -4 8 -15 -5 -13 -8 -6 -28 -41 24 -34 12 -37 -3 3 7 -6 20 11 14 3 -16 28 -16 -14 -15 -20 0 -16 -14 -6 -14 6 21 -26 -26 20 -32 34 -15 18 18 29 -40 -6 -19 -42 0 -17 -10 22 4 -24 -40 1 26 -10 25 20 7 -29 0 -22 0 21 19 -26 -31 3 29 -6 3 -25 6 -16 -5 -38 -4 -31 -2 1 39 12 4 -1 27 42 0 26 8 -31 26 -14 18 2 16 -14 -22 -11 33 47 22 33 -7 -2 -22 10 -1 15 -24 -15 -12 35 -9 -1 -24 -1 17 34 20 -11
-32 -28 -14 29 26 -29 -12 -21 -1 -21 -24 -5 29 -20 18 -3 2 -14 -20 7 -28 22 47 7 4 35 -20 -2 -15 36 35 -34 -10 -8 -16 36 16 -28 -3 -12 33 -8 15 -7 22 17 11 -27 21 -14 -19 -29 -5 8 33 -22 -10 -5 28 4 -8 -8 -15 -22 26 -28 28 23 11 -31 36 10 -7 -21 -21 29 0 17 -31 -23 -12 22 23 24 26 21 -17 -32 16 -9 0 -32 14 -18 -22 2 -4 -21 -5 -19 -3 -20 24 40 27 22 -13 10 -5 -14 17 -17 10 4 38 -10 -11 40 21 -28 -5 -25 -16 -4 -13 -35 10 -34 2 -8 -31 -27 -7 -22 -32 9 11 22 23 -33 -21 16 -7 10 1 -2 0 -1 -30 -4 17 -21 -15 -47 -23 -47 -48 20 -57 -19 27 3 13 25 -2 -30 34 19 23 27 10 21 1 -11 -7 -25 -5 29 -24 8 -24 3 22 -23 5 7 29 -6 37 15 22 -21 11 -9 9 28 -4 -29 33 0
-24 -1 -2 33 19 6 -22 35 37 23 -23 -24 -5 -23 38 33 21 28 20 18 -8 9 9 -25 -29 21 4 -31 -25 18 24 -31 25 -31 -1 32 4 7 -23 -6 17 11 51 5 11 10 -12 -28 27 -28 8 33 12 26 -20 2 3 -20 17 6 -27 -46 -26 4 9 10 -28 -38 22 28 23 -8 -44 -34 -21 -31 4 8 -36 -26 -13 -22 17 33 1 11 -9 -5 20 20 -27 -37 5 3 14 -30 2 -31 -13 -28 -10 -21 2 27 22 26 34 28 3 -1 19 12 -12 30 23 -2 -11 -8 -20 20 -23 -25 18 -25 5 -6 20 -29 17 -36 -12 9 -41 -16 -13 -32 -19 -33 -21 19 -20 -5 5 -4 6 15 -25 32 -4 -15 7 -7 15 -19 -23 -7 31 24 -16 17 -26 -25 -24 -5 -4 5 -11 25 -3 -15 -22 30 -26 8 -3 8 -21 -7 14 4 -22 -9 9 -11 24 6 14 39 -11 14 12 -30 23 10 18 11 -6 23 -9 -3
5 -3 27 -7 39 5 -20 -9 -29 3 4 4 16 -2 -24 -12 6 -3 12 -28 21 -4 26 -27 21 31 18 -15 18 0 6 0 8 6 36 14 -21 15 16 -28 14 39 21 22 36 -10 -21 25 13 -23 -6 35 -5 17 -16 17 26 -24 1 -6 -14 -23 -16 14 -29 -12 19 -21 26 8 29 -22 -26 15 -21 -9 -16 -11 -26 26 -2 6 19 -22 0 -33 -12 14 17 7 15 2 28 0 4 13 -5 -20 -22 -19 -17 40 42 6 12 -9 -2 -3 4 -19 5 -14 16 -9 -8 37 40 -17 19 -18 -30 -16 -11 29 23 12 -7 -26 30 -19 21 -33 5 32 -29 7 -30 20 21 -19 -37 19 31 -25 -18 -7 18 -14 -18 21 6 -12 3 -12 4 11 -29 -23 -14 31 -6 -26 -10 3 -34 -32 10 10 -8 23 -42 10 3 -5 -31 -3 25 -11 17 -44 25 -2 1 -2 24 -24 29 19 20 15 -12 -22 2 -9 -34 16 -20 -24 16 -13
33 8 4 18 17 16 9 8 52 -2 -23 -21 1 -13 4 37 24 3 31 44 31 14 -21 0 -20 -30 -28 -3 -8 26 -21 14 27 -7 26 12 30 14 7 -13 -16 29 13 31 3 -13 -1 23 15 -9 -13 -11 16 11 -10 18 -23 23 -34 5 10 -38 10 14 -3 -44 9 -3 -34 -20 -25 14 -23 -4 0 -53 -31 29 38 -17 18 -6 -38 29 -24 -4 -33 8 31 6 -3 33 -2 -30 13 15 4 4 -7 -24 24 42 31 17 9 -13 13 42 20 31 22 -1 -10 4 11 18 2 22 47 7 -10 26 -28 11 10 -47 29 25 -1 -9 -19 13 25 -18 23 -29 26 -4 -31 -16 -51 -4 -18 -32 -34 -22 15 -14 -14 -13 27 -8 -25 -26 8 -13 -3 -2 10 -36 -39 -20 -17 23 -20 -27 -27 6 -8 -29 -28 23 -24 16 -34 -18 18 -7 -27 -12 -8 4 -5 25 -13 33 -4 6 1 11 9 -11 17 14 -8 45 24 -22 -6 -24
-10 -37 -22 -9 -32 -9 18 23 -9 21 6 -5 -27 -24 -8 6 18 18 23 31 15 21 35 -23 -10 24 0 5 -19 23 13 -10 19 21 48 37 23 -31 16 -13 -26 23 -10 -5 -27 -13 -9 3 -2 -31 21 -6 19 -11 -17 -17 21 -19 -16 -8 24 2 14 -7 20 -13 -11 -26 24 -21 9 26 12 22 0 32 -3 15 -27 0 -25 -1 10 27 -9 22 6 7 -15 -26 11 -40 -1 -15 7 7 -1 22 -31 -23 16 -27 13 -31 -13 -10 10 11 34 -18 20 -20 -5 10 -7 -16 -31 38 3 21 -14 1 -16 -20 -16 29 18 23 -28 -29 -33 -7 14 25 -4 -6 24 -24 2 14 -7 11 -30 23 27 28 -21 1 18 0 -13 -18 8 19 -17 -14 8 17 -41 -34 12 7 -10 -35 -43 -28 -8 -32 11 -53 -13 -8 16 19 10 -11 0 -32 7 -26 19 32 7 -28 -2 30 -28 26 -21 24 9 16 -24 17 5 -10 0 17 -11 10
24 20 24 33 2 -18 -19 21 -24 25 2 6 26 -5 16 31 13 12 7 -4 17 3 -4 -3 29 16 22 -6 21 33 7 5 20 10 18 18 25 7 4 -30 21 -22 -29 -4 22 1 10 29 -32 24 5 13 -26 3 -6 17 0 18 27 8 0 28 -8 22 -9 -9 -5 28 15 -19 -23 18 20 25 24 -24 22 -21 17 -7 2 -5 -21 -19 15 19 -12 12 11 -3 26 0 -12 -5 -19 6 -10 11 -27 1 -8 25 6 3 31 -21 37 22 -17 5 22 -13 37 -29 26 13 -4 -2 21 -21 27 26 -27 24 10 15 -23 18 -31 15 -21 15 21 -23 -20 20 -9 -9 -32 20 -34 15 -16 -23 15 6 17 28 5 -33 30 1 23 -32 -27 3 -33 16 22 18 30 -31 9 26 28 -27 18 31 -19 20 -32 29 21 8 -5 4 15 -15 -6 20 14 -29 -11 -10 31 9 -12 -15 16 15 6 5 21 28 12 5 -6 -21 -15 20
-36 -23 -27 26 2 -4 -19 18 19 13 -15 43 -14 6 12 19 10 -11 -14 -25 -32 6 39 -11 5 2 9 11 18 -3 13 -21 0 5 17 -7 25 -20 -10 17 27 2 15 -9 -14 24 26 30 -18 29 8 11 34 -31 23 -27 23 -1 12 -22 -19 17 -1 -24 9 10 14 56 59 -9 -6 -23 -8 3 42 29 39 3 26 -12 -29 -10 -17 -20 9 10 25 9 -29 -2 -45 15 31 32 15 6 -31 -21 23 0 -42 -33 -15 -18 -54 1 9 15 21 38 -4 -23 -43 9 31 4 3 14 13 -15 -11 -15 -36 -13 -46 -31 0 -38 2 0 14 -31 -62 -12 7 -22 2 -31 -64 -35 -30 -13 -43 -26 1 -24 10 27 -28 -51 18 4 -48 -7 18 -56 -34 10 -24 -22 23 27 31 34 16 45 27 -2 57 2 38 46 30 9 8 -11 37 22 2 -8 3 29 15 -3 18 23 10 21 -22 -24 -2 -14 34 46 43 38 -5 -11 7 25
22 -4 -20 -46 -19 13 -25 29 -23 7 -4 22 -35 31 -7 24 36 0 -16 -17 -31 -6 -18 -8 23 20 7 -22 -16 31 15 -33 -22 9 -18 33 -10 -30 11 28 10 8 12 30 53 -31 -10 0 -7 22 21 -11 2 2 4 28 37 0 13 29 -33 10 -13 -3 -39 -30 -32 -36 -17 -11 7 12 -62 -40 -28 -15 -21 15 -24 -34 -1 2 5 -10 12 -5 2 -6 -29 -32 -19 -27 -22 -5 22 -45 28 -26 -30 15 36 -9 -6 -7 21 44 25 19 -6 -18 4 16 33 43 47 23 23 37 -18 25 25 -5 4 -28 8 9 26 14 3 -27 28 -21 15 4 17 18 -19 -5 -26 -1 1 6 -15 5 -18 -27 2 -15 -46 2 8 3 -35 16 -33 -19 -7 16 -12 10 18 14 18 3 17 -21 -6 0 -22 -20 -9 0 17 17 -7 -6 18 2 -13 5 6 12 9 38 10 -16 4 -2 38 5 30 -10 -1 5 31 -28 -31 -7 1 -18
-9 -27 23 6 3 23 22 5 33 -16 -24 -41 17 -12 -27 9 4 -7 2 16 5 -20 13 -15 24 34 27 5 21 -27 -19 29 10 14 3 34 -25 0 -6 -14 53 5 43 -12 11 -7 -27 11 -20 -25 47 18 26 -15 38 18 -33 -17 3 30 8 -30 -27 -23 2 -8 31 12 13 -30 -29 3 -36 -39 -1 8 -31 -3 -28 -17 -14 16 12 16 31 -5 19 -42 16 4 20 17 -26 -7 13 -13 9 23 -32 -27 -16 13 18 12 16 14 17 -4 -19 -25 8 -28 -6 -15 -6 13 12 13 -31 -14 -34 28 -28 -1 -59 -59 11 -32 9 -37 40 -21 -28 -67 -24 -26 -3 -16 -48 -74 3 -34 -27 6 -30 -32 4 -7 -9 -13 -34 15 -7 -12 -54 -24 16 -26 -4 15 32 -26 -23 9 -13 20 23 -21 10 15 -17 21 -22 -18 -12 -15 19 42 -25 11 17 25 -25 4 4 24 33 -7 -17 -16 28 -14 35 24 -23 25 32 -36 53 -29
-30 7 25 -9 -4 5 32 7 33 8 20 27 -3 12 17 10 -16 26 20 -15 -12 -17 25 -33 1 25 29 -16 -36 20 -22 14 10 -14 8 -9 -27 -12 -6 -10 25 -14 13 -29 -28 -24 21 23 12 6 -1 12 20 -25 -20 -2 29 19 31 -3 -40 -30 -42 22 13 -24 -28 14 -2 25 5 -6 -21 -37 -15 -40 -2 -13 12 -31 17 36 1 -14 8 6 30 5 31 -1 45 35 -26 8 29 41 -17 31 -9 32 -35 21 -41 -10 -19 -6 -33 18 -9 36 -22 -2 -19 -20 -9 -5 25 12 5 -22 39 44 32 29 47 -1 20 -16 31 21 -25 41 55 14 -27 33 10 11 16 20 -42 1 6 -12 -25 -29 10 3 33 16 -13 -14 -9 -10 -6 20 -4 1 4 -26 -8 22 -23 7 -1 30 28 38 38 2 -5 33 37 16 -11 41 36 44 -6 38 7 1 -11 22 26 -4 -38 8 -5 -20 -33 -14 -29 13 4 13 27 21 25 9
-28 1 -23 -7 2 -11 -7 -15 5 -29 -32 -4 -34 -18 5 10 -31 -24 26 5 -7 20 -9 18 16 30 -3 28 14 -10 -1 30 29 -8 -16 2 0 3 23 25 19 35 -14 29 -9 11 -4 -25 -6 17 7 -11 22 33 12 18 -10 32 -24 -7 -7 -2 -20 25 -16 2 -1 19 13 4 -28 13 -20 -32 -42 19 -18 -33 31 -6 13 25 1 -3 38 4 11 17 14 14 9 10 3 28 46 20 24 16 36 -31 9 4 7 -19 -12 -5 3 -19 -22 -26 0 -8 14 -31 -30 -45 -30 12 5 -25 -8 19 7 10 31 -11 -29 14 5 16 -16 -22 14 21 -8 7 24 21 -11 0 1 -27 2 0 9 -20 -22 -21 35 -2 25 6 -9 -20 -8 -4 0 23 -22 -19 16 27 27 16 -31 2 32 -23 22 18 10 -1 -16 28 -25 -8 -6 3 -25 -22 -40 -17 23 18 -25 23 26 40 -8 28 -23 20 -16 32 -7 -23 23 18 32 -26
-22 20 -29 -4 12 -3 2 -13 -33 25 -11 24 17 -3 -12 10 -10 -38 26 15 -14 15 -22 15 24 -12 12 -37 4 2 -40 -28 -8 9 14 -11 22 -6 -22 -25 38 58 18 -14 46 17 9 4 73 32 46 -12 14 30 62 -15 30 16 29 42 4 -13 -2 -16 -75 -37 28 -46 -1 -31 -25 -44 -1 9 -39 5 2 12 -11 3 26 -17 13 -10 2 42 -9 -15 19 -9 -20 19 -12 -1 35 20 -7 -12 30 20 -26 4 6 -27 -11 -12 17 5 9 24 -31 -28 -30 -6 25 -48 4 -11 1 -19 28 19 -20 2 15 7 -17 -15 -13 -2 -10 3 30 23 30 25 -2 34 -3 32 9 -36 29 3 -3 -18 0 22 -6 -37 1 -6 2 12 -22 -5 -13 -9 -15 -30 -24 18 26 30 -23 0 26 -8 -13 -18 -27 4 -14 -15 -49 18 -26 -33 13 24 4 21 -22 10 -27 23 -12 25 10 0 3 -22 21 3 -26 -30 36 0 14 -15
10 -15 -18 7 27 24 24 -19 8 -7 26 -19 17 22 2 14 8 2 19 12 26 -7 -11 26 -17 15 -16 5 9 22 -1 27 -17 -7 28 -10 -30 -21 1 2 -13 2 9 3 2 16 31 32 34 -12 4 10 -21 -4 -20 26 31 20 -33 2 -18 -11 12 -21 4 28 -7 13 6 12 -29 -6 9 8 -36 -4 3 -21 6 -25 -12 14 -38 -11 9 -2 -29 -23 -31 13 -11 4 -23 -21 -19 -31 -25 -32 14 -33 13 25 18 28 15 49 25 23 28 -2 11 -4 -21 28 17 -6 13 -14 -7 -2 -16 -13 -30 -11 -28 -13 -4 2 -6 8 -2 25 10 16 -12 10 -15 17 -18 -25 -28 -15 6 -9 24 -8 10 2 30 15 11 -18 19 -8 24 -15 26 -33 -22 -17 -4 21 0 -18 12 11 8 9 -28 -29 -18 -31 -26 -8 20 -30 -17 -4 22 30 -19 -11 -21 33 -11 25 -16 -25 -5 21 8 1 30 -12 28 -10 12 6 30 -15
4 22 13 -17 -40 20 -44 -31 -10 2 -24 -28 16 0 -14 -18 -6 17 -7 -12 -6 12 31 23 0 46 6 39 32 4 6 -21 13 -1 33 38 -9 -12 24 16 -53 -47 -52 -31 -19 0 -15 20 34 10 13 -11 -52 15 -3 2 1 -20 1 -35 -28 0 -23 27 -19 8 2 -11 -3 -13 3 4 -34 4 -5 16 -21 -12 -19 -40 -17 14 3 26 1 -15 17 -13 44 22 26 -16 -13 37 40 2 -14 16 -15 -24 27 -25 -18 -31 -9 -2 16 16 -17 -19 -16 29 26 -1 -18 -17 -13 -11 -32 12 25 15 24 29 -41 11 -4 -24 22 -23 29 -45 -19 -3 -6 -9 -27 26 30 -39 -7 -20 -20 -20 20 -20 24 -24 16 -17 15 14 -11 15 28 -1 -25 25 -46 17 -15 25 36 9 -22 -24 24 -12 -9 16 15 -7 13 34 23 10 -11 -19 4 -2 -29 -32 -27 -28 -18 18 37 30 4 6 -17 -20 26 -9 23 8 -25 3 8 23
5 -32 11 -20 -8 19 9 -16 -27 31 11 32 13 -22 -5 8 21 -6 25 11 11 -15 -19 -19 23 -13 2 -32 10 10 -25 -30 -10 -9 -26 15 23 -19 5 21 -11 -3 -12 -20 8 -5 23 -9 -28 -32 25 -9 12 -32 -30 10 22 12 -6 -24 4 1 23 16 26 -26 -27 -22 10 -3 3 14 -12 10 -20 -23 8 27 2 -35 -13 -3 4 26 -31 -20 2 -25 9 33 21 30 18 -16 17 4 18 -22 3 23 38 27 -33 39 21 -27 1 -17 7 -4 30 23 29 8 3 -4 26 14 -15 -16 20 -5 19 -24 -39 -29 -21 12 32 -28 -28 -5 -36 21 22 0 -7 -28 -17 -28 -26 18 -20 -27 11 -37 28 12 11 -14 3 -9 -1 -25 -20 -7 -11 -33 -19 9 -13 14 -27 33 15 -18 12 20 -6 -29 16 -28 -23 4 -10 -33 1 15 -13 0 20 -11 13 19 23 -30 -19 32 12 -10 2 -9 16 -12 -5 3 31 -7 -10 -5
30 -12 23 -32 -4 -15 -9 -29 -2 -18 -4 -4 -19 -18 -29 -25 -27 15 -14 34 30 -11 -19 22 28 -8 -24 -28 -14 -21 -16 -13 -8 27 -26 -29 15 -3 -17 -16 19 16 22 -12 19 22 -32 19 37 24 -10 -34 -3 11 33 2 14 14 -15 -6 -10 -26 12 -1 12 31 31 11 4 -26 -16 26 27 16 -29 -20 24 14 -34 20 3 -6 -16 21 11 -33 -1 4 -28 -25 -41 -24 10 12 -13 6 4 -30 4 -25 -9 -15 16 -20 -9 26 50 29 27 6 21 -34 -26 19 12 24 -32 1 6 -4 -23 22 -16 -8 -1 -29 -32 -10 -28 -28 -3 6 -30 20 2 -23 10 28 31 -18 -10 3 -2 -28 25 21 27 -9 8 -33 -24 27 9 2 15 17 27 23 -6 -24 -5 -23 -16 -25 33 -32 -22 -29 21 3 10 -17 -26 -8 4 -38 28 38 34 10 24 -17 32 -32 26 2 -14 22 3 -18 -2 -30 -1 4 -22 9 -27 8 -26 -15
3 -18 -27 9 -12 20 22 -23 -19 2 36 -28 13 3 23 22 29 20 -20 44 35 -4 -8 -26 -28 -2 6 -9 -27 25 28 -26 14 4 -25 27 11 17 26 -25 4 -11 18 32 -8 16 -23 -24 7 -31 -26 -9 7 15 33 31 -32 -14 -19 7 -2 22 -20 16 3 6 -10 -33 -31 -23 11 -14 0 -18 21 23 -20 12 -9 -19 30 -12 7 -8 9 35 -28 13 24 -9 -17 25 2 12 -17 9 -9 -26 -25 15 0 17 2 30 33 -25 -11 43 15 17 26 -21 45 3 1 17 -27 -9 16 14 1 -2 -15 15 -5 6 8 -25 -32 -30 -22 -15 8 -10 6 -6 -22 1 -19 13 8 15 -9 13 15 1 6 -7 17 -5 32 -7 10 -19 12 -8 -14 0 -11 1 -22 -3 -9 21 -22 -34 6 -32 16 -2 8 5 -8 26 24 -3 9 1 -27 -12 -30 23 -17 -8 17 17 19 11 26 -2 2 10 -7 32 -4 17 12 27 4 -26
-27 -3 28 -28 -33 -27 -8 -12 9 -9 32 -7 26 -24 12 1 24 26 3 15 15 -15 -16 -26 0 -22 19 -20 23 23 -20 5 6 5 -23 6 18 -21 22 -2 -16 4 19 -5 29 14 0 19 44 16 16 -17 4 28 -12 20 2 -15 5 1 21 30 26 17 -9 -12 -31 -2 14 15 0 25 21 25 -13 -9 11 13 23 18 -1 22 15 11 13 18 -30 12 21 -30 19 -31 -17 18 -34 13 -13 -10 -37 0 -24 -12 35 30 12 -9 32 1 -3 12 -11 -1 8 31 -20 10 1 39 10 -8 28 -11 -40 -13 -33 -39 11 -21 -19 -16 36 20 -21 12 -14 -25 27 -29 13 -2 13 19 7 -2 10 -38 3 -18 -4 -11 16 4 4 23 2 -28 2 13 -26 -19 4 -21 -4 -19 27 7 -15 -4 -14 0 -26 8 7 -10 19 28 -12 21 -26 -1 -23 -13 -31 16 5 8 -11 -31 3 22 -27 18 -15 -11 -32 26 -13 25 -20 20
18 -16 24 -15 26 22 15 14 13 -4 -10 -17 20 27 19 -7 -32 23 12 11 29 -8 -14 29 -8 9 -28 26 19 8 10 -32 28 -9 -17 15 28 28 2 21 32 -32 -23 -24 27 -13 28 22 -22 -26 -26 2 20 9 -24 13 18 21 -26 -8 5 0 29 2 21 -17 31 -4 -1 8 24 24 1 29 31 22 30 32 11 -13 -14 4 -3 28 -25 23 20 0 -28 10 9 25 -24 -20 32 -18 17 -26 23 31 -6 4 -29 -5 -6 -16 27 30 28 22 35 39 -6 5 -2 21 32 15 -18 20 -20 -34 -28 10 21 -3 -7 -29 -26 -3 20 -27 -32 -8 -31 -14 -32 -12 -5 1 11 -20 13 19 -32 -8 13 29 -6 13 -29 -27 21 26 19 9 -14 15 21 6 -19 -3 -1 2 -28 -15 22 22 13 -27 28 -24 -25 -17 -3 -9 23 -8 -10 14 -1 -28 20 2 40 -12 28 32 28 4 -31 11 4 15 -18 -10 11 24 31 -23
-14 -33 -32 8 -15 19 -6 -3 21 28 13 18 19 -6 29 13 6 -7 -29 16 -24 -10 -25 21 -5 -24 20 18 -3 9 26 21 31 -18 -9 -7 -15 8 17 21 5 7 -16 23 -29 19 27 0 -16 26 10 6 2 -8 -11 -24 27 -27 -30 15 -12 26 -29 1 11 27 -29 19 32 -17 -5 -28 -16 -3 -21 36 26 -4 27 -23 3 56 4 -13 40 19 -26 -4 -8 1 19 14 -25 -9 -5 17 38 13 25 22 -35 15 -34 -33 -36 -2 -35 -1 -27 13 -18 11 -33 10 9 4 -18 11 -35 -18 18 32 6 3 2 -34 -1 2 -15 -30 -32 -19 -4 -8 -22 -1 14 -3 21 27 -23 12 21 3 -12 -29 -2 1 -17 -13 -4 -8 -10 22 31 -10 -16 -24 20 -32 12 25 18 26 23 -10 -21 30 16 -34 -31 -8 -12 -7 13 20 17 -24 19 26 12 -25 1 -10 -20 9 1 25 -8 33 9 -18 -12 -13 -26 -31 -26 -22 -32 -32
40 -33 -16 36 15 -28 -9 -4 -24 -3 39 -5 36 -13 -15 46 -2 35 38 0 39 28 33 19 -23 14 30 11 16 2 3 -9 14 -9 14 17 13 -20 21 41 -25 20 67 19 24 20 -2 -3 -1 -5 5 29 30 11 4 -22 14 -14 -15 -17 -42 4 5 30 -53 -72 17 -11 7 2 -16 -5 -38 -31 -12 -61 -14 -29 -33 -21 12 -60 -52 3 -24 -21 6 -53 -15 -1 -30 -21 -2 -32 30 -48 10 3 4 -19 21 13 18 16 31 -1 -5 12 29 -25 5 -11 -2 21 -8 24 -24 10 -37 -12 -9 31 -2 8 3 -8 -3 -37 23 -7 -12 -8 -5 3 28 -44 -34 -20 -15 10 -28 -13 35 19 -39 38 -11 28 23 -39 -10 20 -8 1 17 -16 -20 -12 17 -26 27 20 -26 -8 22 -7 -22 9 -19 -22 -8 -10 -22 -2 13 -26 9 -1 -4 -26 -13 -21 -23 28 -44 36 23 21 25 13 -18 34 29 -40 32 -1 -7 20 1 -27
-6 -28 -15 2 -22 40 48 -19 -5 33 -30 -11 -2 20 25 -35 -21 10 30 25 -2 -20 7 -20 -21 -36 14 10 6 -12 12 4 -16 -19 -21 16 27 1 10 -15 22 -25 56 -27 41 -10 6 5 -41 28 4 -6 28 27 7 16 8 25 1 48 25 -7 13 2 -31 -1 0 13 23 -26 3 -10 -13 11 6 9 -31 -21 -41 -34 5 13 11 21 2 6 7 -5 -1 -26 32 -30 28 -24 -24 -33 18 -19 2 0 -20 3 25 6 1 15 17 25 29 18 -20 -12 3 45 -26 20 1 1 19 7 0 29 -26 -34 -47 9 10 -7 30 43 -23 10 -17 29 -18 -18 17 20 -36 -27 -21 -3 -4 -2 -6 -54 13 -32 -2 -12 9 -9 -31 -14 -35 2 -11 -37 -45 9 27 47 -16 -3 -16 7 8 5 -19 5 34 9 10 -13 -26 -11 27 20 -4 -24 -31 -31 -30 9 8 -25 -5 0 11 -4 -37 9 2 30 -6 -8 15 -29 -2 -15
18 -23 4 38 5 0 9 14 0 -28 6 1 2 -23 25 11 -5 39 25 -6 -20 21 31 19 21 35 -10 6 28 -10 -12 -39 30 15 15 -9 24 -23 -9 -11 23 23 8 30 -8 8 32 -32 26 -1 18 -17 23 24 -12 -26 -5 -16 0 44 -40 -33 1 -11 -42 -61 10 -14 -58 20 -13 11 -34 -33 -41 -41 -20 -18 -25 -26 -12 33 3 -2 -2 42 -22 8 23 4 -20 23 -1 -4 -13 49 -2 -8 -30 7 -41 -30 13 -45 -23 -11 -14 -18 0 -40 -5 4 -30 -40 21 13 16 -16 -33 -18 -70 -29 -1 -13 -51 -16 18 -9 -20 -43 -27 10 -6 -28 12 -35 -1 -10 -2 -12 -48 8 -20 -16 -40 -7 11 -16 -22 10 -21 -27 9 -44 -67 -39 -39 22 -26 -18 -13 -20 -14 28 -6 -15 -17 -16 -32 -3 -18 18 -46 -18 3 -11 30 -6 0 -28 27 2 32 12 36 -11 61 16 -1 54 38 22 16 2 0 11 38 -11 -9 -27
-29 6 -6 31 18 -7 -3 -4 28 -27 -5 18 8 -19 18 34 -8 -32 -15 0 -13 17 -2 22 -26 4 -5 -20 -17 -12 -11 13 -21 -22 -5 2 15 9 14 -24 8 -11 11 -9 -6 32 -28 7 13 18 -24 -25 -10 -11 -27 31 -29 -2 -14 -13 10 -15 15 27 -12 34 17 24 12 -25 11 9 26 2 -21 -8 -33 -32 -27 15 -28 5 -12 5 20 -24 17 -13 -38 -46 5 -19 7 -22 -26 -1 -3 1 -11 -24 -12 23 -13 -15 -8 -32 39 5 33 10 11 -26 27 -4 8 25 -8 6 -29 24 1 3 -32 -18 -8 15 11 22 14 -6 43 44 33 4 -11 18 -26 8 20 -11 -24 52 -32 15 -8 -30 3 -15 -34 15 -27 5 -15 -16 -24 -29 -22 -21 -1 -4 -5 1 -14 25 -27 20 -2 33 -15 14 46 -7 27 -6 26 44 22 13 29 -15 -14 18 37 16 -2 -3 25 5 20 20 20 7 -24 -23 -3 -16 -26 16 -41 28
-23 2 10 -7 33 0 1 28 20 35 16 -12 40 -22 4 31 15 17 27 16 1 -18 -34 -2 -18 1 10 -16 10 -18 -3 -26 -23 -27 -8 -24 -7 -24 -13 -36 -25 48 61 26 10 -16 -29 -30 -28 -17 37 -8 -25 13 9 28 11 -7 22 -18 -46 15 0 -11 -22 7 8 9 -54 -13 -16 -5 -38 -15 -46 -15 -8 4 -36 10 16 3 -16 10 -19 -27 -9 3 -7 -35 -30 -14 8 -35 -5 -11 30 25 -31 36 24 -25 23 0 -23 2 -11 -3 22 30 26 -31 -15 24 -26 -24 12 -7 22 26 4 1 -39 11 6 8 13 -30 14 19 19 1 -36 -2 -20 -7 -6 18 -15 12 -37 -25 16 -14 -44 -31 -13 -6 -11 -1 -19 24 -22 -47 18 -18 -26 -12 6 -12 31 -27 -14 28 0 -2 3 23 10 27 21 -12 -3 2 34 15 -13 -1 23 -33 -29 18 3 -15 12 16 43 -7 -3 -13 30 31 -17 24 20 14 1 -22 -11 26
-9 -36 15 -17 -27 -24 -28 -16 11 -6 -12 -25 26 -18 -10 -7 -25 -23 -4 -33 -28 -7 31 -15 11 40 -1 1 -21 -7 -1 -12 -24 14 -7 -12 -14 -25 20 36 -39 -14 18 21 13 -17 18 -29 -1 9 -12 33 -9 22 -4 31 -12 -21 14 -7 -7 30 -27 25 -23 -20 33 16 29 6 21 29 13 28 -4 23 -11 10 13 1 -5 -11 17 -18 -14 -19 9 -28 11 -1 -1 -4 1 4 10 -45 -10 -30 10 19 -19 -8 -7 7 23 -35 30 -37 -20 6 -38 -12 23 27 -4 3 -22 -24 11 -1 38 18 -4 5 -19 -8 -9 -12 -13 -11 48 35 -19 13 -23 -2 14 10 34 13 -22 -7 28 -16 -9 17 -11 -24 0 5 -38 -35 -13 29 -49 -6 -31 15 -8 29 -24 4 -10 -24 10 -14 20 21 28 30 10 -26 9 -28 39 -16 37 26 1 -8 -2 -9 -10 15 -13 0 23 -2 -27 36 -21 -15 18 -19 19 15 26 8 -10 -16
4 -24 -11 -22 -14 13 13 -27 -4 30 -11 15 18 -7 -24 17 15 -1 15 0 -29 30 37 -17 -9 18 -18 15 3 -3 -2 -28 -17 -13 -31 6 -30 9 23 23 7 43 13 -3 7 19 35 1 4 28 48 16 30 0 44 17 22 1 11 32 -10 -36 -45 15 -9 32 9 -22 6 4 -34 -12 4 29 -14 -8 -10 33 -20 -21 9 57 16 6 -9 42 -15 46 26 54 -7 -35 -18 -12 -14 8 -26 35 13 -12 -53 23 -13 -40 -13 15 1 -41 -29 -12 21 -15 -29 -16 -45 -39 3 -6 10 -3 -12 -1 40 2 18 -6 -9 27 16 2 9 1 21 37 6 -17 13 0 24 11 -51 0 -10 -26 -16 -6 10 13 -27 -42 -43 13 -25 0 -3 -47 -68 -42 -6 -3 35 -9 -14 -5 24 22 -3 38 18 -1 11 -5 15 -6 10 37 -20 31 -11 -2 -28 -10 -11 18 -18 16 23 -26 18 -6 -8 7 24 31 -17 28 -30 7 -33 -16
5 -1 -25 20 21 5 10 -7 29 4 40 -41 12 6 11 22 -11 35 -32 8 3 19 17 26 21 0 -22 36 34 10 29 17 6 -28 1 -13 19 3 24 11 -40 2 14 0 32 -28 26 -29 -4 15 -23 2 -14 -14 -15 -14 -18 -1 -26 -23 32 -15 16 5 -7 -44 -32 27 -25 -19 22 -29 -6 46 16 19 -18 1 -24 15 35 -10 2 6 22 -4 -26 -19 -6 -36 -6 15 -19 -37 -1 -25 9 14 -30 5 -24 -17 -36 8 0 -45 -11 -60 -4 -48 -30 20 -13 -25 -20 9 9 12 -30 -23 0 19 21 30 -1 23 5 -15 -25 -17 -37 -6 -11 -7 24 -36 26 3 2 4 11 -2 -40 2 31 6 -2 5 10 14 -13 -6 -11 9 -28 -13 13 -14 -4 -8 -14 -23 -24 0 -9 8 -11 -1 6 20 14 -17 -26 -27 -11 23 -21 24 22 2 19 -15 -4 3 -32 -12 12 -17 28 9 18 -26 28 10 2 18 27 -25 -13 2
-18 12 -4 35 41 4 -4 8 -22 -21 -8 -1 -14 -15 -19 -14 32 -11 6 3 18 -5 -23 26 -16 18 -5 12 -24 -5 -22 -28 14 -2 -17 -26 -9 -16 10 6 -17 -31 -14 -10 17 13 -21 -29 -40 -7 2 7 0 -21 -9 25 19 5 24 26 -6 -29 15 -29 -36 20 5 5 -6 -3 18 -14 -31 -22 -13 -43 -21 -9 -14 -13 18 32 -6 -20 25 -29 3 23 -31 26 -16 -9 24 -43 6 5 -9 8 -23 14 -18 -5 3 -27 -3 -22 -4 12 30 -18 -9 23 21 -17 -8 26 -23 2 16 10 -29 -4 -40 -30 -10 -5 -32 -12 -24 -23 29 27 -1 -41 -24 21 -25 15 -30 -29 -21 -27 25 9 -17 -14 30 -30 24 10 17 17 -4 17 0 4 -5 18 8 20 16 3 18 -2 -22 -12 7 -4 0 -32 -29 13 7 -19 20 23 -24 -21 -14 -27 -23 -12 -10 -13 36 20 7 -18 2 -31 23 -27 -30 -2 22 24 3 -26 7 31
9 -15 2 3 -10 20 22 -7 30 -6 -23 3 19 -39 -11 16 -4 24 27 -5 -23 16 17 1 11 25 5 39 28 24 -19 5 35 3 14 21 13 11 -23 -5 7 -47 -41 12 12 -20 4 30 30 -16 -23 20 -13 4 -7 27 21 30 16 12 -8 -24 32 -7 39 -7 -32 30 6 -7 14 25 15 -9 4 -22 -20 0 -7 -1 23 41 -6 25 -11 16 17 0 -21 52 -21 13 -27 21 -19 22 18 -18 13 -10 -30 12 7 -20 19 -37 33 -40 -24 -29 -13 -21 -5 -27 2 2 30 -33 -37 -37 19 -13 7 4 1 -12 -16 1 -12 -27 18 -14 6 -37 6 -39 17 12 -6 -16 -36 -20 21 -3 3 4 22 -29 -7 11 -6 26 -27 -39 -17 13 -23 -8 -1 -23 -32 -40 13 26 23 -6 -1 -2 1 1 -17 10 -36 0 -1 -25 26 -19 -30 -39 -7 21 15 -26 14 -2 16 -25 -25 5 -7 -18 11 -19 -32 -4 30 -26 34 1
29 30 -31 -2 -31 5 16 -10 14 3 -4 13 8 10 25 -33 13 17 -24 16 19 -13 -5 -6 27 -22 16 16 41 9 11 -32 22 -28 -5 13 0 2 5 19 -17 -4 27 -3 7 -20 -23 7 -26 -20 15 31 26 -18 19 29 13 -32 -28 -6 -26 -14 28 -32 -9 -27 9 5 15 -1 4 5 -8 -7 -16 -26 -22 -24 21 -26 6 5 7 -10 30 24 9 -18 -22 35 -14 -11 -21 -11 -11 18 -10 2 -29 33 -2 -12 -35 -8 -30 -29 34 19 -28 -9 12 13 25 32 23 19 -26 -28 -22 -24 -20 -21 10 -20 2 32 -30 -12 -26 7 -1 -25 7 14 0 -4 15 21 -21 9 7 13 -13 22 35 31 10 24 -25 -3 14 27 32 34 5 18 -23 2 30 33 -17 0 -31 18 -32 20 -33 11 23 -29 -3 -24 -32 -13 -19 -7 6 26 11 2 9 31 -27 -12 -20 -25 12 -14 -9 -4 8 4 -10 -10 22 12 -32 10 10 -7
7 10 5 -27 -25 20 -18 3 -19 11 -16 7 -39 19 -45 20 -36 -1 -32 -2 -1 15 18 -9 -23 18 -20 -10 -5 -4 7 29 -5 -12 13 7 7 -31 32 37 3 -6 -7 -4 -9 -24 16 32 13 16 -13 6 -10 -18 -20 -9 -26 -12 7 -2 9 4 6 -22 -5 47 -8 14 23 -1 -14 14 2 16 49 -16 -24 10 19 38 -8 -21 -38 23 -18 -26 19 -41 -24 -9 -10 19 12 9 -39 -37 24 7 -12 27 27 -5 -4 36 13 -30 20 31 28 -19 8 29 36 19 25 -13 36 10 29 5 -34 -38 -29 22 23 23 15 -22 -17 -33 -6 9 23 7 -22 -3 -7 -9 -23 3 -21 31 -4 -27 8 -25 19 -4 34 17 28 1 3 -35 16 24 -26 -12 -7 -26 16 45 5 -9 14 6 -14 2 -26 18 15 21 27 13 31 -21 10 -14 -4 1 -24 13 22 -4 12 -2 -3 29 -28 -1 26 30 16 35 10 -10 -19 16 25 -4
-7 2 -14 -6 -11 -22 17 -18 9 -24 -4 3 28 0 -7 -19 14 6 32 24 5 28 52 -26 24 36 -24 42 25 8 27 24 18 -26 33 48 -35 -15 16 -8 -39 -21 18 19 -14 20 2 3 -1 25 32 -3 -27 -24 37 22 1 -24 -3 -24 -21 2 -4 -28 -17 8 23 9 -9 29 -6 2 -2 -27 31 -38 10 -10 -43 -14 25 -28 -27 -19 -3 -19 -18 -22 -1 -16 -15 -22 3 21 -32 4 -27 -29 -17 20 -20 -14 33 -12 -21 -25 28 30 14 27 -18 -20 43 15 -17 27 12 31 17 -7 -22 -14 -23 -26 -5 -28 23 3 9 -14 8 26 29 4 -1 32 -1 -7 19 4 -7 26 5 12 24 -3 -20 -13 -8 28 -8 -32 -5 -28 23 7 -26 -19 28 -6 14 13 13 25 23 13 19 22 -25 17 -1 -2 -34 -11 2 -33 -6 29 -20 21 -26 15 -21 20 -6 -30 -3 2 5 -29 -23 32 19 -5 10 20 -18 -21 -15 21
-36 0 0 14 23 -20 -40 -7 20 -30 -33 2 -2 -23 23 -9 -15 25 -6 -16 23 -19 14 -21 26 4 -17 -11 -16 -30 -25 21 -7 21 28 -18 5 -32 32 -33 -10 3 -23 -8 -10 -24 -11 -21 -13 25 -6 12 -32 -15 12 -18 22 -3 -22 -2 22 0 -4 -6 0 12 5 -27 7 -17 18 2 7 -22 -30 -11 -2 29 -2 -5 -25 6 -21 -6 -13 16 22 -22 19 -19 8 15 3 17 -2 1 15 -9 8 -31 29 -16 27 20 -23 36 22 -6 -25 -8 23 33 -9 -5 10 0 -26 34 15 8 14 -20 -4 2 9 27 25 -16 19 -4 -2 -29 5 -11 -21 -18 -34 22 -24 -3 -16 2 18 -5 -3 23 27 30 -24 7 -33 1 6 27 19 18 4 -20 25 -25 -31 35 15 -31 21 -13 -2 6 24 -23 -2 -30 12 -14 -7 -20 -16 26 10 -6 -28 -8 -32 -20 13 2 29 -23 -4 28 25 -18 13 -20 2 10 21 -3 17 -18
10 -15 4 10 -37 -40 28 -2 -23 2 9 -23 -26 23 13 6 8 -33 -9 -21 -18 -19 -18 -17 -6 3 24 -35 4 -27 7 -37 -3 -1 19 -26 -30 23 1 -39 22 -6 37 31 37 -33 33 27 -7 -22 2 -14 22 3 20 13 -18 -27 10 29 -25 51 27 -24 -13 28 30 -38 17 18 12 23 -11 -13 -18 15 -23 30 40 16 15 6 6 37 10 -12 24 3 45 -28 -16 41 -3 -20 53 27 26 19 31 31 -8 1 10 34 -3 15 36 28 14 28 -1 -60 46 25 -35 -24 -25 -2 -31 -5 -46 40 -12 13 -22 12 -23 -20 -10 39 10 -15 -31 -16 9 -42 11 29 -7 27 -65 -7 -9 -40 -25 -84 -1 -30 -19 -47 -29 -26 3 -6 -71 -26 -32 14 -34 -45 49 46 40 14 12 -3 71 37 17 0 24 0 49 9 17 11 -25 26 19 -10 -22 -26 27 23 -19 15 -15 21 35 12 20 16 12 20 -29 -43 -36 7 -29 19
21 -25 2 -11 -17 -41 2 -9 24 -6 -1 -5 13 -19 22 32 -10 -32 16 27 17 -2 33 -24 17 -9 28 6 11 -9 -39 -7 1 -10 13 -15 -20 8 -34 7 36 35 32 -21 -14 -12 -4 -7 -31 27 14 -22 -25 -22 8 16 -25 32 28 18 16 -39 -36 -19 26 -8 13 0 19 28 8 0 -8 24 -1 14 5 -14 -27 -26 -39 19 18 19 9 10 -18 4 13 -31 -40 11 31 -29 13 -33 -6 -8 -32 -5 -10 -8 24 -1 3 -20 2 -27 -14 25 28 45 4 -8 28 50 -12 -30 17 24 -3 23 -10 -33 -18 21 16 7 23 -4 -36 24 5 -14 -23 10 -2 25 -11 30 5 25 26 45 10 40 16 23 44 -20 -19 32 -5 38 22 -22 25 11 38 31 9 -2 41 34 9 2 35 -27 28 12 -10 24 -19 -3 1 -16 -24 -29 -5 -25 11 -29 12 -22 -23 21 1 -20 13 -19 -31 3 -20 16 -14 20 3 -19 6 -33
25 -13 5 18 17 -11 19 22 14 18 -5 -30 39 -10 15 1 25 18 13 60 -9 12 14 -2 -27 9 -33 -3 28 5 -15 11 34 27 4 10 20 -5 12 35 12 40 32 25 51 16 -5 -26 28 6 24 -24 51 -41 7 8 19 -24 -25 20 -32 7 1 23 23 -18 5 1 -7 26 -32 -46 -18 -6 -54 -38 -10 14 15 -17 -12 10 7 30 13 4 -4 2 5 33 42 35 -27 15 -20 -4 -18 12 10 -14 -57 -24 -41 -14 -26 -40 -30 -54 -32 -45 -17 -15 -28 -24 10 7 1 -7 1 13 5 5 -16 -12 -2 -7 5 7 -27 0 15 1 9 -18 -1 -26 -27 23 12 -20 27 4 10 -20 -33 43 -7 -9 13 8 14 12 -19 25 -17 -25 -26 -7 12 8 27 -1 51 -12 0 -3 26 37 27 -20 48 43 18 -5 2 36 -10 -3 35 37 24 -23 -23 -3 -22 31 24 26 5 45 -30 22 -26 8 13 11 -24 21 26 29
4 21 -5 22 22 -26 -24 24 31 -12 32 26 20 -32 -21 17 -1 7 -24 9 -19 25 -19 29 -10 13 21 -19 13 -14 23 9 10 -10 21 -26 12 -9 -20 22 48 50 2 -5 35 17 -21 1 8 18 21 -5 -20 -18 40 25 -17 3 25 3 -33 -10 -18 -29 -5 -6 -9 18 -6 25 20 2 -46 33 -4 -1 23 -26 -31 -13 32 -16 3 13 23 -30 -35 -35 -15 -42 -20 5 2 -39 -35 -49 26 -28 -44 -7 19 -22 -12 -18 13 7 2 11 -20 -6 39 5 -7 41 -7 33 1 0 24 24 10 -20 1 -15 -27 -22 27 -3 4 19 -26 -33 1 7 0 18 -27 -11 33 -33 -12 18 -3 10 -11 54 31 27 29 -18 -21 -4 -10 18 34 34 2 19 33 -17 5 -22 17 5 -30 -35 -25 -30 -17 -3 12 21 20 22 1 -22 28 18 -23 -24 9 16 19 -13 -33 -27 -24 12 -29 29 -23 -8 22 -22 5 -12 -17 -10 -15 -23
13 -24 17 -24 -7 28 -26 -2 -12 -24 8 -27 3 20 15 4 -2 24 -19 4 -1 -4 0 -15 -22 40 30 22 -10 -3 28 20 28 16 -6 30 -5 -16 -21 39 -34 0 -26 13 -5 -20 10 -31 12 -18 36 5 10 -26 12 10 34 5 -26 7 -3 -22 -14 18 16 -39 28 -12 -28 24 19 -11 18 1 22 -11 27 23 -5 -20 19 8 14 6 15 17 -13 -20 30 -2 25 -34 8 18 -23 2 -12 -6 12 31 38 -14 -5 27 10 -8 16 21 20 15 13 0 12 44 16 -5 -8 11 -7 -18 -10 -29 -1 8 -62 6 23 -3 -7 38 17 -11 -43 -16 -16 23 -34 -33 12 -12 -23 -3 36 42 17 28 4 -21 -11 -32 -32 20 4 43 5 42 5 0 46 -11 4 -30 -15 9 -17 23 8 5 17 22 23 -7 23 25 -10 -26 18 20 -6 -16 9 24 2 19 -53 0 42 8 21 -8 -14 -31 -16 -10 -8 0 40 -19 28 19
-31 10 -23 14 10 -6 -36 -34 -25 20 17 25 17 -9 -34 -4 -41 19 -28 20 -2 -15 36 17 -24 0 22 0 -19 35 31 -1 32 7 -10 34 -4 25 0 12 7 17 18 5 18 30 -32 -1 18 6 18 -3 10 4 5 -16 -19 -22 -22 3 -13 -5 -36 12 -6 -7 -14 -25 28 -16 -2 -17 15 16 20 21 37 -24 -6 -6 -6 -21 -14 -8 -34 -41 15 -55 0 -13 -43 -10 -16 -14 -30 -25 5 14 23 -12 15 14 -30 0 -34 -34 -26 -33 -30 15 -5 -3 -38 3 -33 8 27 -19 -21 -1 37 10 11 24 8 6 -1 7 9 -40 -10 3 15 -1 -20 10 5 -21 17 -2 -9 31 3 6 24 7 -13 26 23 29 -29 21 18 -13 -7 11 -13 4 25 -30 26 33 -18 7 34 15 -12 21 16 31 -15 20 7 19 13 13 9 -21 -16 -20 17 -5 -21 -16 -15 -18 7 -19 -27 -12 27 -12 -44 2 -26 -44 20 -19 -40 24
0 3 11 5 -1 -8 -12 -3 14 36 -9 -23 5 0 -26 11 -24 -30 -1 -15 19 -10 -21 24 -17 34 4 6 27 25 25 -4 21 26 0 -3 13 28 21 34 -17 -23 -5 -13 -11 -29 -15 25 -12 19 -19 -8 5 14 -18 9 -31 -3 2 -46 -8 11 34 7 -16 27 -2 -38 17 12 22 5 3 -34 10 10 27 -29 19 -9 -25 20 6 -34 5 2 -9 -21 -15 34 -27 13 4 17 8 -27 15 -19 -5 -8 3 -29 -9 -11 -9 35 11 -13 32 12 7 11 7 2 -9 16 0 -34 21 11 30 5 38 -8 -19 35 26 -4 -22 33 14 47 28 80 -24 23 -5 31 0 4 18 -29 -20 47 28 12 -26 13 -58 -7 -48 23 29 -23 -15 19 28 0 50 -18 25 -29 -12 -8 20 -11 -24 11 -16 -1 30 -6 -12 -29 13 21 -17 12 -7 -17 9 38 -22 12 -2 -3 1 29 9 -18 29 9 9 -19 -29 -49 12 20 -25 27
3 1 -6 8 29 -6 0 22 30 27 -2 45 36 11 -11 -12 20 -31 17 21 -6 26 -21 22 -23 28 16 -7 2 -27 -20 11 6 -30 8 8 9 -28 15 -8 -10 18 23 1 38 12 25 -15 12 -25 48 -17 40 18 63 -2 -24 15 12 -13 -12 6 6 -6 -6 -54 31 -24 -35 -32 7 13 -48 -39 -49 -29 -43 -6 -44 -48 -14 -10 50 30 30 8 26 49 -10 -1 -17 40 -10 5 -9 -35 -32 -17 -25 7 4 -5 32 36 -8 -37 -1 -18 22 -23 33 14 33 46 6 -18 33 28 28 6 36 8 22 -18 -16 -10 -20 -10 24 4 6 35 30 37 16 8 13 -13 27 38 45 38 29 23 21 -8 33 -4 8 1 -13 31 -28 16 -14 29 -6 24 -17 13 -39 9 -26 10 -6 -8 18 -13 -15 -8 -31 -10 -34 -26 -9 -30 -13 19 -41 -16 4 13 -11 -30 -3 -16 22 -37 -39 -15 -12 15 -23 -13 -11 -24 -17 -17 29 8
25 -27 27 31 -9 -10 -2 -2 1 -5 -34 15 14 -12 -15 -16 5 -2 8 -23 -17 10 30 6 -26 2 28 18 24 -18 -30 2 -23 -7 -22 12 3 19 -8 18 10 -13 0 8 -12 -10 -14 1 -12 -19 -36 -32 29 6 -1 -2 -10 1 22 12 30 -18 -22 28 -8 -13 31 -34 16 13 -10 -17 -18 0 -33 -2 -16 15 2 -7 6 -7 13 18 -12 30 1 20 32 6 27 -24 -15 19 39 -17 3 -23 2 4 31 -22 4 24 27 37 -34 2 10 -24 -10 27 18 55 13 -11 58 40 27 14 22 -13 17 26 5 -10 23 19 27 -9 46 26 18 31 -3 17 10 33 -9 13 -5 -7 12 37 34 -23 -33 0 -11 -34 -12 3 27 -26 -5 10 -12 -7 7 28 -42 -7 -30 -28 -20 -67 16 -29 -27 14 -8 -29 -48 -37 -58 -9 -12 17 -41 2 7 -20 18 -28 0 23 -13 17 -17 -3 -22 17 32 27 -2 -18 -26 -31 -20 -21
16 -18 -7 -12 21 30 -29 32 -1 -7 -7 -13 -6 -27 19 36 6 28 -19 11 20 26 9 9 12 29 18 3 30 -8 -33 -26 6 -29 9 -17 3 14 6 15 -22 14 25 -34 29 -14 11 28 24 1 -21 -31 -32 -14 -2 23 23 -26 -17 30 27 20 -3 2 5 -22 0 18 23 -24 -26 -41 -27 -41 -22 3 1 -17 10 6 5 21 -10 24 23 -7 12 -37 23 -49 11 -14 19 -7 -34 -20 13 36 -4 19 -9 -16 -22 3 7 35 23 -6 24 18 30 -20 21 10 -18 19 39 -14 -15 -2 -12 -5 21 3 -20 18 19 16 27 -2 -19 20 -34 2 21 -11 -2 -17 15 7 -23 8 -13 22 7 -4 -29 -16 -17 -4 5 18 -9 -21 -41 -28 -4 -4 -16 -21 -13 -5 -37 -17 27 -83 -38 -10 -57 20 -26 25 -52 2 -3 -57 2 -3 -12 -65 26 3 11 -22 -15 9 39 -32 -17 42 19 -3 -15 -10 9 7 -27 -26 25 12
21 -14 11 10 5 -17 -21 0 4 8 -1 -6 -11 -1 32 18 0 -10 13 15 -28 -8 10 -29 20 15 21 12 -12 -34 27 14 0 28 -14 -1 -19 26 7 17 -27 3 4 25 4 -18 36 -23 6 21 -25 -28 2 42 -13 28 13 13 -4 -21 -33 -14 26 10 -27 20 17 -29 -32 -30 -29 0 -35 -33 -25 20 8 28 -22 -4 15 31 21 37 -37 8 -5 -20 -10 -28 15 -6 -3 -36 -28 9 -6 60 -16 8 37 16 17 22 33 37 -18 35 4 44 2 -6 7 26 38 24 -10 30 -4 50 9 16 6 21 16 10 17 -1 -6 -7 26 20 -27 -28 -21 -6 18 -2 -3 7 25 9 11 -17 19 3 18 12 -10 -32 24 -37 3 34 -39 12 -27 -28 -38 -33 14 1 -23 -10 -21 -5 -49 -24 -27 -26 7 -6 -29 -36 22 -11 28 -3 -11 -19 -17 -21 19 3 24 26 28 18 -1 -3 13 -14 26 -6 14 22 39 25 -19 -18
20 12 -26 34 -32 29 8 -15 -9 -6 18 -18 25 -16 -12 9 -1 -31 9 -26 -3 29 -19 -9 2 9 -11 -5 14 23 -32 6 -9 -21 -3 31 -23 22 12 -27 12 38 6 15 -16 16 17 12 31 24 2 3 23 6 21 21 12 -2 -13 -21 27 -27 11 -18 -10 14 -29 -29 -35 28 10 20 -15 29 -20 15 -26 33 -13 21 10 -2 18 27 23 20 -4 -1 -3 -35 -22 -4 -2 19 -39 -14 2 27 8 7 48 -16 5 48 37 14 17 -24 28 -17 -14 40 5 62 54 41 -26 21 40 7 14 -24 13 -8 15 -31 -10 29 5 13 -19 18 18 -5 27 17 -16 -13 8 14 25 -30 -11 7 17 5 11 25 -4 22 15 -19 3 -27 15 7 0 -22 -40 -15 -28 18 -71 4 4 -12 -34 -46 -43 -22 -51 -24 -11 14 -29 -60 -21 -16 -8 -64 -7 31 44 -24 26 3 39 -15 -15 39 -7 17 11 43 -23 9 -23 10 2 15
-11 11 -21 37 -7 -14 17 10 13 4 17 3 -21 19 5 11 25 -6 11 16 15 16 -6 -26 -20 -13 -28 -13 -18 7 -1 -13 -30 21 -30 -18 -17 28 -9 -20 3 -20 15 -23 -12 28 3 -29 -8 -24 -1 19 0 42 22 -3 -26 11 25 12 -21 38 -26 -20 15 33 28 26 28 12 10 -26 4 -30 31 22 -22 27 2 9 26 15 -18 35 -19 25 0 32 -11 18 8 13 -11 -15 5 30 25 -3 -31 12 -5 -11 -25 19 -1 35 30 32 3 3 -1 -5 22 4 -11 23 -24 35 27 -11 -10 22 -8 -16 -2 28 29 -9 -15 23 15 8 -22 10 10 22 -33 -30 -9 -10 3 -22 30 6 -7 -23 1 -17 30 -20 -3 3 -29 -13 6 24 12 -24 0 -9 5 -3 2 -31 -12 -39 -35 -29 -33 8 -30 -28 -46 19 4 18 -8 12 -15 -1 18 -31 2 -11 -31 26 15 -23 28 44 25 22 1 13 20 -28 6 16 8 -26
-1 -30 24 27 -29 -30 -17 28 27 14 0 23 -28 -18 -21 -25 -3 -16 -31 -26 20 -19 17 -13 -24 -12 5 18 -16 -22 32 18 4 -18 -16 -18 -2 -7 -9 -15 -28 -17 -15 -1 -1 26 -14 1 -23 -12 24 -4 -10 14 21 -14 -13 -1 -5 -28 33 5 29 1 21 -1 -30 -21 21 -25 4 -15 -12 -7 35 34 -16 13 -22 29 -4 -25 -22 -32 11 -26 10 -33 -24 11 9 10 33 -5 -5 13 5 19 19 -29 -3 6 27 30 27 39 4 -19 8 -14 33 23 -28 14 15 19 21 -13 1 35 -36 16 -1 3 1 16 -6 11 -29 11 8 -11 -41 27 32 23 -26 29 1 0 -14 31 8 5 25 9 18 -10 -29 20 16 13 -28 19 11 -21 38 33 -3 -21 18 -1 -4 1 -29 12 19 -30 -2 -7 4 7 -18 -25 15 8 -20 31 31 20 -26 22 4 1 27 22 4 -17 3 12 18 22 -3 33 5 -31 -3 31 -31 28
-35 -35 -27 -32 -10 -63 0 -41 -19 -38 -39 -31 -64 -56 -51 -59 -36 -9 15 -55 -16 6 27 18 6 33 -7 51 68 6 49 -22 6 38 4 -15 9 15 2 16 0 19 -14 26 -27 -25 -1 18 -19 -31 0 18 -27 -10 -8 -27 -13 21 -30 9 22 26 -22 1 53 35 22 -15 13 -8 7 2 32 40 -12 -25 -1 -15 -18 20 -14 17 -31 15 29 14 -5 -15 6 4 8 1 -11 14 -4 8 -2 -23 -34 -21 33 -33 10 -12 38 -16 22 7 -13 -6 -2 26 16 -11 35 22 -28 -19 7 -11 -35 -23 -55 -10 -14 -47 -14 -64 11 9 -34 7 -26 -37 20 8 11 -73 -21 -30 -19 -40 -45 -12 -38 -51 -18 12 -53 -31 5 -4 -43 -49 -15 -31 -24 -11 -32 -30 63 73 11 -2 56 39 29 38 56 46 35 20 35 5 -30 -7 -17 24 26 45 -33 -15 15 -30 -15 17 3 2 11 22 -8 23 4 8 -31 19 -11 15 -13 -7
11 14 17 4 -32 -6 22 -42 -25 -9 18 4 -1 11 -45 16 8 13 -12 27 23 -20 27 30 18 3 -28 -10 37 -4 21 -8 31 -19 -25 29 13 17 28 -8 11 33 2 26 5 21 -16 27 22 11 16 -21 46 -12 67 -6 5 -15 29 4 -23 -65 -18 12 -24 -24 -14 -57 -48 -17 -45 -46 -22 -52 -40 -39 -9 1 -18 -35 -1 -20 8 2 3 -15 15 -26 -8 4 28 20 -12 -7 30 24 -24 15 -4 17 12 -24 -22 -13 1 8 27 -35 8 -4 -17 -25 -40 -29 -5 -40 -18 -7 20 -33 -8 1 7 0 -5 -35 2 -26 -7 35 10 13 -11 28 14 -26 -3 -5 -18 31 -27 -39 -10 9 -11 -43 1 26 -2 -33 -43 17 -38 -17 -14 -17 -20 29 14 3 46 34 38 -10 44 48 -6 8 30 10 45 49 39 44 2 0 -8 40 -11 0 19 -13 4 -8 -4 34 -4 10 2 31 0 -17 13 9 -26 -18 -1 -24 1 -30
-1 15 9 -13 10 30 -8 -4 27 -23 4 8 9 -3 -33 4 18 -15 2 4 -21 -9 12 18 -17 45 5 36 -6 9 19 -2 36 10 40 35 26 -18 -27 28 26 14 8 -30 9 -10 -1 -20 13 13 3 -25 -18 6 17 -8 9 -2 -13 24 18 10 9 24 2 -42 2 -44 9 1 5 -26 -29 -11 22 -15 3 10 -24 9 -21 20 21 -5 16 45 -15 25 -10 -15 11 -7 9 30 -24 8 38 -25 4 -27 -18 -32 -19 -33 -19 -1 24 7 -10 15 33 7 4 18 13 -6 -20 -47 -42 -44 -7 0 -14 -6 -27 17 -28 -29 -15 28 0 -2 -19 2 17 -34 -40 10 14 -21 25 -11 -24 -17 -20 4 -33 -12 14 -24 -18 23 -10 6 6 -18 12 -17 -20 -29 7 24 -6 -18 -8 18 -14 -14 8 -23 -21 -15 5 23 -20 -5 11 13 -17 1 22 13 29 15 36 -1 6 12 33 4 29 14 -8 -24 18 18 7 19 -12 16
40 8 -19 43 19 -3 25 -7 49 4 19 -13 -15 -17 26 -20 27 40 14 31 -18 -3 -31 -32 4 -2 -36 0 -2 29 -30 19 -27 24 -3 -3 -29 13 15 -34 15 13 5 30 18 0 -25 -5 15 -19 44 22 -16 28 2 0 3 -1 -19 19 2 -9 -10 -24 -20 3 26 -41 -32 -13 26 -1 -31 24 -3 15 13 -11 0 -27 2 -9 -22 -14 -19 9 -10 -5 28 -38 -38 -8 28 -2 -2 -6 -22 -13 6 -38 -3 -18 -5 -20 21 -35 -1 -39 -14 13 -9 -10 5 -8 -2 -31 7 16 -4 -23 -2 -3 38 -1 26 22 -12 -20 -6 5 -16 48 37 17 24 12 10 19 -6 -27 45 17 29 32 11 27 20 -19 13 1 -20 41 22 -11 31 36 21 14 -7 17 27 2 39 -11 34 6 14 22 6 -20 1 20 15 -7 33 12 3 33 -13 -33 20 -1 4 -26 -31 -29 -25 5 -16 -7 -10 -1 -6 -17 -30 -33 5 10 26 19
12 -11 13 -16 -27 -7 -14 -14 -3 -16 15 12 -10 -24 -36 5 12 -32 7 -23 -12 -5 26 -23 21 33 -26 4 37 -10 -24 -15 15 -29 -12 18 -9 26 -10 38 -9 21 23 -5 23 -17 -26 16 48 -15 25 -10 3 -32 8 -30 -5 14 -13 43 -3 -39 -12 -17 7 4 -30 13 12 -5 -36 -40 16 8 -30 18 -32 27 10 20 -15 -26 9 22 13 -41 10 -32 -27 -27 -8 -27 20 -29 10 -42 4 39 -15 -9 17 -7 -20 7 44 -11 37 21 19 48 2 -25 12 32 9 6 -30 3 -11 -13 -6 33 -11 -40 -50 9 -3 -9 21 -28 8 -2 7 -22 25 16 16 -3 -24 -28 -23 8 -23 36 30 -23 24 -33 -37 -6 6 22 30 15 -27 18 4 -29 50 -13 -23 -14 -29 -20 16 -9 -8 -10 29 -31 -16 8 15 -8 14 2 -13 -31 -19 -14 22 -18 1 -34 -48 -9 -7 -32 -28 -25 14 -17 -11 -8 -26 -36 -7 -16 -28 22
22 -32 29 -41 -21 -13 6 -16 -5 31 17 7 -3 -21 -26 17 -1 -24 -18 28 -28 22 6 -2 33 -27 1 15 -12 21 -5 -13 26 -10 28 26 0 -10 29 6 -16 18 6 13 -11 11 8 -26 3 -34 -35 15 -27 -21 -16 2 33 -32 20 33 -24 19 -15 -15 35 21 -17 -13 -4 28 -29 -10 -25 -31 27 -24 -17 -8 15 5 25 34 -36 -16 -26 19 24 18 30 -18 6 18 -21 -5 8 -20 12 5 26 34 -7 -7 -33 -15 17 20 -8 -7 -22 33 0 3 -20 3 -16 17 -31 -11 -30 -3 -11 -20 2 8 10 -35 18 16 -16 -22 -21 -43 -21 5 -32 -7 -24 -20 -28 -10 38 16 26 34 35 30 -3 -11 4 13 -21 14 23 -1 3 -6 14 21 13 31 -16 -20 -17 9 -33 10 -3 25 28 -34 7 -27 34 28 -2 -32 -9 -18 -24 -19 32 8 20 21 -47 17 18 -36 -15 -13 -7 30 -28 11 12 -21 -15 4 -25 8
-26 9 12 -17 -42 -3 -31 17 -8 21 -8 18 -32 21 -36 -26 -34 -19 -35 17 7 9 35 28 -12 -23 18 9 10 -20 18 5 -14 -12 -20 5 -17 -2 -7 35 -20 45 3 8 11 16 -24 -32 28 28 26 -23 -13 8 24 -10 13 -13 19 12 43 10 -6 5 23 -9 -21 0 34 0 5 -17 -14 12 -10 -7 0 -3 7 -9 -6 -24 5 19 -14 -26 -31 14 -8 -21 -8 33 32 6 33 16 -14 28 -26 -16 -30 -11 59 -21 -6 43 36 -3 17 18 21 -9 23 45 36 -3 23 27 -12 33 25 -3 1 -13 31 17 -10 -22 -16 -22 37 -9 -8 11 17 8 3 61 -21 56 -7 39 22 -18 7 -34 -18 21 9 17 -45 -16 4 -29 13 -49 -18 3 24 3 5 -3 -28 16 -39 19 -11 2 12 0 23 25 -36 -25 -12 -43 -1 -31 -40 9 -14 -17 -11 -24 -27 -3 25 -22 -17 -26 12 10 -13 3 16 -29 -27 29 -39 -6
-16 7 16 -11 18 6 30 -11 -3 31 -28 -8 -6 30 16 13 -32 12 -7 -12 13 -1 -17 -29 -1 25 -9 -2 -23 -31 -11 24 11 -16 19 20 -5 -31 -8 20 21 1 21 -10 13 25 -15 24 -16 9 -12 -18 34 38 47 13 -21 21 -29 1 -21 -16 -3 -22 -34 -22 -18 -5 20 -12 -20 23 1 -16 -7 -25 -35 -14 9 -6 -5 33 -13 28 28 3 -33 16 12 14 34 -5 10 48 27 21 10 6 3 -4 16 -36 -9 8 22 14 -8 34 3 -8 40 -7 -16 55 -7 -12 12 -18 -30 0 23 28 -12 -19 -17 18 -5 -35 -8 -27 -6 -20 -8 32 22 -29 7 -10 -40 -6 48 -9 38 18 23 6 -25 19 -30 17 -1 4 2 -23 31 -11 4 27 4 6 3 23 -25 7 -5 -36 -32 -8 0 -26 -5 31 -30 10 -51 -33 -7 12 -47 -15 -26 -30 2 13 -18 -20 7 13 -36 -41 8 -14 -22 12 -15 -22 21 22 -41 18
-20 11 16 -3 22 29 17 4 19 0 19 -14 -29 -22 -3 15 9 -2 2 13 11 30 -29 -26 -6 3 -26 12 -1 26 -22 17 1 -11 20 30 27 -20 -34 -28 -6 12 19 5 6 -16 30 25 15 10 6 -4 25 -20 18 -29 -5 -4 -32 3 -11 -17 -11 -19 -19 15 32 5 17 -17 21 -18 24 -26 13 22 17 10 -35 -12 25 -22 4 1 -8 3 -15 7 -34 -26 -18 28 20 -35 30 11 -21 28 13 -33 20 -3 -8 49 37 -22 24 17 24 2 37 10 10 13 -24 14 19 -8 -26 -17 12 -25 12 -12 15 27 24 -10 10 -20 -1 -18 7 27 -32 -6 17 -9 5 30 -2 20 -1 30 1 -2 7 1 3 -13 4 25 -28 -2 16 -2 26 -19 0 16 -6 6 -26 -7 24 -36 -28 -59 1 -21 19 -30 -30 -12 -5 -57 -16 -4 -53 -4 -8 -24 5 25 -33 -9 21 -4 25 39 16 18 28 -1 -21 5 6 2 -8 -19
-3 -33 36 -5 36 22 3 23 -5 -8 9 -17 -6 -26 -14 3 14 27 -4 47 5 29 15 17 7 -34 -14 -21 -11 18 28 16 -26 3 -39 -21 -7 -8 25 2 4 -20 -10 16 36 3 -11 22 -3 31 24 0 -19 31 -12 16 31 30 1 9 -17 6 9 27 -25 20 26 3 27 -22 6 -31 7 -9 28 1 11 -24 -29 -25 2 -2 10 -15 4 12 -4 -14 -13 25 25 -5 -29 17 10 -7 -6 30 -14 -14 20 17 -46 8 10 -13 21 -7 -9 2 22 -28 8 40 0 3 -23 44 -7 32 -10 -30 -20 -4 5 18 23 30 6 -17 32 -20 -18 -11 7 -23 -22 -3 5 2 5 -11 8 -26 -22 -21 2 29 14 4 -27 -8 17 11 -16 14 -37 -15 10 -9 1 -23 -46 0 -1 -5 0 -51 -60 33 -13 19 -19 -15 -6 -64 4 29 -21 -53 -31 -5 26 7 31 -16 -21 10 30 -10 5 31 2 1 -18 24 -12 16 8 21
-33 4 6 -31 -5 -2 -14 23 12 12 -4 4 27 -2 -4 19 3 -16 -14 -4 -24 12 -39 3 -20 24 -13 33 -22 -32 9 -20 9 -24 3 -34 4 -24 11 -11 11 7 14 13 -3 27 23 -27 27 -11 41 15 10 49 21 20 3 -16 -6 7 28 -11 1 -27 -27 5 -19 -33 21 -9 22 24 -30 16 21 -11 3 14 -21 -28 36 -10 38 -14 29 -32 10 38 -12 -36 -25 12 17 -29 -8 5 26 9 -25 8 7 -14 -38 30 -20 13 30 17 20 34 -4 10 9 6 -14 -35 15 -19 1 30 -8 -23 30 18 18 -23 -12 9 25 14 1 -9 -20 -2 22 15 30 -24 -8 25 -24 20 -11 35 41 4 19 31 25 -29 -20 -15 25 40 38 22 27 2 24 8 3 -22 3 -25 -31 -17 -38 -27 -22 18 -46 23 -3 15 -14 -39 -16 -16 14 -25 -1 8 -18 -32 -22 -33 16 17 10 -5 27 -22 -7 22 -3 -4 8 -2 4 32
47 -11 9 -18 20 40 -31 9 23 23 -23 -6 15 19 -11 35 46 -21 28 -20 -15 17 -13 -16 19 -9 22 -34 -4 -39 11 7 -19 -21 9 -38 -19 -22 -22 -18 2 -6 12 12 -26 9 37 3 2 7 -26 -3 -21 26 -5 -32 -31 3 24 -33 19 -28 -45 -12 13 3 13 -31 -2 -21 16 3 19 -1 -8 29 24 9 -28 -24 26 -3 3 40 4 15 1 6 12 33 1 -21 17 -7 12 31 -14 54 -16 6 36 28 -21 6 28 -5 35 -23 30 27 -19 23 16 8 -6 -7 28 18 8 0 22 -30 -12 -14 26 8 -12 -26 -12 -21 -6 21 21 -6 27 -12 1 6 12 0 -23 -3 -18 -8 12 -11 -22 24 11 19 5 -12 -27 17 9 -30 26 6 8 21 -29 -39 -38 -28 -26 -25 13 -16 -53 -25 -15 12 -8 -29 6 -17 11 -18 -6 -51 -19 -8 -3 15 -3 -15 -8 -5 4 -7 -32 -26 31 33 -16 -17 3 17 14 -8
-27 21 -1 -17 29 34 30 -26 -8 33 7 19 2 3 28 26 0 15 -5 34 -24 52 52 1 -28 7 26 30 42 25 35 17 -20 -27 23 11 -9 -1 -24 -3 -16 9 -7 29 30 19 32 -30 -12 11 18 15 31 -29 -5 -17 4 9 26 15 18 6 24 -18 -10 -21 -16 -21 -13 -18 18 -24 14 4 -24 28 14 17 -16 35 -9 -30 23 -23 -23 -26 -30 -3 -5 -6 3 21 -30 22 -21 -17 8 -22 -26 17 -8 -6 3 18 27 -7 -5 -14 35 -28 32 2 -13 21 25 44 1 -23 7 18 25 11 -1 -21 -2 3 -8 -25 0 19 19 -3 8 -7 15 -8 9 -1 21 -21 -17 24 -1 10 -21 30 -14 -15 -22 -35 -2 -29 20 -30 -9 7 -29 11 -7 -18 -32 -13 -32 -15 14 -55 -30 -39 6 -16 -65 15 -41 -35 -19 12 -31 1 1 -37 5 18 37 1 31 11 -1 27 20 42 -24 15 -28 39 -22 6 27 10 16 -24
-4 -19 2 6 25 6 7 16 7 -22 8 -29 -11 15 16 29 -3 33 -25 -1 20 -14 -19 20 26 -4 4 8 2 23 33 2 0 24 29 -2 -34 -24 -9 -16 -34 -11 -38 26 5 13 12 -3 -37 25 -10 -29 0 24 -37 1 20 -29 -21 -15 -15 -9 7 33 -18 -31 -12 -30 19 24 -2 1 -32 6 -29 2 10 -32 -20 12 -15 31 20 47 -30 -19 -1 15 16 19 7 -17 27 -19 0 -4 -26 -20 11 9 9 26 50 30 53 -6 28 34 16 39 2 30 -3 5 -26 41 26 -5 23 24 -4 7 -10 -2 8 -12 -27 -25 0 17 14 5 10 11 -13 21 25 18 25 -9 -5 30 33 -9 -24 28 -27 0 -34 -6 -24 12 -25 0 -7 -10 12 30 -34 -29 -19 -21 -20 0 -9 6 -43 13 -12 -25 -11 -10 -12 13 23 29 17 -19 -7 -3 8 10 -18 26 -15 12 0 0 20 -23 26 2 3 -4 -19 -16 13 20 13 30
-3 7 -29 15 18 -23 -16 21 25 -2 24 28 -6 35 5 26 -3 25 -14 28 28 54 47 -11 0 26 4 17 30 52 26 -15 49 31 26 37 -29 -1 21 43 -20 -9 -29 21 12 12 7 28 1 -3 -13 13 -40 47 -23 0 -30 -33 -18 -17 -39 33 0 2 6 -41 -5 -27 -19 -17 27 -14 32 -21 -18 25 42 -4 25 -7 11 9 15 -6 14 27 -21 -11 12 5 -25 13 1 32 -2 20 14 24 2 -12 8 14 -53 18 -44 -29 10 -23 -11 -42 -31 -23 -3 -7 -1 13 -3 -26 -10 17 -2 13 19 17 -3 -46 -10 -38 -2 -4 -15 -33 -13 13 17 -8 -38 -18 2 -36 -31 -39 -31 -29 -48 -20 -5 -24 -63 -36 3 4 -59 15 -50 8 -21 12 -10 -7 10 17 -15 -10 7 -10 -17 -23 24 12 -9 29 -16 39 -30 -18 26 -17 -7 20 29 -17 35 4 -12 9 -19 32 0 -1 33 5 -30 -2 25 -22 15 22 -17 -10
28 -33 23 -12 -26 27 -1 19 4 23 -11 -21 14 -10 -37 -29 1 8 -8 -26 -21 -5 -24 -25 0 1 -29 -25 -26 17 -30 -13 -17 23 -17 -11 -1 -31 -14 20 -2 0 -18 19 15 19 19 30 36 33 -12 19 40 3 32 13 21 -27 -11 -5 -12 -18 -3 -1 -23 -19 -14 -34 -6 17 6 -23 5 -47 1 7 11 -16 -13 -1 -8 10 -26 -6 -32 -10 -8 -19 -19 -9 12 -30 -2 19 28 26 -6 5 5 4 -26 -6 26 5 30 7 -1 4 29 45 -27 29 9 43 -3 32 25 -9 15 -10 -8 -12 7 -30 6 5 -30 -16 4 33 -28 26 -30 -19 3 -12 21 27 -18 -6 7 26 4 -15 0 -3 -14 15 -4 -7 -26 -33 22 17 34 6 -8 5 -14 -12 -6 32 8 11 37 45 40 53 -14 36 43 11 44 12 19 20 7 10 18 20 3 8 -14 33 32 15 7 7 16 7 7 15 35 13 14 35 -11 -19 -4 11
-34 -10 -16 -13 7 13 -33 -2 -22 34 -21 -44 -23 -22 -24 -32 -10 4 -20 -37 20 40 13 6 -24 27 -23 -13 53 -8 -6 14 34 27 -27 22 8 1 18 16 -17 -11 -13 1 17 -3 -20 8 -4 -22 39 44 36 15 -5 -16 7 27 -4 44 18 -25 -1 3 52 -20 -15 -30 16 30 35 19 12 10 0 27 23 19 -14 -30 -18 -2 -6 24 -20 -12 -3 7 30 30 37 37 16 -33 -2 13 25 28 -30 -15 -45 -23 -9 9 1 28 7 -19 -53 -40 -28 21 -36 -34 -24 13 19 -20 -15 -33 -53 -3 -22 16 -4 -9 -4 -54 -18 5 -19 4 -63 -18 0 -46 17 -26 -7 7 8 12 -37 -6 21 -41 -29 21 6 -6 23 13 1 20 -27 -35 29 -18 -33 21 -30 30 -21 -18 24 10 -11 -12 16 14 31 -14 -34 -9 21 -11 8 12 -16 -42 -5 -29 -6 16 -44 -10 -3 -36 28 -31 -17 -5 -4 6 -22 13 -14 25 -31 33
4 -7 -13 34 3 23 49 6 55 -27 -21 -8 -13 3 37 -9 11 13 -2 27 -17 11 20 26 -25 11 14 -26 10 8 12 7 -12 -6 -20 -15 -23 0 13 17 1 10 -11 22 -8 15 28 -3 19 9 -15 18 -41 -30 17 16 14 -5 29 -1 -6 -3 17 -5 -18 19 23 -19 -6 16 14 -8 14 -30 -39 -4 -34 -12 15 -5 -9 -26 22 -39 -33 -26 2 -3 3 14 2 -9 5 -43 16 -8 17 28 -35 29 13 15 3 5 -12 38 9 -39 -4 20 11 1 -34 -13 26 7 -27 24 -6 11 22 -8 6 44 15 -12 -30 20 -14 34 35 36 5 -24 29 18 -20 4 10 -17 8 17 27 2 -37 17 -8 22 -23 -16 10 15 -27 -6 11 1 -6 6 29 -36 38 -8 27 -8 47 -3 39 -19 21 26 23 32 -3 11 7 17 3 50 -9 30 20 28 22 -23 -45 -16 20 -3 27 -21 9 -7 10 -24 -27 15 -23 4 -32 -5
23 14 29 -10 7 14 -15 -9 -11 23 3 27 -27 22 -5 0 4 -14 -15 24 -13 12 3 8 30 20 16 -9 -1 -25 29 -31 -26 7 -16 38 -23 -18 9 7 -33 -4 -36 19 -8 4 9 -20 18 -29 -32 12 -19 20 -22 -17 12 24 -16 -35 0 0 40 2 -17 -26 32 5 10 19 -3 20 9 -33 1 20 -10 -17 2 -38 12 -14 14 -31 8 30 5 -1 15 -6 8 30 20 -3 -46 22 7 -21 -32 3 29 -13 5 10 2 -26 32 -23 -10 43 -1 -5 9 -10 28 1 -13 1 -31 3 -12 4 -43 -13 -35 23 -28 -31 -7 -16 -3 -36 -2 30 -19 22 29 -25 -16 -25 39 15 14 -6 11 40 -32 -20 28 6 30 -4 0 26 -13 12 -18 15 4 10 -15 18 -28 27 -16 25 26 18 -2 8 23 23 -27 11 14 -22 -9 22 23 43 20 -30 -19 21 -38 -1 31 -16 -33 15 -33 12 7 32 -30 23 6 -22 5 30
-7 18 27 -24 13 24 -6 10 -4 18 26 14 6 -4 4 -36 -17 11 -6 -21 -26 -1 15 14 -4 -35 12 11 1 11 -16 -6 -7 -3 8 3 -24 0 -11 1 38 25 -12 -15 39 -31 -24 -5 -18 19 -34 30 -4 -16 40 -17 8 27 7 26 9 -19 8 14 10 9 -10 10 17 23 -33 11 1 2 -32 -2 -33 -17 17 12 -26 -17 -30 40 3 -15 -34 -7 -4 -20 5 -4 1 -14 7 6 10 19 -11 2 5 -22 22 -39 11 -5 -31 13 0 -20 -19 -23 2 -35 -33 -26 -27 4 8 -50 2 39 -23 -23 18 13 -22 -16 -9 28 13 -1 5 -19 6 9 -40 -34 23 -8 -5 17 11 37 46 22 -32 30 -10 -5 1 2 38 16 16 -4 45 -15 -8 16 -28 -5 -1 -13 -11 15 5 28 -31 28 12 -9 -34 16 -4 -23 11 -19 -20 -1 3 -5 -1 -23 -14 -25 44 8 -20 28 31 -18 -13 -27 3 -17 -3 26 -13 10
-31 -26 -25 -19 -5 16 13 11 -10 19 0 13 -15 -28 -21 16 -24 -30 1 -11 20 -17 30 -35 -25 -18 29 6 -29 0 -34 0 6 2 -12 18 -10 2 -22 28 19 52 16 27 38 -5 31 5 14 -22 -23 -26 38 17 46 -14 -27 -29 -9 -12 -19 -30 24 25 6 -5 24 -5 16 -13 -1 -35 0 -12 -28 -1 -21 15 38 -9 7 -30 -8 1 -13 9 -36 22 5 -34 -24 -10 -17 17 18 -31 -17 5 4 -32 33 -6 10 5 9 7 29 14 -17 -34 42 26 1 -9 20 -4 1 -20 6 -11 18 35 -39 -16 -42 -10 21 19 29 -27 11 -26 16 21 3 -22 17 33 3 -26 21 52 11 36 -3 25 -10 21 20 20 -25 -7 13 17 6 8 -27 -29 4 23 -16 -30 -33 -42 24 7 -19 -4 -27 16 -15 -26 -22 12 -20 -39 -11 27 -37 -9 -33 11 10 6 4 7 22 29 -18 21 -21 -17 8 -12 19 22 30 12 9 -13
-17 12 -8 -21 30 -6 25 -26 -2 14 -18 -3 41 19 12 30 -21 31 7 -7 -2 0 -5 -3 -15 -25 -33 14 -23 -42 -41 -33 -25 -38 -19 10 1 -17 -15 -37 12 9 39 18 37 25 35 -17 6 4 -16 25 16 20 -9 20 -5 18 -4 12 41 -3 13 11 -36 -21 19 4 -7 -23 4 -23 -25 8 -24 -20 15 6 -42 -58 -14 8 -4 -20 20 2 -6 -2 -16 5 7 38 -6 24 -31 -11 -31 -28 5 -10 19 9 -2 28 18 4 -18 4 -11 0 20 24 25 49 30 0 16 39 12 33 43 -31 40 -3 -26 20 -28 -33 26 -45 4 -35 -18 19 4 14 11 -19 5 -5 -24 -7 29 -2 7 4 -9 -14 -17 -29 -34 7 6 4 -8 -22 24 17 -28 21 -19 -24 -30 -16 11 -35 16 -60 -32 -43 -31 3 -49 -19 -1 -38 -15 24 -7 -41 0 11 6 6 -9 42 4 12 37 42 -2 0 34 -10 -20 -4 26 5 -26 -21
32 -2 40 -6 -14 9 11 30 -2 17 26 27 16 14 16 19 -5 31 -1 33 2 -25 26 14 -32 -10 -6 0 24 -5 -12 -33 24 5 9 -27 -3 -23 -31 -26 13 -19 25 31 18 -6 2 -13 -19 28 -17 -14 -10 -12 23 -13 30 12 -26 3 23 30 40 1 3 -38 -8 1 11 -10 15 25 3 17 30 -27 -22 19 -19 -25 28 -22 7 -5 -32 13 18 -32 -25 -39 14 -18 8 20 9 -31 -9 -15 -12 32 -35 17 -36 -6 36 -1 25 16 14 0 -10 35 28 52 -21 11 19 1 29 -23 13 -15 35 -28 -13 -4 4 28 -28 8 17 -10 14 20 30 22 -18 -16 -30 32 10 -39 -16 35 -6 -17 -31 21 -7 25 -18 10 -11 -18 -10 21 -20 7 16 3 -5 18 -3 14 -1 -4 15 -3 -4 -10 -28 -8 -49 9 -48 -24 -2 -7 -30 -1 -10 -7 -22 26 31 -26 -19 19 18 20 27 13 -15 -21 26 15 -30 -26 6 -12
13 -21 50 -2 13 43 28 -7 22 8 -18 23 -23 23 -21 0 -4 29 12 39 18 10 -25 -4 -20 -1 21 15 -10 30 16 8 -26 -22 22 1 28 37 19 5 -5 21 -14 -3 -2 -27 13 -13 -10 21 -24 -12 5 -13 7 10 -23 27 -27 -8 16 8 4 22 3 -10 9 -31 -2 -24 20 -2 38 -28 -33 31 -18 -17 45 12 -2 -21 7 -4 13 -33 -32 -2 5 6 -4 29 32 -37 31 29 -29 31 -31 -5 -29 16 -28 -19 -20 -3 -28 -31 -34 4 -12 22 -34 11 -17 -18 12 14 15 -7 37 -19 32 -13 -28 -14 -27 -8 -30 11 9 20 33 -4 -13 24 14 -10 -1 -4 -17 -9 25 47 8 37 0 -9 -21 -1 -15 -24 -17 8 10 -16 -17 -21 -1 26 -9 -16 -46 -16 -10 -14 -17 -46 -3 -17 7 -14 -25 10 -1 -46 -26 28 -18 -65 8 25 14 24 11 5 31 23 21 5 34 15 23 -12 19 26 -4 -5 19 30
7 -32 20 -26 34 7 -10 20 23 29 30 13 -28 14 22 -25 -29 -6 14 2 -25 -14 16 -17 46 16 23 -19 23 6 8 23 -19 -11 30 -34 -2 18 -8 21 38 -5 40 11 22 -1 16 6 9 30 51 -23 19 17 21 11 -7 -32 -5 33 7 7 -30 1 -44 -11 -4 0 5 2 16 -4 12 -17 2 2 -23 -20 -11 -42 5 -20 35 3 7 4 10 17 8 39 -23 -9 0 -16 5 6 27 14 -23 -11 -6 2 7 50 -30 -13 -11 0 1 -1 15 -37 -4 25 -23 23 11 -12 -31 23 14 -13 2 1 -26 -15 -8 0 22 -2 30 -33 7 -8 18 -11 -6 13 -9 8 -35 -2 1 20 -19 16 -30 1 13 -8 -22 22 6 22 4 -18 17 5 20 -29 -21 -28 -47 19 39 -18 29 19 -2 -31 8 16 16 32 7 -17 18 -4 16 -31 11 -2 6 24 9 16 -26 -28 -33 1 -9 0 -4 -30 16 -16 -1 2 -26 10
-27 -22 -20 -6 -7 -28 19 17 7 12 -6 -17 -31 -7 10 -24 -31 14 23 23 9 -34 -12 -8 -33 29 6 19 -12 28 24 -31 -12 -11 -21 22 29 16 8 -23 5 14 43 -32 59 30 8 -9 -2 -18 57 30 39 40 60 15 -8 7 35 -5 -12 5 -37 13 23 -49 -8 -50 -16 -2 4 -34 10 -4 -19 -26 4 17 -45 7 8 -4 -13 -2 4 -12 18 -11 1 -16 -31 7 -13 5 -31 -20 25 -2 12 27 11 -10 17 -3 -26 25 19 -19 -12 -23 33 10 40 51 -28 27 -10 -12 -16 -9 23 -4 26 28 -7 -24 -4 19 -11 -13 3 -14 -2 -11 6 22 10 -20 -5 26 -9 -4 6 8 -11 -27 21 11 -12 -37 29 -18 5 5 -26 -32 -1 19 -25 -8 39 26 27 47 5 -28 36 35 50 34 -17 14 -20 -6 6 -38 -6 37 13 15 26 -4 29 -31 30 -20 13 25 -25 2 1 -20 40 18 20 -17 26 -23 -17 -29
12 11 -16 24 -10 18 16 4 -21 -10 7 -3 20 -23 -35 -10 0 -20 6 8 -9 32 2 1 -24 -17 8 -20 -6 12 -17 24 -12 2 25 -6 10 -17 -17 -11 -23 26 12 12 -27 15 -15 2 -25 -12 -24 -33 -9 8 39 -12 -28 5 33 -13 -17 -6 -20 32 4 15 20 33 -23 -27 18 -4 14 -4 9 11 -19 9 25 10 -21 2 -28 -13 22 44 -30 -2 -1 22 17 38 -26 -17 -3 -8 -5 -15 -13 -16 17 -6 -2 39 4 37 -9 10 -22 -21 -6 31 27 5 -3 -10 -3 15 10 28 -25 -20 15 -1 12 0 14 13 -17 -6 -18 -3 14 -33 -10 -29 -28 -8 17 23 0 28 -13 1 11 -29 -22 -4 -21 28 -27 -13 -24 -21 -38 13 -36 -8 -17 -11 9 4 -24 -12 -8 -7 -5 10 2 -17 19 31 -45 21 -14 -16 -22 23 27 -4 -28 10 -10 4 24 -14 -4 -20 20 -6 -29 -29 31 5 -21 -25 6 -25 33 -2
5 16 25 24 -11 -8 23 -7 -1 -20 -14 5 17 7 -13 -21 23 -29 25 -15 29 19 -12 -23 21 29 19 10 -7 30 7 -14 -37 17 8 34 -23 -27 23 11 -21 -26 22 -14 -5 19 -22 5 24 -30 -26 -19 -24 -4 -1 -19 -26 17 -24 -6 -5 -15 -14 -13 -29 13 22 -19 7 -9 8 18 28 12 -31 12 27 -10 13 -9 5 -2 -8 27 -17 30 -17 24 -12 24 -7 -33 -5 5 -13 -21 8 13 32 4 12 1 34 16 -7 21 1 39 21 -23 16 8 3 27 28 27 18 -8 -22 5 -25 -19 -24 20 1 19 33 -24 32 25 -17 -7 22 -3 -25 -27 21 -4 4 -2 24 3 -32 -11 -30 -29 -11 9 -20 -5 10 24 1 33 13 2 3 4 23 -5 10 -5 -14 10 5 -7 -10 -1 22 7 -15 -2 -16 -27 29 -23 -11 -31 -15 0 18 -26 13 9 -6 -4 19 4 12 -19 16 -1 18 22 -7 14 6 9 -10 -27
14 -15 -22 19 -2 -18 18 -10 16 15 27 11 13 -16 -13 25 27 31 18 2 8 31 59 24 -23 37 0 13 40 13 26 37 -7 34 17 15 -29 12 19 12 -28 9 -6 -25 -23 -20 -13 1 -21 -28 30 -25 3 6 21 3 5 25 28 -42 31 -14 -28 -19 34 57 -18 49 3 14 -7 -15 0 -14 -6 2 -28 -30 30 -21 -20 28 31 14 -31 -35 -9 14 -9 -30 51 37 -32 34 -8 -5 24 8 -7 24 10 -27 17 8 2 7 -8 -3 15 -39 25 20 -3 -1 -30 5 -7 9 -28 -15 -26 -26 -32 -62 -37 2 22 -31 -32 -2 -19 15 -36 -31 0 -18 -3 -21 -63 7 11 -16 -40 -36 4 15 20 -33 -1 -21 3 -39 -7 4 -62 10 -15 -21 -3 -6 21 -30 -12 -30 13 -15 29 -13 -7 -31 -22 19 -25 32 9 10 -1 -29 -6 20 19 22 -8 39 19 18 -8 45 14 18 -1 33 14 -21 -33 -19 -29 -10 -15 -17
20 -13 4 -15 12 -7 -20 -31 -12 25 -22 -19 15 26 -27 10 20 12 14 -17 0 43 -24 3 -6 2 -30 23 -20 -23 -16 -29 24 -8 -7 2 -17 1 -3 28 35 28 29 29 -20 -9 -3 -20 28 20 -6 5 8 -27 -8 -19 -5 -20 7 12 -15 -29 -2 -30 13 29 -31 29 -8 0 14 -29 35 8 1 16 4 -25 -10 -1 -3 22 -10 12 9 29 18 20 -19 22 16 32 -23 16 -17 -2 -5 3 18 9 30 1 14 -16 29 9 -1 10 24 -4 -14 26 8 41 17 17 -8 -12 13 -9 -5 -6 -11 12 17 -4 -29 -28 -18 -11 -4 -22 -48 -62 -5 -26 17 -1 -22 3 -11 -22 9 37 1 35 -31 -30 28 -9 8 4 32 -11 19 1 -13 26 -21 15 -1 -2 -23 -5 -23 8 -19 32 -3 26 -11 7 -24 33 -29 0 -4 -23 -28 2 -24 10 -15 15 26 -4 -3 22 12 -3 19 12 43 4 19 17 -15 -10 16 5
14 8 31 -11 15 23 -36 13 -21 -3 -8 13 20 -24 -5 22 -3 20 3 19 -18 10 49 14 11 27 23 18 27 43 -8 6 40 -28 -6 45 6 1 1 19 23 39 40 0 9 1 -24 -13 13 22 20 13 -5 4 29 -10 -22 -7 -16 4 -7 -28 -23 -9 -49 -25 -8 -6 -52 -16 -2 1 -16 -14 23 -23 -45 18 0 -35 -33 -4 -2 28 -15 20 17 5 14 0 23 18 -28 -16 5 -4 0 1 4 4 -37 3 -1 11 25 30 20 25 8 -10 -5 8 10 7 8 28 31 -14 -8 39 -51 37 -6 35 6 -7 16 -7 5 8 0 7 4 31 -28 -21 -16 10 -35 -29 -5 -18 3 -23 -18 12 -12 18 7 -20 -35 -37 -40 -49 12 -52 0 -19 0 -12 -26 -15 -14 25 -10 -10 -4 5 0 -45 -34 -10 19 -4 -36 6 25 15 12 -11 1 3 11 -26 20 31 26 7 -24 16 4 7 30 16 20 32 -18 0 -2 24
21 22 11 -26 -14 -31 -27 -3 24 15 32 12 -2 -29 26 -11 12 -16 22 21 33 -20 12 -21 -19 5 41 7 -16 33 38 -10 -4 1 7 31 -9 20 -6 23 39 49 34 -3 8 12 20 -6 24 3 22 11 28 22 34 -17 30 24 2 -22 4 -4 -34 27 -4 -14 31 12 -20 -6 -42 -7 13 2 -12 -12 -9 -13 -48 16 7 6 -8 -34 -16 3 31 -17 -48 -50 8 -1 8 10 16 11 27 30 5 -29 -29 -30 -28 10 -27 -32 0 12 -22 -19 25 -5 -32 -24 -30 -36 -3 -7 29 -13 -10 -6 17 55 26 29 -15 -6 12 50 24 45 11 -1 16 -23 -1 20 36 1 -7 -17 23 10 26 46 12 31 -45 20 23 23 10 19 -19 12 -8 -27 -16 -26 35 1 35 -20 -4 25 9 24 -23 -2 49 9 29 -12 17 2 -19 22 9 -27 20 -32 21 7 -14 -36 -30 16 25 -14 15 -10 -9 8 -30 -11 -1 -6 20 -22
7 17 -30 23 11 30 32 25 -27 28 -28 -28 24 8 -14 -39 1 7 10 3 16 27 28 -15 -16 -16 -26 40 30 20 28 16 -15 21 6 17 37 -15 9 -24 8 15 29 -25 35 -29 24 32 15 -12 8 13 7 -7 13 13 11 2 -32 37 -32 1 -11 18 -48 -18 23 1 -13 6 -26 -12 -34 -13 -27 1 -5 0 12 -14 31 -4 19 -6 -9 30 21 -4 16 23 -2 18 31 -17 8 18 -13 -30 2 29 5 -22 20 -15 -19 -8 35 -25 -2 -28 38 23 31 4 18 -5 0 -20 -7 -22 3 38 -5 19 -34 -15 26 -19 -19 12 1 -16 0 -2 -1 5 17 -25 33 -16 7 23 -14 44 3 29 0 13 -10 2 2 31 10 28 9 28 -13 -19 -7 -17 24 7 -25 0 9 -4 17 29 -1 -12 -10 -18 -6 -17 30 -5 -32 -10 -1 13 -13 -22 -28 -22 -59 2 -32 -54 -36 6 19 18 -20 -37 10 2 -32 -22 -25 11
23 -7 28 -24 13 5 -16 25 24 22 -4 -8 11 -17 26 -26 27 -6 6 1 14 -3 28 -26 -29 14 23 -5 12 19 -28 17 24 -11 7 26 -9 31 -11 6 1 -12 26 -24 0 -8 14 28 7 9 29 24 -13 21 40 -12 -31 -25 -14 -13 27 -15 30 12 25 13 -6 12 -9 28 19 12 -28 -10 0 -15 -11 9 -4 -7 1 17 -24 3 -24 2 -17 17 -13 16 22 29 10 -2 -31 4 17 -29 9 5 0 23 10 32 -25 14 0 6 11 24 2 -33 -16 11 -26 25 -29 -4 23 -21 -25 6 15 2 24 -16 -1 10 28 32 -15 2 -41 6 3 5 6 -32 -4 -8 59 12 -22 -1 47 21 -30 -6 6 -4 -8 -1 7 -16 -1 4 10 -8 10 -12 -21 39 -3 -26 -28 19 -35 2 -27 3 18 -5 19 -9 14 5 6 14 11 -6 16 46 -9 38 -18 19 6 -6 11 -10 27 40 15 -37 -26 -12 -24 -9 14 22
-14 -22 -22 -32 -26 -13 -20 -20 19 6 -8 3 -31 -26 22 -37 -29 -6 -16 16 -12 43 45 18 -14 -15 -20 30 -2 22 -11 5 -10 16 -22 40 5 -16 -30 -3 -13 32 30 -8 20 15 37 -3 0 -19 -5 -30 19 21 42 -11 -12 26 -6 2 0 15 -23 24 1 6 18 -28 20 9 -24 -29 1 29 29 36 -21 16 -38 24 -35 -17 -28 7 -3 15 -23 -41 -17 -33 -7 22 -23 -5 15 -14 -49 -21 6 18 28 42 0 51 12 -9 39 31 10 -20 27 9 11 12 47 23 3 4 38 48 -52 31 10 -43 6 -3 -13 -7 -30 -16 -15 7 5 -29 -23 15 22 9 -18 -24 49 46 16 20 57 -7 -13 13 -23 33 -3 23 38 23 -10 14 2 9 29 15 -20 30 -24 -4 30 -18 15 -20 -41 -9 14 -6 15 14 17 -3 32 -18 10 -2 -16 6 -36 7 -34 -11 -9 -13 7 26 12 14 -26 6 8 -26 -40 -11 5 -21
3 -16 -22 -22 -18 19 20 4 -26 -3 9 -32 18 7 -22 -34 10 -19 -31 -11 -12 12 -16 -6 11 -19 9 -24 18 -17 -17 3 1 6 33 23 19 22 -1 6 44 -6 18 3 34 14 -19 25 -6 13 -11 25 -8 -3 27 -27 3 3 6 29 -8 20 -25 18 3 0 16 -21 -40 -10 4 27 -16 -30 19 -24 20 -20 11 -6 27 20 -3 -43 28 14 -5 5 22 35 21 39 28 25 -2 21 -12 35 -9 11 -20 21 15 10 9 33 -6 1 0 20 -28 -23 -15 59 14 28 11 48 9 -10 27 -26 -5 21 26 30 8 29 -12 -28 11 -13 -30 -14 21 -11 -22 -26 -10 -6 35 8 41 -3 32 46 -7 -27 23 -27 4 -1 23 -2 -3 -15 15 35 25 2 13 24 -26 18 10 -66 14 -38 -48 3 -5 6 -16 -41 -38 -17 28 6 -40 -31 -13 -15 4 -1 10 32 -22 21 14 -18 -14 -12 28 2 3 -16 -3 0 -10 27
-7 -6 -12 -27 -39 16 -11 2 -25 -6 -13 12 -5 11 26 -18 -8 -4 28 30 -28 29 30 -20 -3 27 15 -10 -14 -21 15 -32 28 -26 -8 17 -24 0 -35 -26 18 -2 -5 21 -4 29 -2 -15 23 21 -3 -18 0 -24 2 22 7 30 17 -28 19 22 10 -19 36 10 -32 4 -2 -7 9 -24 14 -14 -8 -18 34 24 -22 -22 -25 -1 -3 13 23 27 13 4 -2 -9 2 -6 -29 -20 -11 38 -7 18 -4 -8 -18 29 9 -2 30 28 11 -22 -6 -6 40 34 -15 3 22 12 -3 -17 -5 25 -3 13 6 10 24 46 27 23 32 26 -14 0 9 -1 21 31 -20 -22 -23 18 31 23 62 54 31 1 16 -30 39 0 -3 -31 14 35 29 -2 38 21 39 -25 -9 -9 -19 -29 -16 -42 21 -16 10 -35 15 -21 -53 1 10 -51 6 25 -12 -62 -31 -8 -6 2 -18 21 26 -5 13 -4 -4 30 -37 -3 -27 -14 7 -19 -26 24
23 -8 15 6 39 2 -31 19 -17 35 9 -20 18 7 -6 -12 12 2 27 37 -34 -2 -21 15 -11 -32 20 1 -12 31 -35 -29 0 -10 -20 33 8 14 -31 0 38 30 13 -28 13 -8 -24 11 35 21 -8 15 58 -13 46 -31 14 4 14 -5 2 -2 -19 -16 -20 -4 -21 -41 -7 -1 25 -1 -38 -10 -22 -8 14 -16 -27 -13 33 -12 26 -2 20 -1 14 6 3 -6 18 -43 -22 -8 -8 -25 -21 -29 -20 17 18 42 -4 22 20 -36 37 -16 -20 7 -5 -26 -43 10 -12 7 9 14 12 0 0 30 -32 17 19 35 28 -18 19 3 -11 29 -10 -25 -9 1 -21 20 -18 -31 29 -26 15 19 -15 -7 0 -10 26 -22 -17 -7 -13 -18 -4 -21 -4 -14 -1 -32 -15 -22 -48 13 13 -50 7 -56 -35 -17 -36 -3 -33 -38 16 -15 30 -10 14 -44 -7 -19 12 -23 -1 -10 35 -1 -7 -16 28 -26 -20 15 -21 -28 -26 11 -4 30
28 5 -20 14 -15 29 -5 -4 -4 -17 -17 31 -8 -14 -30 -12 -23 26 26 1 29 -28 29 -3 -7 26 -16 -16 22 27 21 -12 5 -21 12 -13 -9 11 -24 21 0 17 -18 27 -23 25 -20 4 -24 14 -39 -3 -12 20 14 30 1 -16 20 26 31 -6 32 -10 27 -4 4 -28 18 16 -13 22 -9 46 38 7 1 -25 -24 29 -6 19 37 18 14 -34 -31 45 -8 -5 -33 -5 11 -11 23 5 -28 4 -27 14 51 -3 6 47 -18 3 -26 8 -2 29 17 19 16 -14 -14 37 6 20 -9 9 11 13 -43 0 20 -10 -14 1 27 -9 8 -3 -29 20 18 -10 -16 -22 -1 24 -26 -30 24 7 3 -10 -8 1 -1 21 -20 -7 -4 30 25 0 22 -16 45 20 -30 -36 -53 3 9 -32 -1 6 -38 3 -12 -33 7 13 23 -54 6 24 30 -37 0 -11 -6 20 -28 -13 -22 -3 -5 -22 24 -21 10 -3 -16 5 24 25 -6 -5
8 -5 1 -2 3 5 -12 3 1 14 -9 0 26 13 -22 -6 -17 7 7 -30 -35 26 -8 20 13 -26 14 -14 -25 16 11 12 12 23 -32 -14 -24 23 -9 -11 -6 33 -2 -6 -27 0 17 29 46 7 -11 -4 21 25 52 -19 -9 6 23 -30 18 -21 -23 23 -22 32 12 -8 30 31 24 -28 1 4 25 0 21 -22 -1 18 19 9 -18 33 11 32 27 -30 0 21 6 -17 -18 -40 9 -16 21 -3 0 -6 -4 8 12 -11 -36 0 -21 -10 -8 19 18 -19 -28 -5 -8 -4 -5 7 -25 -16 -23 -4 -8 5 16 15 31 -27 11 -5 7 9 -3 23 -30 21 3 -31 -11 19 -29 5 -36 -28 23 -23 -20 1 22 18 12 -14 -7 -4 -7 27 14 12 -1 10 16 -24 -2 3 33 -53 -31 -5 -6 -36 -49 10 -39 10 31 21 22 11 6 -14 29 23 -25 2 4 -7 5 7 12 -27 0 4 20 16 1 3 -14 -14 28 14
-13 -16 -24 -38 -9 17 -14 -1 -9 5 -12 9 18 1 -15 -4 -9 22 1 25 13 3 26 -20 24 -21 -28 -2 0 29 -16 1 13 15 26 20 -8 -21 -3 -22 -14 5 50 -3 9 -14 9 -11 -6 25 -7 -5 5 -8 19 -8 7 -16 16 8 34 17 -10 13 26 -1 26 -3 16 -3 25 -26 9 -24 20 25 -26 33 -5 -24 15 -27 32 21 16 32 4 5 -6 -20 -26 19 10 31 -7 33 17 -1 -17 -8 51 -7 5 38 28 20 7 27 24 -6 -17 0 -9 10 37 9 9 -2 -24 -15 26 33 -7 -23 14 20 7 -7 9 -40 20 -12 -9 21 15 -1 17 27 -33 12 -24 -21 17 3 -21 1 -12 32 -6 -4 -5 -32 -38 -37 -28 -27 11 3 14 25 -1 -13 -39 -29 -17 8 -33 3 -25 -21 -21 -7 -34 -44 -2 -30 -23 26 -21 -43 0 -19 -4 -12 -14 15 -18 -7 -17 -7 -31 -5 -19 -15 13 4 37 -3 35 23
14 -1 1 15 27 24 13 5 -30 -1 19 9 28 7 36 25 -8 35 2 19 22 -14 39 6 -4 8 -2 26 17 34 -13 18 -3 -21 8 38 19 -7 -17 -21 -2 16 -21 9 -6 10 -32 10 -6 -5 22 -29 16 17 -17 -32 17 -8 -20 6 -9 -20 16 -22 -25 7 18 -11 -3 -28 -30 -22 -12 3 13 7 -20 12 -28 -22 31 -36 0 21 22 2 -3 9 15 -29 -26 18 30 -12 -1 21 11 13 -12 28 13 -2 33 16 22 8 38 9 -7 35 -3 40 30 18 9 -12 3 0 1 25 -9 -26 35 0 -22 5 6 -36 4 -9 32 -22 16 5 -5 0 -8 -5 -21 -21 0 32 -32 13 0 -37 0 4 -28 2 -20 18 -37 19 -23 -31 -8 -18 5 -15 -24 -16 3 7 -1 -39 -30 -4 1 -32 -32 -31 -34 -3 14 30 -1 5 -32 -44 24 3 21 -18 16 -23 -27 -8 14 -21 -16 -1 -10 25 -15 31 29 10 20 6
2 -24 -30 22 5 12 9 -41 -35 5 -32 -34 -22 -15 -50 -1 12 16 -21 -28 -21 48 33 9 4 -19 7 0 1 40 30 -40 -11 -27 -5 27 8 9 15 16 30 -47 37 32 45 29 0 -22 9 17 14 21 51 -23 32 -4 -18 12 -22 28 -14 -16 -16 14 -25 -69 -16 -48 5 10 -2 -14 -37 -30 6 -14 -15 -24 7 -33 -24 27 8 11 14 -4 -22 -25 -4 0 15 13 23 -10 -28 -13 -33 -5 -19 28 -14 20 -20 39 62 16 5 36 48 0 4 4 26 -6 -24 5 -34 29 -15 61 6 -9 -13 -2 2 -22 7 -21 9 -13 11 32 -59 -31 -1 -11 1 -25 -46 24 3 -7 4 10 -36 -49 -21 -8 -27 -21 -14 12 -12 -6 26 -27 -10 7 -7 -15 32 21 48 -15 37 4 32 -4 -24 32 52 10 9 -24 35 20 29 21 0 34 5 14 -15 -11 9 -13 -6 36 13 2 18 -3 -10 24 -28 -38 -16 -29 -25 8
20 -2 -14 -18 5 0 29 -29 -12 -28 26 14 -13 3 -10 25 -2 -16 9 19 -19 19 -20 15 -26 43 4 -1 27 16 -9 3 44 20 10 -10 -40 15 19 -19 -4 12 18 -13 -3 26 8 23 54 -14 12 12 6 -18 45 14 14 -18 -8 26 -11 -53 12 11 -8 -23 -19 0 -5 -23 16 -21 21 1 -2 -21 -38 -23 21 -24 3 -48 -10 -37 17 -1 -11 -48 -36 -37 -16 23 18 -6 -38 -59 8 16 -5 5 30 -7 4 23 22 -19 -5 14 26 5 7 -17 44 61 5 -23 15 12 -25 50 -9 -22 30 -21 -26 -10 0 -25 -4 13 -7 -3 -36 -27 -20 -20 -7 -33 -23 -21 1 -8 -15 -51 -50 -17 9 13 -14 13 -12 12 -18 15 16 -53 -50 24 -16 9 33 20 -32 34 42 -13 27 12 -31 23 -11 -16 2 15 19 8 -9 16 -1 -17 -26 -31 -8 29 33 3 -11 -24 -3 11 -1 25 12 12 21 -14 -15 2 3 18
-6 2 17 19 17 13 37 3 26 15 -20 -20 18 -4 -9 23 39 -9 -33 20 0 40 4 -27 28 18 2 40 31 36 16 22 35 -9 -36 -22 6 22 -1 10 25 15 2 29 29 5 18 26 9 31 9 4 2 -2 3 -18 -27 -29 20 32 -33 8 -44 -22 7 -32 27 -35 -18 30 -13 -38 24 0 24 -40 -33 4 -47 11 1 -3 -17 -7 7 4 45 -10 30 -7 2 1 8 11 -20 17 19 -18 6 23 -50 39 26 7 8 6 0 -31 -41 -68 26 12 2 -30 -18 -25 -15 5 -1 -37 44 27 8 6 17 -35 -18 -41 -26 28 -24 1 -28 19 11 -25 2 0 -17 16 19 -23 -10 -12 -13 -26 -7 11 0 -37 -25 10 -19 -14 -37 -38 -20 35 38 -18 32 -36 19 -30 38 39 10 -33 33 -31 20 16 23 33 18 -41 -34 22 -12 40 19 3 6 -15 -26 8 51 -3 -1 -7 -4 21 -16 -16 14 13 22 10 -41 32
1 -25 23 -17 -6 -22 -8 -32 -15 30 -18 -4 -5 -14 -40 -19 -9 14 -1 3 15 27 0 4 -16 6 -32 30 -8 29 -25 25 -5 -32 16 41 0 -33 12 40 30 10 -17 13 2 3 -14 25 -15 -5 28 -25 7 8 43 15 -8 -13 9 17 12 18 -8 2 29 -23 11 -40 10 -12 -27 22 -41 30 11 -7 -7 18 5 19 -10 42 23 15 -27 -10 -19 5 27 2 -7 20 10 2 -1 -8 23 -22 -21 4 23 -8 33 -16 -14 -11 24 -6 16 -20 36 -15 35 37 22 16 7 28 10 0 8 14 1 37 37 19 3 42 -17 53 -17 -5 4 -7 -25 3 -12 14 -3 11 15 3 -15 14 -6 15 22 -29 14 -11 -4 3 -10 34 34 16 13 -16 -24 2 -1 -12 -16 -4 -22 -21 -24 5 32 18 21 16 37 -2 20 37 30 31 30 13 3 7 -22 30 15 3 5 -27 -6 22 30 -22 -14 -33 -23 -4 -38 -10 -35 27
3 -14 -21 -11 18 -16 22 11 -1 -18 20 3 -24 -20 16 18 -18 19 13 -1 -40 9 44 18 16 -7 -9 9 -12 23 -2 -31 -2 -29 -13 5 -28 19 12 15 3 39 17 -24 47 -1 22 -17 28 17 6 9 24 -19 38 27 -8 29 0 46 -9 -13 -20 26 -13 -46 18 16 -25 -25 -38 -37 -34 3 -43 -63 -9 -31 -28 -13 -16 2 -1 -4 3 14 29 -14 -23 7 -35 9 -27 -24 23 -30 2 16 -15 13 3 16 33 35 33 16 2 -2 7 33 -5 -35 13 28 8 -23 -31 -14 27 -3 -27 -4 -9 21 -13 16 4 -29 -19 -16 56 -17 4 37 -9 -20 -31 10 -12 -25 -27 8 -43 -28 -16 -2 29 -14 -36 -30 -14 -9 -15 -18 -37 5 4 12 -30 -12 -17 -3 -9 14 9 3 19 1 1 -2 55 21 43 -18 14 27 42 14 16 33 -28 11 -15 -16 -27 -7 -19 -21 -8 -1 23 -7 -38 7 -32 -11 7 19 15 18
-25 21 31 25 -6 -18 -1 -17 11 19 -11 -2 29 -18 -10 35 39 -28 1 5 31 -5 -19 21 -33 -6 -12 6 20 -22 22 20 -18 4 35 21 17 3 0 11 17 44 50 -10 -9 29 13 0 6 6 20 -25 15 -24 36 4 -23 0 -2 -13 14 -43 4 -1 -41 4 -14 -44 -25 -21 19 -42 4 3 7 -44 15 -9 -6 -23 15 -11 -23 11 18 21 5 29 21 26 -15 18 14 -25 5 21 26 28 -2 15 -33 -4 -37 -6 -30 -30 -10 -32 -15 19 37 -28 -21 -26 -14 -34 -9 -22 0 -44 -23 39 -15 -48 0 24 13 10 20 16 -28 29 -14 35 -6 -54 -4 12 -21 -15 33 -5 -9 19 42 -8 8 -32 5 0 30 19 31 16 -1 -8 16 34 38 25 7 29 -24 39 22 -8 22 22 10 4 19 7 34 2 -13 4 24 10 16 -13 20 -15 8 -8 -49 -19 -37 -31 -47 8 -14 -14 14 -36 -18 -47 -25 -20 10 -26
5 14 33 35 9 20 4 -3 -36 4 30 -13 -30 25 22 19 -22 -18 -36 -1 -22 32 3 29 -23 -16 34 27 30 -4 -30 11 43 16 28 62 -11 -24 -32 12 7 20 20 -10 -17 12 -3 27 -11 -22 3 -25 53 27 37 -13 21 -31 13 -24 -9 -1 -32 27 -28 -46 -3 -21 -4 30 7 -14 -4 -13 -37 -44 2 28 -27 -12 -11 -20 14 0 4 27 12 -46 6 -22 19 -7 23 -7 -26 0 4 27 -3 -3 3 19 -11 30 -21 8 1 -8 -30 23 -4 13 -28 18 22 -17 -18 -7 -18 -1 13 27 -4 -16 -1 21 -22 -13 26 -9 15 26 -3 7 -23 -15 34 8 19 21 -7 1 14 35 -10 -5 10 -18 16 -43 -14 31 15 11 -3 -34 15 11 -7 9 -4 12 -25 23 15 -9 11 3 18 5 14 -15 -11 -5 -20 -21 -10 -16 -36 -10 9 15 -32 15 -23 -9 -29 -19 1 -37 -11 0 -37 -55 23 -32 -16 -3 0 -6
27 3 28 1 10 24 22 -5 0 39 4 -1 -24 -9 19 37 11 -12 -23 2 -23 4 27 6 -25 -30 11 7 -14 8 7 -7 -4 -13 -6 -37 -8 -29 6 5 -12 16 -15 1 13 20 -20 19 0 -9 -9 -13 27 19 50 10 -9 -29 30 -10 0 14 11 -25 4 -2 -14 -20 -15 20 3 10 1 -18 -26 9 -11 19 23 2 19 -1 -5 -21 8 15 20 -20 -30 -21 27 -23 5 -17 -14 -18 -20 -27 22 -12 2 51 -43 28 -9 3 52 -27 -36 -40 7 -15 -26 29 -30 14 27 -20 -38 -47 8 8 14 20 5 -20 24 -3 -1 40 -40 -35 6 -20 17 27 23 -5 -4 -16 1 -18 10 -10 56 2 12 -28 7 6 -4 -15 -23 13 4 3 1 -19 6 -30 -20 -25 -16 -5 -6 -44 8 2 -48 -7 -9 -24 3 -24 -28 6 5 -32 -44 -29 -17 18 23 14 -10 13 -8 3 11 23 17 -4 -1 -9 8 13 9 -19 -21 -4
-32 -21 -9 32 17 -26 17 6 -33 18 0 31 -2 -11 32 19 3 32 -2 13 -21 3 -30 19 -26 -15 3 -17 19 -20 19 14 -21 -33 -33 8 -13 3 3 -33 -20 1 20 9 -26 -29 5 19 -15 11 -6 -26 15 -3 23 21 -13 21 -15 -27 -17 -22 -24 8 -21 19 21 -7 -18 16 16 -28 15 36 0 32 9 18 -11 32 19 -22 1 -8 -2 18 -4 -31 -33 4 1 -11 -31 -32 11 -23 -10 -22 -6 27 1 9 11 26 -6 45 54 5 -6 -17 -9 28 13 13 -19 46 -19 -26 46 4 7 -8 -13 28 -19 11 10 -30 -26 4 -5 -36 -20 3 -32 -4 -1 23 -25 28 32 -32 31 24 -21 33 11 -8 7 -16 -6 14 -13 -27 32 23 -21 -8 17 -19 15 -21 11 -13 15 -49 3 -11 -51 3 -18 -11 -54 -8 -30 -10 -19 -3 8 -56 2 -12 -26 17 20 40 31 26 -16 6 8 -12 13 13 -26 19 -11 -22 -15 -2
16 17 19 13 23 -10 -6 -27 28 -13 -17 -19 8 -13 -21 20 -16 24 22 -2 -25 7 3 -8 24 26 30 39 20 9 -12 18 -6 31 -22 -8 -18 25 19 -8 1 -8 -13 31 31 -6 -31 -4 -10 -23 49 -21 -2 -16 53 29 14 -16 -27 7 6 -20 7 -8 -25 -4 3 -3 -34 25 9 15 -3 -17 -5 17 -29 -14 11 13 -6 13 29 -22 -30 -15 -35 -21 -24 -20 -22 -15 28 -25 20 28 25 -27 12 -17 11 16 29 29 -9 11 31 20 22 30 -9 -17 -2 16 2 -13 13 39 24 25 -29 12 -5 -7 2 16 10 -22 -17 8 28 10 14 -19 25 17 14 12 17 9 13 -21 30 -6 -30 -18 -12 8 -33 22 1 12 -8 24 -17 4 10 4 -11 10 -16 -43 -50 -35 29 -14 -2 -28 -33 2 -33 -10 -58 5 -29 -47 -8 -12 -17 -60 -5 -33 26 16 25 10 22 -1 -6 0 -16 -9 -26 -29 25 -6 0 -20 19 -19
-7 -18 20 -32 13 21 27 16 -27 -24 28 -18 -15 -18 -3 -7 -22 36 -17 -13 -12 -3 19 18 1 -20 -12 7 17 -14 26 16 30 22 14 -30 26 -11 -14 -6 21 -14 -28 3 2 19 -4 32 -12 -5 -31 30 -31 -4 -6 -7 4 -6 6 26 20 32 19 -21 -18 -31 10 1 17 -24 10 17 -32 -3 -8 29 -22 18 -10 27 11 31 23 13 9 -16 -19 -4 17 34 -36 7 -32 -8 -16 -35 -25 -6 6 -31 8 21 -16 37 -20 -11 23 2 45 29 -21 -5 -17 -4 -27 16 -31 -4 -14 16 -14 30 24 -16 46 -14 5 25 31 19 20 -7 -14 -12 -2 -4 -16 34 22 -13 -8 -27 -4 21 -23 -23 16 22 10 -12 13 -19 1 -24 18 9 -39 -14 4 -8 -31 10 -39 22 20 -41 12 -13 -32 -19 2 -6 -17 9 -29 6 -4 -15 -25 -29 -21 -13 4 -17 3 -24 29 27 2 21 30 0 22 18 -22 1 23 -19 -24 29
-13 -23 -12 -17 11 -16 -2 -28 -29 -2 17 20 15 24 28 -9 20 -28 -11 22 -25 7 -28 -25 -17 3 -19 11 15 -20 -10 28 -23 28 17 -23 -6 -10 2 22 -32 -17 18 4 6 -18 12 -12 -18 21 18 30 10 -7 19 -21 -21 -13 -11 8 8 -3 33 -7 -11 12 12 -19 -10 29 10 -19 12 -28 34 6 32 -1 -29 24 -25 5 -23 7 18 12 -20 11 21 28 -15 14 1 -4 -19 -5 -14 24 33 22 32 18 1 15 -24 -13 17 30 37 9 -7 20 -9 36 2 9 -30 -12 -2 2 -25 15 -11 -33 -11 -37 9 -19 -14 6 -24 12 -13 -26 -33 -43 -10 -27 -16 -34 24 -20 16 -4 -31 18 -28 -14 -9 -17 5 24 -14 -4 -21 4 -28 -31 -10 6 -23 12 -37 -23 26 12 -28 -36 -15 -22 -5 4 -18 -29 -10 -26 17 23 15 -27 -24 -32 13 15 -7 27 15 14 15 -29 13 7 31 -37 -5 -28 -26 15 -3 28
-26 -23 30 18 17 -32 8 -3 -30 -26 -14 30 -30 29 -22 14 -20 -9 -24 -26 18 -2 27 16 14 -30 -6 -10 6 3 21 18 4 -13 11 16 7 -21 12 25 -15 37 -24 -7 -15 12 14 -28 -12 -32 35 23 -22 2 28 -1 -26 3 5 22 -26 -10 2 -15 15 -4 -4 -3 2 5 14 -17 18 29 13 2 0 13 -25 -9 -25 -28 -12 17 -4 3 26 26 15 1 -15 -13 -13 -12 24 29 -24 7 -23 15 24 14 9 21 -34 20 20 -17 -20 -7 33 26 26 6 -37 25 16 -13 -30 -7 -25 3 21 -11 27 8 -28 17 -17 -31 -27 -25 25 -32 -29 20 29 29 -30 -30 15 -3 -12 -26 -3 25 -29 0 -32 4 26 -12 8 -25 -15 -24 -34 21 13 11 6 16 23 25 -12 3 -26 -16 2 -3 -19 -23 -24 22 26 14 -32 -14 -17 -2 -16 -29 32 -16 13 -23 35 -8 -12 -1 -29 -1 -22 -22 34 -31 17 -23 -30 -16
1 -17 17 15 -4 23 -30 15 -16 -5 -30 -16 19 -17 0 21 -21 6 32 -2 -6 39 -12 -5 18 28 -26 4 -17 17 43 -18 -5 22 4 -1 23 23 -6 28 1 -20 -12 -9 5 20 -8 20 21 16 3 -2 34 9 5 -1 -17 20 25 -1 -10 -19 25 -29 22 -19 18 -31 3 -21 0 10 -25 19 -20 -9 13 14 -18 9 -11 -7 -5 -16 26 -11 -25 -6 -7 -1 -27 20 26 -33 -25 12 -28 16 -15 -10 23 9 10 23 -30 14 27 -26 0 -1 29 16 -28 6 -16 27 -30 -12 5 -6 1 -8 19 -10 -37 4 28 -22 16 20 28 5 27 -15 18 -33 -31 -19 -28 11 -10 -5 20 -14 -6 -15 0 -25 -3 -16 7 -27 3 45 13 14 30 24 57 12 16 -31 13 7 -4 -4 -15 -4 1 2 19 -11 -20 -18 1 -6 3 39 20 -16 -7 -24 -10 -9 -3 -3 12 -2 14 -25 31 29 -28 -15 30 14 -10 -11 5 13
-17 18 -14 -30 31 -9 22 27 3 9 -26 -6 17 36 -36 -7 2 -5 22 18 8 -2 -34 1 -10 23 -10 -21 0 -39 29 -19 1 28 -48 -9 21 -5 12 13 1 26 55 30 9 -10 29 2 16 27 45 41 10 41 41 -21 2 15 -12 2 10 -21 -12 0 29 -27 -31 -2 -17 15 12 -8 -18 -25 8 5 -25 27 5 -4 21 -16 29 -27 -11 -10 -47 -26 -36 13 20 -36 6 23 -44 -12 13 -45 28 24 -9 22 -15 19 28 -23 -33 38 20 7 -22 -21 -18 16 -24 12 30 -8 18 35 -9 -3 2 10 3 7 16 -23 -18 22 -17 23 -36 -20 24 -18 -21 11 9 32 -1 -11 -25 -31 -12 38 22 -32 -21 -11 28 35 -23 -20 19 -4 -12 -14 -44 20 -1 28 -4 28 43 14 22 -17 39 19 29 -6 4 21 18 34 -23 -6 -6 18 -3 -38 -8 3 -4 -4 27 3 25 12 -13 22 -11 21 -40 9 -5 -33 -9 30
14 21 13 10 -16 14 -7 -14 16 32 9 3 -1 15 4 -22 -2 -19 17 -10 -16 0 23 -3 28 7 -31 27 23 -2 20 14 -18 31 -2 30 17 31 -16 34 13 19 2 7 -38 4 3 -19 9 21 14 13 20 16 -16 27 -13 15 17 6 -22 -6 29 7 40 -20 -4 45 -21 24 37 24 35 -6 42 -9 46 -6 46 -15 26 8 33 12 -25 29 -29 0 -3 17 -14 26 -20 13 -13 -5 -6 -18 -3 -1 53 -11 18 36 -11 28 22 -20 -4 -13 1 20 1 0 -13 22 23 14 24 60 -2 14 -32 0 -25 -28 -21 0 -5 4 23 -30 -52 -19 18 0 25 -18 -6 -45 -10 16 13 32 25 -9 19 -12 -19 -31 -5 3 29 -7 -6 -2 -21 -14 -22 4 12 -21 -25 5 12 -24 12 1 2 -11 -2 -16 -28 11 9 12 -9 29 -7 -13 -9 21 5 5 -10 11 2 -49 -3 -28 -4 -9 -37 -22 -25 0 0 -28 -24 -27
-26 8 20 0 24 -30 7 -38 -30 0 -23 -5 -24 10 15 -18 14 -15 -33 -12 26 1 -9 10 -15 -1 11 -12 7 -2 -14 -11 21 -18 3 8 2 -22 -22 4 2 2 -21 -25 -20 -14 15 -21 -2 17 -13 -13 13 -39 19 -3 22 13 8 -36 -3 55 1 29 0 -10 5 54 22 19 -14 44 36 42 31 15 27 23 34 16 25 -20 5 4 23 4 19 -27 0 0 -16 -28 22 -50 -3 2 7 14 -43 21 16 32 -7 -17 10 32 20 -14 13 1 -14 18 23 -18 1 24 -6 43 -13 -1 46 8 39 33 -26 -16 -9 23 -29 -4 -15 -15 -3 3 23 21 39 -38 6 -56 -36 5 -9 10 -37 28 7 28 -23 -34 -4 55 33 30 -15 30 -27 -4 -2 17 33 -10 34 44 34 19 -6 -7 -13 1 15 25 11 -1 19 22 -16 15 -16 -14 -10 7 14 12 -21 -29 -8 -40 -20 8 -1 -32 -45 -23 -23 -16 1 -17 -1 -20
5 12 15 14 -29 -12 -23 8 31 -2 21 8 -12 10 22 -17 -21 -29 16 34 -10 -28 7 -20 -16 2 -26 -27 30 4 23 -6 -33 31 15 31 10 24 -27 3 3 -30 6 18 -18 0 30 21 -22 22 0 8 -26 -28 -7 29 26 29 15 -13 26 -19 5 -27 20 -10 6 9 -11 7 29 7 -26 16 14 19 36 1 36 -8 11 21 32 12 -22 -32 -25 18 -20 -30 -16 8 -32 -25 11 22 -15 -18 10 -16 -37 37 -11 -29 31 3 -8 6 22 -2 27 -6 20 18 27 -18 15 -19 -1 -13 44 -48 -24 49 -21 -35 12 -32 -4 -32 -16 -88 12 4 -5 20 7 -81 -23 -36 8 13 50 19 4 89 9 32 7 -11 -33 93 48 12 65 62 25 24 49 -6 27 6 -26 15 -32 -35 -40 -1 -35 -5 -11 -18 -36 -25 -21 -20 3 16 15 -13 -26 4 -14 -21 -9 17 -32 -40 -41 22 -30 5 -53 -25 0 -18 -11 12 -35 3
-4 2 49 16 32 44 -21 6 15 -11 -15 20 20 14 26 19 27 33 -22 26 0 -24 9 -27 -14 -14 -36 29 -13 6 -34 -24 26 20 8 -18 -26 -29 -35 -12 -1 -5 7 29 17 -31 -4 28 -17 -3 -28 -17 -36 8 -1 -29 -25 3 8 -22 30 10 -14 20 1 4 -5 6 -24 27 11 28 3 -30 -5 -6 26 3 -24 25 -18 22 1 -14 6 -22 14 17 -46 -13 -9 21 -9 15 -39 19 -31 -17 12 -18 -13 -3 11 20 15 -23 6 30 -17 12 -31 -22 2 -14 -17 -18 4 36 -12 -25 57 -45 26 -11 -35 16 -28 -29 4 10 0 -66 -6 20 -26 63 -59 -93 -19 -82 -38 16 15 -17 -33 51 7 -4 1 11 4 94 14 47 45 56 7 8 -6 -33 7 -17 5 -11 -1 18 -27 -30 29 -9 35 12 5 -29 23 -20 -30 -4 6 -8 22 -16 33 5 3 -43 14 -8 0 57 -19 -21 -19 -28 -6 -62 -28 27 -13 -1
-7 -17 21 12 8 -18 -4 -11 -26 -31 23 -13 22 12 -24 -5 -23 -22 -21 -11 11 31 -15 6 -16 -7 16 29 -12 26 -29 -23 -19 -15 -6 16 2 -29 11 -26 23 27 24 -18 12 -10 7 5 30 14 8 22 33 12 10 -17 21 11 -18 50 -35 -19 12 -11 -12 -11 4 -25 -17 -15 25 -11 -31 26 -12 16 25 -13 17 -32 -28 -19 15 29 38 -19 7 26 -1 18 -37 57 -12 -30 25 -15 1 11 -15 -16 -7 -18 -6 8 -14 6 -6 33 -9 -2 -26 -6 -26 47 34 -46 -22 -7 27 -13 63 -25 112 83 22 88 -17 35 -22 55 41 18 44 33 14 30 -6 -4 51 29 -46 15 26 14 40 31 11 -7 2 -16 4 9 -10 20 18 42 60 -16 -14 -22 -2 -12 -19 -9 11 -28 23 -1 -16 -2 -15 -19 -48 -33 -4 -47 -15 33 -44 -53 -26 -29 9 -14 -19 -32 14 -9 -21 -2 -7 -9 -39 -10 8 -6 -6 -25 -57 -12
36 -17 16 11 -32 2 7 -6 -27 -9 -31 -3 26 -27 -14 -8 7 -38 3 5 -32 -19 9 -18 -16 22 12 -15 -10 -38 -2 23 5 20 -37 7 22 12 -22 -26 -47 30 21 29 23 7 -9 6 -18 8 -20 -8 -16 13 57 -6 -6 -19 20 37 -29 14 3 -1 -14 23 -18 11 -4 -5 -19 21 -35 8 5 8 -1 15 -32 -29 -22 60 6 15 42 2 -2 46 25 38 59 58 22 32 44 -5 1 20 43 -22 65 -27 78 66 54 23 -22 56 62 41 -42 -4 18 37 29 15 17 41 28 30 -31 -36 -42 16 16 -18 9 -35 12 -58 -2 7 -72 17 -22 -5 -17 12 -43 1 56 29 26 37 49 31 21 -10 10 37 4 56 16 35 45 67 46 -9 68 -19 -53 -9 5 -44 24 -73 -56 -64 -46 3 17 -28 -29 -72 -37 -32 -5 12 -17 -62 21 -3 17 9 -69 -20 5 -49 -23 18 29 35 -58 18 1 -22 -26 -2 -20 28
30 -57 -19 11 2 -13 -7 19 43 -27 11 22 41 37 19 -8 8 -15 41 -22 8 7 27 11 -15 -5 -31 37 24 -21 17 -4 5 6 17 13 7 -18 16 -17 -1 -11 -26 -18 16 7 40 32 18 4 -50 5 -6 -4 -27 15 29 5 5 2 -58 -46 2 -32 6 -33 14 -29 -34 12 10 -3 -44 -2 -25 -57 -62 -15 17 -19 23 -7 23 -13 7 6 5 61 7 20 58 29 10 -18 2 23 -45 24 29 -3 31 -51 25 45 71 2 28 37 39 57 33 29 17 84 57 -33 23 59 38 118 1 -25 21 13 -12 -9 12 -21 -17 -11 24 32 21 -14 -26 -37 -9 28 47 -9 77 70 1 6 51 11 -28 -11 1 -17 19 10 36 -16 48 40 43 -14 111 1 -48 -33 -37 -40 -43 -29 -26 -100 -4 -7 -20 23 -55 -51 -88 -72 -6 -22 -51 -15 5 -36 -9 -32 -25 -22 -55 -58 -25 -10 24 -7 -68 -38 -21 -18 -6 3 -32 -12
-26 -39 19 15 26 -20 -14 13 18 31 9 47 28 -24 5 23 -22 42 10 -15 21 14 -31 -23 -3 10 -15 -8 15 -30 -8 6 28 -7 -40 6 -32 10 -35 2 -13 -21 -14 -20 -9 -18 7 20 14 -26 -6 3 11 10 23 27 -5 -19 -2 -35 -26 -10 10 -19 4 20 25 -24 37 -21 32 3 8 1 -2 11 -23 30 -14 -35 -23 38 -10 36 -11 -8 -13 19 -8 -3 51 6 -8 -27 -26 5 31 28 -60 4 2 -47 -2 64 -2 -15 -33 24 25 41 -39 -31 48 24 45 -27 18 13 -42 66 24 23 34 2 -29 -4 5 11 18 -39 -2 -4 -52 -54 -28 -31 -27 -2 -35 3 6 34 18 48 44 32 1 -7 5 11 11 38 -9 12 28 -4 24 15 56 7 -21 -25 -30 -47 -12 -5 -8 -74 -28 -8 -12 -25 -22 -35 -61 -40 -40 -31 -30 -42 -4 -15 -12 -23 -45 -36 3 7 8 -18 -19 -14 15 1 21 -47 -28 -34 -30 4
12 -36 33 -17 -22 -3 39 32 4 28 -13 4 6 0 -25 1 -12 24 6 -4 -22 26 -7 -24 5 23 31 0 -5 1 -29 -22 -20 -13 5 10 -14 -6 5 9 -20 12 -39 -20 -1 20 34 15 -6 29 19 -9 -7 27 19 31 19 0 29 -28 -35 -1 -19 23 -11 1 -21 -49 -38 4 5 -34 -32 20 -16 -30 8 -6 -4 2 21 -21 5 41 -67 29 15 32 -86 -12 54 34 -13 -19 -24 22 -6 25 -30 25 24 1 -7 25 61 40 -52 53 -3 61 31 5 86 54 32 -4 55 11 -1 48 14 18 4 30 35 -39 -21 16 3 -9 -19 12 -39 -26 -32 -27 34 32 -2 30 26 19 53 -3 10 -33 -16 -27 -18 6 -35 18 -13 30 39 31 30 33 -21 -17 -28 -2 -67 -47 16 -33 -64 -41 -71 -58 -91 -8 -58 -78 -34 -40 -5 15 -80 -23 14 -34 30 13 44 7 -16 6 24 -12 -5 -23 23 13 26 12 -9 -2 -24 -30
-23 20 -21 19 9 32 9 26 -15 -28 -34 30 6 -20 -21 20 -22 4 26 21 2 2 3 -2 18 23 32 -13 -24 -30 -16 -3 -3 15 -21 -18 2 -11 -26 -31 16 11 5 1 17 -18 12 27 16 22 -8 2 -24 39 -16 -4 -7 6 -29 -9 -2 -5 -28 -3 27 -34 -25 7 -11 9 -31 23 -5 -9 -39 -4 12 -30 -34 -34 -6 24 -16 -16 -42 -9 -19 -26 -86 7 -2 27 16 -19 7 29 -2 -23 -25 19 -63 -15 -35 20 23 18 35 11 1 -10 9 27 54 64 30 -10 18 23 20 42 31 14 12 31 6 -4 2 17 25 -3 9 24 -30 5 9 32 -32 39 -4 0 6 -36 -14 -9 -19 -10 -12 -11 34 -13 26 -31 31 31 21 7 27 -8 -14 -31 -55 7 2 17 -31 18 -20 -57 -40 -12 -27 -27 8 -40 -14 -15 26 22 17 -29 19 20 -11 1 18 30 16 16 26 -4 26 -13 -24 -5 -8 19 21 -29 13 15
19 18 1 -15 8 26 1 -17 7 -24 26 -13 9 4 -15 -5 10 -14 5 31 -10 22 -1 -6 10 -32 36 25 12 -15 21 -9 30 29 -3 13 18 8 -37 17 -2 53 43 -23 39 33 -26 -8 -18 25 26 10 29 33 37 7 -24 13 -25 -7 -2 7 5 16 -34 -5 -17 -29 -19 2 1 -10 -18 -3 14 -38 26 -29 -25 -4 28 1 -6 -4 -5 -21 5 8 -9 16 -17 -9 -25 -4 34 3 12 15 -20 -28 -21 -9 -72 27 -15 3 18 41 -25 44 38 -11 16 69 -10 16 -15 12 12 7 -11 -14 -24 -17 0 -30 -6 -21 16 -32 -15 21 -40 13 -7 -14 -31 13 -22 4 -49 -17 -42 -55 11 14 18 32 -22 -5 -9 -14 -24 3 2 16 -51 17 -9 -17 -44 -24 -3 15 40 -18 -16 4 -23 -44 -13 -5 -63 -62 27 4 17 0 -31 -27 13 21 27 -24 -17 13 18 27 3 62 -20 -25 44 26 12 18 -2 27 4 -6
13 8 23 -4 -26 27 23 -30 32 -21 -7 30 -19 5 -25 -2 -2 -9 21 -4 15 -13 -17 -22 13 10 5 -12 11 -18 -9 14 2 -6 22 -32 -10 -5 33 24 -5 9 3 -11 -17 -15 -10 21 12 -4 9 29 20 4 35 -12 30 15 -5 -17 3 21 -20 -28 8 20 16 17 20 -17 -7 -32 -22 27 -19 -8 -21 -15 -16 -4 39 7 17 42 -3 30 34 24 19 19 36 15 8 -9 28 23 5 24 5 26 23 -7 -39 24 -17 -37 -6 -31 -7 6 -46 19 12 13 8 -16 30 26 1 -3 2 14 35 31 -32 -21 -26 -1 -16 -10 -1 11 22 30 1 -31 15 -3 -4 -15 -25 27 -19 -7 -35 -30 19 5 -38 -34 13 11 12 -15 11 -12 -1 -16 -38 -8 -5 -43 -36 12 12 -7 -29 -40 -41 -35 -43 -12 -27 -61 -26 -26 5 23 -19 -22 -5 -8 -22 11 -23 2 -6 28 0 10 -9 6 25 -12 12 -27 16 -12 1 -26
13 35 16 3 -4 11 -13 -29 -20 15 -31 -24 18 9 -6 40 -1 2 -12 13 -28 25 -15 -22 -33 -15 -26 -12 33 -38 20 20 -30 -33 4 19 -6 0 19 -34 -4 -39 -24 6 -27 -4 12 -15 -42 15 22 -17 10 2 -26 0 -17 -17 -32 -9 -16 26 -19 -19 -19 -13 -28 -24 -12 -31 8 14 -27 33 -20 30 28 23 -23 0 24 -16 2 -26 22 0 -9 8 -7 -32 -16 -7 25 -31 -8 8 1 15 12 10 28 27 25 -5 30 33 37 13 5 13 25 37 -10 -12 -17 47 -10 1 53 5 -10 -27 -26 -38 5 -15 -22 28 -8 30 -24 15 9 -5 -11 5 6 -15 -36 -1 -11 13 -37 -16 -15 14 5 -29 -25 20 12 18 13 8 -19 -3 5 -29 10 30 -22 -40 -31 -23 14 18 -17 -36 12 4 -40 -24 9 -42 15 21 -21 -24 25 -14 -23 -7 -36 9 0 30 10 10 27 21 5 -21 -25 13 30 14 -5 -20 9 -6
15 11 13 2 28 -24 25 -36 7 -9 -16 -4 -32 -15 8 35 -19 -33 18 -16 53 -23 9 -4 -3 22 27 34 -22 -25 -14 -11 6 8 19 35 -15 -27 31 -11 39 23 33 -25 0 -13 10 -13 42 4 4 -21 30 19 25 23 8 -23 -11 48 -8 -19 29 11 -3 -6 11 13 4 -6 24 -16 -28 8 30 6 -12 -25 27 -29 -24 -13 26 19 -10 -4 3 27 -16 1 -7 4 24 17 15 10 -8 6 -12 -13 45 -23 -13 24 9 -15 -25 7 52 11 9 4 -4 -22 -32 11 -10 -20 -31 36 -45 10 11 9 -4 -32 -17 12 20 -30 5 -10 -33 -23 16 -14 13 17 16 11 10 5 -25 -32 8 -25 -11 -11 -17 -14 -35 4 -24 -34 -12 12 -37 7 -20 7 -16 6 0 5 -2 -9 1 -33 -2 -27 -24 -26 22 11 0 -32 10 -19 8 -15 -33 5 41 -4 37 49 -10 13 31 35 7 34 -11 -2 0 39 -19 -10 -11 16
